{"learner":{"attributes":{"best_iteration":"48","best_score":"8.485666631537045","scikit_learn":"{\"_estimator_type\": \"regressor\"}"},"feature_names":[],"feature_types":[],"gradient_booster":{"model":{"cats":{"enc":[],"feature_segments":[],"sorted_idx":[]},"gbtree_model_param":{"num_parallel_tree":"1","num_trees":"69"},"iteration_indptr":[0,1,2,3,4,5,6,7,8,9,10,11,12,13,14,15,16,17,18,19,20,21,22,23,24,25,26,27,28,29,30,31,32,33,34,35,36,37,38,39,40,41,42,43,44,45,46,47,48,49,50,51,52,53,54,55,56,57,58,59,60,61,62,63,64,65,66,67,68,69],"tree_info":[0,0,0,0,0,0,0,0,0,0,0,0,0,0,0,0,0,0,0,0,0,0,0,0,0,0,0,0,0,0,0,0,0,0,0,0,0,0,0,0,0,0,0,0,0,0,0,0,0,0,0,0,0,0,0,0,0,0,0,0,0,0,0,0,0,0,0,0,0],"trees":[{"base_weights":[-2.4143297E-2,-2.436037E0,3.0156538E0,-5.067219E0,-1.3256845E0,7.199398E-1,3.822691E0,-6.096807E0,-1.2562532E0,-2.4907312E0,3.562183E-1,-5.6478553E0,1.3028972E0,1.8146178E0,5.4485044E0,-6.054134E-1,-2.8726643E-1,-1.04577266E-1,2.5670314E-1,-1.6239558E-1,-5.753375E-3,-3.7889607E-2,1.08974196E-1,-1.1103835E-1,-5.898025E-1,1.2063548E-2,1.842488E-1,6.545084E-2,3.0008453E-1,1.907387E-1,3.9031115E-1],"categories":[],"categories_nodes":[],"categories_segments":[],"categories_sizes":[],"default_left":[0,0,0,0,0,0,0,0,0,0,0,0,0,0,0,0,0,0,0,0,0,0,0,0,0,0,0,0,0,0,0],"id":0,"left_children":[1,3,5,7,9,11,13,15,17,19,21,23,25,27,29,-1,-1,-1,-1,-1,-1,-1,-1,-1,-1,-1,-1,-1,-1,-1,-1],"loss_changes":[1.725143E4,3.8263418E3,1.9259365E3,1.5186699E3,1.8114613E3,1.01706433E3,2.5039707E3,5.769795E2,4.591117E2,9.817744E2,7.714526E2,4.5842316E2,6.313303E2,7.246216E2,1.6072695E3,0E0,0E0,0E0,0E0,0E0,0E0,0E0,0E0,0E0,0E0,0E0,0E0,0E0,0E0,0E0,0E0],"parents":[2147483647,0,0,1,1,2,2,3,3,4,4,5,5,6,6,7,7,8,8,9,9,10,10,11,11,12,12,13,13,14,14],"right_children":[2,4,6,8,10,12,14,16,18,20,22,24,26,28,30,-1,-1,-1,-1,-1,-1,-1,-1,-1,-1,-1,-1,-1,-1,-1,-1],"split_conditions":[9.964E1,9.8175E1,2.252E2,5.6E-1,1.153E2,2.268E2,2.28E2,2.2E2,2.1404849E3,5.95E-1,2.284E2,1.46E-1,1.00975E2,1.0254E2,1.0062E2,-6.054134E-1,-2.8726643E-1,-1.04577266E-1,2.5670314E-1,-1.6239558E-1,-5.753375E-3,-3.7889607E-2,1.08974196E-1,-1.1103835E-1,-5.898025E-1,1.2063548E-2,1.842488E-1,6.545084E-2,3.0008453E-1,1.907387E-1,3.9031115E-1],"split_indices":[26,26,27,4,0,28,28,27,20,16,28,17,26,14,26,0,0,0,0,0,0,0,0,0,0,0,0,0,0,0,0],"split_type":[0,0,0,0,0,0,0,0,0,0,0,0,0,0,0,0,0,0,0,0,0,0,0,0,0,0,0,0,0,0,0],"sum_hessian":[2.351E3,1.311E3,1.04E3,3.88E2,9.23E2,2.71E2,7.69E2,3.05E2,8.3E1,5.45E2,3.78E2,2.2E1,2.49E2,3.45E2,4.24E2,1.5E1,2.9E2,7.4E1,9E0,4.13E2,1.32E2,2.35E2,1.43E2,1.5E1,7E0,1.73E2,7.6E1,3.09E2,3.6E1,2.52E2,1.72E2],"tree_param":{"num_deleted":"0","num_feature":"34","num_nodes":"31","size_leaf_vector":"1"}},{"base_weights":[-6.328318E-2,-2.4830456E0,2.971971E0,-4.7045655E0,-1.5657533E0,3.3329377E-1,3.6649406E0,-5.8542333E0,-8.232326E-1,-3.6314368E0,-5.8962595E-1,-1.3734095E-1,8.384748E0,1.5977213E0,5.1868467E0,-3.5233352E-1,-1.5209153E-1,-9.282672E-2,2.3855574E-1,-8.743266E-2,-2.2227617E-1,-8.886667E-2,1.0089415E-1,-5.77994E-2,1.5750395E-1,2.3688677E-1,7.247171E-1,7.0651256E-2,4.6584317E-1,2.2399795E-1,4.1804385E-1],"categories":[],"categories_nodes":[],"categories_segments":[],"categories_sizes":[],"default_left":[0,0,0,0,0,0,0,0,0,0,0,0,0,0,0,0,0,0,0,0,0,0,0,0,0,0,0,0,0,0,0],"id":1,"left_children":[1,3,5,7,9,11,13,15,17,19,21,23,25,27,29,-1,-1,-1,-1,-1,-1,-1,-1,-1,-1,-1,-1,-1,-1,-1,-1],"loss_changes":[1.7186383E4,2.6458262E3,1.8967861E3,1.690834E3,1.8589685E3,8.234284E2,2.5778174E3,9.611738E2,5.175548E2,4.4591992E2,1.9484762E3,6.9347784E2,1.9871075E2,4.8582922E2,1.02380664E3,0E0,0E0,0E0,0E0,0E0,0E0,0E0,0E0,0E0,0E0,0E0,0E0,0E0,0E0,0E0,0E0],"parents":[2147483647,0,0,1,1,2,2,3,3,4,4,5,5,6,6,7,7,8,8,9,9,10,10,11,11,12,12,13,13,14,14],"right_children":[2,4,6,8,10,12,14,16,18,20,22,24,26,28,30,-1,-1,-1,-1,-1,-1,-1,-1,-1,-1,-1,-1,-1,-1,-1,-1],"split_conditions":[9.963E1,9.8175E1,2.244E2,5.6E-1,2.268E2,2.376E2,2.28E2,1.164E2,1.81E0,2.93E-1,2.291E2,1.01305E2,1.11E2,1.0224E2,1.176E2,-3.5233352E-1,-1.5209153E-1,-9.282672E-2,2.3855574E-1,-8.743266E-2,-2.2227617E-1,-8.886667E-2,1.0089415E-1,-5.77994E-2,1.5750395E-1,2.3688677E-1,7.247171E-1,7.0651256E-2,4.6584317E-1,2.2399795E-1,4.1804385E-1],"split_indices":[26,26,27,4,27,28,28,11,24,10,28,26,0,26,0,0,0,0,0,0,0,0,0,0,0,0,0,0,0,0,0],"split_type":[0,0,0,0,0,0,0,0,0,0,0,0,0,0,0,0,0,0,0,0,0,0,0,0,0,0,0,0,0,0,0],"sum_hessian":[2.338E3,1.301E3,1.037E3,3.79E2,9.22E2,2.16E2,8.21E2,2.92E2,8.7E1,2.95E2,6.27E2,2.05E2,1.1E1,3.49E2,4.72E2,2.04E2,8.8E1,7.4E1,1.3E1,9E1,2.05E2,4.31E2,1.96E2,1.57E2,4.8E1,8E0,3E0,3.42E2,7E0,3.88E2,8.4E1],"tree_param":{"num_deleted":"0","num_feature":"34","num_nodes":"31","size_leaf_vector":"1"}},{"base_weights":[3.373434E-2,-2.1335068E0,2.8304846E0,-6.754331E0,-1.7144486E0,1.2819052E0,3.8332329E0,-8.848321E0,-1.8749914E0,-2.557391E0,-2.9074913E-1,-1.8857138E0,1.9097283E0,2.3643098E0,5.6448536E0,-4.731008E-1,-5.577151E-3,-3.588167E-1,8.74261E-2,-1.9642252E-1,-5.072538E-2,-4.8684813E-2,1.3703802E-1,-2.2142497E-1,4.3416124E-2,1.5372497E-1,2.0182095E-3,-2.6969343E-2,1.4971636E-1,3.0525112E-1,-8.625374E-2],"categories":[],"categories_nodes":[],"categories_segments":[],"categories_sizes":[],"default_left":[0,0,0,0,0,0,0,0,0,0,0,0,0,0,0,0,0,0,0,0,0,0,0,0,0,0,0,0,0,0,0],"id":2,"left_children":[1,3,5,7,9,11,13,15,17,19,21,23,25,27,29,-1,-1,-1,-1,-1,-1,-1,-1,-1,-1,-1,-1,-1,-1,-1,-1],"loss_changes":[1.4146894E4,2.5347793E3,1.5774258E3,1.0970938E3,1.447773E3,8.030604E2,1.6312324E3,4.0643555E2,6.656705E2,1.5994766E3,9.3433093E2,4.730412E2,7.314758E2,6.290919E2,9.4656055E2,0E0,0E0,0E0,0E0,0E0,0E0,0E0,0E0,0E0,0E0,0E0,0E0,0E0,0E0,0E0,0E0],"parents":[2147483647,0,0,1,1,2,2,3,3,4,4,5,5,6,6,7,7,8,8,9,9,10,10,11,11,12,12,13,13,14,14],"right_children":[2,4,6,8,10,12,14,16,18,20,22,24,26,28,30,-1,-1,-1,-1,-1,-1,-1,-1,-1,-1,-1,-1,-1,-1,-1,-1],"split_conditions":[9.964E1,9.7335E1,1.00355E2,2.27E2,2.304E2,2.248E2,1.096E0,2.353E2,1.135E2,2.288E2,2.62E0,1.00135E2,1.0011E2,1.13E2,5.91E1,-4.731008E-1,-5.577151E-3,-3.588167E-1,8.74261E-2,-1.9642252E-1,-5.072538E-2,-4.8684813E-2,1.3703802E-1,-2.2142497E-1,4.3416124E-2,1.5372497E-1,2.0182095E-3,-2.6969343E-2,1.4971636E-1,3.0525112E-1,-8.625374E-2],"split_indices":[26,26,26,28,27,28,29,27,11,28,24,26,26,1,31,0,0,0,0,0,0,0,0,0,0,0,0,0,0,0,0],"split_type":[0,0,0,0,0,0,0,0,0,0,0,0,0,0,0,0,0,0,0,0,0,0,0,0,0,0,0,0,0,0,0],"sum_hessian":[2.332E3,1.314E3,1.018E3,1.08E2,1.206E3,4.01E2,6.17E2,7.5E1,3.3E1,7.57E2,4.49E2,6.6E1,3.35E2,3.42E2,2.75E2,7E1,5E0,1.3E1,2E1,4E2,3.57E2,3.67E2,8.2E1,3.4E1,3.2E1,2.06E2,1.29E2,6.1E1,2.81E2,2.59E2,1.6E1],"tree_param":{"num_deleted":"0","num_feature":"34","num_nodes":"31","size_leaf_vector":"1"}},{"base_weights":[9.515965E-2,-1.8296751E0,3.0231779E0,-4.3827815E0,-8.8088447E-1,2.0923328E0,4.462966E0,-5.0205584E0,-1.0755899E0,-2.0167553E0,6.942645E-1,1.4548234E0,4.1152296E0,2.879711E0,6.6793275E0,-2.9417914E-1,-1.2572831E-1,-1.7856523E-1,6.885453E-2,-1.9234312E-1,-5.136434E-2,1.0943752E-1,-3.0619515E-2,5.9942424E-2,3.680484E-1,2.6213098E-1,-1.371067E-1,2.3827914E-2,2.273465E-1,2.9993117E-1,7.9067653E-1],"categories":[],"categories_nodes":[],"categories_segments":[],"categories_sizes":[],"default_left":[0,0,0,0,0,0,0,0,0,0,0,0,0,0,0,0,0,0,0,0,0,0,0,0,0,0,0,0,0,0,0],"id":3,"left_children":[1,3,5,7,9,11,13,15,17,19,21,23,25,27,29,-1,-1,-1,-1,-1,-1,-1,-1,-1,-1,-1,-1,-1,-1,-1,-1],"loss_changes":[1.338528E4,3.4673862E3,1.2531494E3,8.1298975E2,1.8728677E3,7.3425244E2,1.2756104E3,6.880928E2,3.9667422E2,1.0970349E3,8.586095E2,6.5335455E2,1.0735127E3,8.672615E2,8.5644727E2,0E0,0E0,0E0,0E0,0E0,0E0,0E0,0E0,0E0,0E0,0E0,0E0,0E0,0E0,0E0,0E0],"parents":[2147483647,0,0,1,1,2,2,3,3,4,4,5,5,6,6,7,7,8,8,9,9,10,10,11,11,12,12,13,13,14,14],"right_children":[2,4,6,8,10,12,14,16,18,20,22,24,26,28,30,-1,-1,-1,-1,-1,-1,-1,-1,-1,-1,-1,-1,-1,-1,-1,-1],"split_conditions":[9.98E1,9.8175E1,1.149E2,5.95E-1,1.153E2,1.162E2,2.296E2,5.58E-1,9.795E1,2.269E2,3.1E0,1.02185E2,1.37E1,1.00285E2,4E0,-2.9417914E-1,-1.2572831E-1,-1.7856523E-1,6.885453E-2,-1.9234312E-1,-5.136434E-2,1.0943752E-1,-3.0619515E-2,5.9942424E-2,3.680484E-1,2.6213098E-1,-1.371067E-1,2.3827914E-2,2.273465E-1,2.9993117E-1,7.9067653E-1],"split_indices":[26,26,11,5,0,0,28,15,3,28,2,26,23,26,7,0,0,0,0,0,0,0,0,0,0,0,0,0,0,0,0],"split_type":[0,0,0,0,0,0,0,0,0,0,0,0,0,0,0,0,0,0,0,0,0,0,0,0,0,0,0,0,0,0,0],"sum_hessian":[2.373E3,1.432E3,9.41E2,3.87E2,1.045E3,5.73E2,3.68E2,3.24E2,6.3E1,6.07E2,4.38E2,4.37E2,1.36E2,2.16E2,1.52E2,2.4E2,8.4E1,3.1E1,3.2E1,2.12E2,3.95E2,2.04E2,2.34E2,4.2E2,1.7E1,1.17E2,1.9E1,8.9E1,1.27E2,1.43E2,9E0],"tree_param":{"num_deleted":"0","num_feature":"34","num_nodes":"31","size_leaf_vector":"1"}},{"base_weights":[9.888223E-4,-2.3469253E0,2.151662E0,-4.609192E0,-1.6380711E0,1.1155705E0,3.6137495E0,-5.7675056E0,-1.5765555E0,-2.5138924E0,9.8132916E-2,-3.9004672E0,1.5569338E0,2.5557718E0,5.752144E0,-3.6576307E-1,-1.8175852E-1,-1.409567E-1,1.8322699E-1,-2.8572854E-1,-9.696528E-2,-8.507948E-2,5.1748868E-2,1.29871E-1,-2.5610176E-1,-5.647872E-2,1.1040949E-1,2.3424907E-1,6.923517E-2,3.2384667E-1,-3.439304E-2],"categories":[],"categories_nodes":[],"categories_segments":[],"categories_sizes":[],"default_left":[0,0,0,0,0,0,0,0,0,0,0,0,0,0,0,0,0,0,0,0,0,0,0,0,0,0,0,0,0,0,0],"id":4,"left_children":[1,3,5,7,9,11,13,15,17,19,21,23,25,27,29,-1,-1,-1,-1,-1,-1,-1,-1,-1,-1,-1,-1,-1,-1,-1,-1],"loss_changes":[1.1977643E4,1.8109517E3,1.8713613E3,9.3934814E2,1.3155693E3,1.6133604E3,1.145896E3,6.1697266E2,5.0527878E2,1.0463816E3,4.9240463E2,4.8162317E2,1.1712301E3,8.537527E2,7.932871E2,0E0,0E0,0E0,0E0,0E0,0E0,0E0,0E0,0E0,0E0,0E0,0E0,0E0,0E0,0E0,0E0],"parents":[2147483647,0,0,1,1,2,2,3,3,4,4,5,5,6,6,7,7,8,8,9,9,10,10,11,11,12,12,13,13,14,14],"right_children":[2,4,6,8,10,12,14,16,18,20,22,24,26,28,30,-1,-1,-1,-1,-1,-1,-1,-1,-1,-1,-1,-1,-1,-1,-1,-1],"split_conditions":[9.9385E1,9.7865E1,1.0054E2,1.101E0,1.162E2,1E0,2.292E2,1.131E2,5.65E-1,1.109E2,3.46E1,2E0,2.246E2,2E0,5.91E1,-3.6576307E-1,-1.8175852E-1,-1.409567E-1,1.8322699E-1,-2.8572854E-1,-9.696528E-2,-8.507948E-2,5.1748868E-2,1.29871E-1,-2.5610176E-1,-5.647872E-2,1.1040949E-1,2.3424907E-1,6.923517E-2,3.2384667E-1,-3.439304E-2],"split_indices":[26,26,26,29,0,9,27,12,4,1,30,7,27,9,31,0,0,0,0,0,0,0,0,0,0,0,0,0,0,0,0],"split_type":[0,0,0,0,0,0,0,0,0,0,0,0,0,0,0,0,0,0,0,0,0,0,0,0,0,0,0,0,0,0,0],"sum_hessian":[2.37E3,1.133E3,1.237E3,2.69E2,8.64E2,7.25E2,5.12E2,1.94E2,7.5E1,5.74E2,2.9E2,5.8E1,6.67E2,3.44E2,1.68E2,1.11E2,8.3E1,6.1E1,1.4E1,8.6E1,4.88E2,9.9E1,1.91E2,9E0,4.9E1,1.3E2,5.37E2,1.21E2,2.23E2,1.51E2,1.7E1],"tree_param":{"num_deleted":"0","num_feature":"34","num_nodes":"31","size_leaf_vector":"1"}},{"base_weights":[-1.0579458E-1,-2.0797253E0,1.4692461E0,-3.346626E0,1.485697E-1,-8.2609385E-2,3.3862295E0,-3.9164908E0,-8.215657E-1,-5.486646E-2,1.5539317E1,-1.2985681E0,1.9621074E0,8.6242706E-1,4.3051634E0,-3.582518E-1,-1.7360638E-1,-6.81234E-2,5.066704E-1,-3.907215E-1,1.2104868E-2,1.380874E0,2.807703E-1,-1.114434E-1,4.0768113E-2,1.571142E-1,-8.20994E-2,-9.8201916E-2,1.12719595E-1,-1.7715164E-2,2.370706E-1],"categories":[],"categories_nodes":[],"categories_segments":[],"categories_sizes":[],"default_left":[0,0,0,0,0,0,0,0,0,0,0,0,0,0,0,0,0,0,0,0,0,0,0,0,0,0,0,0,0,0,0],"id":5,"left_children":[1,3,5,7,9,11,13,15,17,19,21,23,25,27,29,-1,-1,-1,-1,-1,-1,-1,-1,-1,-1,-1,-1,-1,-1,-1,-1],"loss_changes":[7.3838726E3,2.9759692E3,3.9300984E3,9.6375195E2,1.2000388E3,1.820027E3,1.3669385E3,7.661797E2,7.545026E2,8.752251E2,4.4422974E2,9.0448157E2,1.1663568E3,6.299878E2,8.818345E2,0E0,0E0,0E0,0E0,0E0,0E0,0E0,0E0,0E0,0E0,0E0,0E0,0E0,0E0,0E0,0E0],"parents":[2147483647,0,0,1,1,2,2,3,3,4,4,5,5,6,6,7,7,8,8,9,9,10,10,11,11,12,12,13,13,14,14],"right_children":[2,4,6,8,10,12,14,16,18,20,22,24,26,28,30,-1,-1,-1,-1,-1,-1,-1,-1,-1,-1,-1,-1,-1,-1,-1,-1],"split_conditions":[9.915E1,1.0026E2,9.974E1,5.99E-1,6E0,1.153E2,1.132E2,9.694E1,4E0,1.094E2,1.142E2,1.0156E2,5.1E0,5.33E-1,2.266E2,-3.582518E-1,-1.7360638E-1,-6.81234E-2,5.066704E-1,-3.907215E-1,1.2104868E-2,1.380874E0,2.807703E-1,-1.114434E-1,4.0768113E-2,1.571142E-1,-8.20994E-2,-9.8201916E-2,1.12719595E-1,-1.7715164E-2,2.370706E-1],"split_indices":[3,14,14,5,7,0,1,14,7,1,0,3,23,15,28,0,0,0,0,0,0,0,0,0,0,0,0,0,0,0,0],"split_type":[0,0,0,0,0,0,0,0,0,0,0,0,0,0,0,0,0,0,0,0,0,0,0,0,0,0,0,0,0,0,0],"sum_hessian":[2.373E3,1.053E3,1.32E3,6.71E2,3.82E2,7.3E2,5.9E2,5.47E2,1.24E2,3.78E2,4E0,4.58E2,2.72E2,1.58E2,4.32E2,6.4E1,4.83E2,1.19E2,5E0,1.3E1,3.65E2,1E0,3E0,3.18E2,1.4E2,2.05E2,6.7E1,5.2E1,1.06E2,3.7E1,3.95E2],"tree_param":{"num_deleted":"0","num_feature":"34","num_nodes":"31","size_leaf_vector":"1"}},{"base_weights":[-2.0496213E-1,-2.0526202E0,2.1224363E0,-3.8928494E0,-1.2962693E0,1.6986257E0,5.000527E0,-4.6563034E0,2.2603545E-1,-2.4699776E0,1.11368276E-1,9.407531E-1,2.9538715E0,-4.944474E0,5.756123E0,-2.6659587E-1,-6.2749766E-2,-2.4671903E-2,5.300946E-1,-2.436025E-1,-7.479003E-2,-3.888158E-2,1.571909E-1,-3.4001333E-1,5.3828903E-2,3.058956E-2,2.2694659E-1,-4.3699166E-1,-1.4515777E-1,-7.5782607E-3,3.4752396E-1],"categories":[],"categories_nodes":[],"categories_segments":[],"categories_sizes":[],"default_left":[0,0,0,0,0,0,0,0,0,0,0,0,0,0,0,0,0,0,0,0,0,0,0,0,0,0,0,0,0,0,0],"id":6,"left_children":[1,3,5,7,9,11,13,15,17,19,21,23,25,27,29,-1,-1,-1,-1,-1,-1,-1,-1,-1,-1,-1,-1,-1,-1,-1,-1],"loss_changes":[1.0183016E4,1.832207E3,1.2698193E3,1.2085713E3,1.5483453E3,8.6767554E2,1.0353909E3,7.378506E2,4.606058E2,1.1884746E3,1.1535715E3,6.087352E2,1.2742676E3,5.210228E1,8.830386E2,0E0,0E0,0E0,0E0,0E0,0E0,0E0,0E0,0E0,0E0,0E0,0E0,0E0,0E0,0E0,0E0],"parents":[2147483647,0,0,1,1,2,2,3,3,4,4,5,5,6,6,7,7,8,8,9,9,10,10,11,11,12,12,13,13,14,14],"right_children":[2,4,6,8,10,12,14,16,18,20,22,24,26,28,30,-1,-1,-1,-1,-1,-1,-1,-1,-1,-1,-1,-1,-1,-1,-1,-1],"split_conditions":[9.9615E1,2.255E2,1.176E2,2.34E2,2.29E2,1.15E2,5.53E-1,2.25E0,1.144E2,1.134E2,2.302E2,2.176E2,1.00285E2,1E0,2.255E2,-2.6659587E-1,-6.2749766E-2,-2.4671903E-2,5.300946E-1,-2.436025E-1,-7.479003E-2,-3.888158E-2,1.571909E-1,-3.4001333E-1,5.3828903E-2,3.058956E-2,2.2694659E-1,-4.3699166E-1,-1.4515777E-1,-7.5782607E-3,3.4752396E-1],"split_indices":[26,28,0,27,27,11,16,24,1,12,28,27,26,21,28,0,0,0,0,0,0,0,0,0,0,0,0,0,0,0,0],"split_type":[0,0,0,0,0,0,0,0,0,0,0,0,0,0,0,0,0,0,0,0,0,0,0,0,0,0,0,0,0,0,0],"sum_hessian":[2.366E3,1.319E3,1.047E3,3.83E2,9.36E2,9.14E2,1.33E2,3.23E2,6E1,5.1E2,4.26E2,5.71E2,3.43E2,9E0,1.24E2,2.69E2,5.4E1,5.7E1,3E0,1.46E2,3.64E2,3.3E2,9.6E1,9E0,5.62E2,1.39E2,2.04E2,2E0,7E0,2.1E1,1.03E2],"tree_param":{"num_deleted":"0","num_feature":"34","num_nodes":"31","size_leaf_vector":"1"}},{"base_weights":[-4.4826295E-2,-1.413165E0,1.8831431E0,-2.6072867E0,5.843624E-1,2.5626693E-2,3.425837E0,-3.3814085E0,-7.668934E-1,-6.399461E-1,1.9668411E0,-1.5674956E-1,1.151167E1,1.4695868E0,4.3674784E0,-4.4383532E-1,-1.5607774E-1,7.8356996E-2,-9.4142355E-2,-9.976914E-2,2.2339916E-2,1.8121658E-2,2.595495E-1,9.89048E-2,-5.8861922E-2,2.229849E-1,1.3455876E0,2.653882E-2,2.2739232E-1,1.0963962E-1,2.9744908E-1],"categories":[],"categories_nodes":[],"categories_segments":[],"categories_sizes":[],"default_left":[0,0,0,0,0,0,0,0,0,0,0,0,0,0,0,0,0,0,0,0,0,0,0,0,0,0,0,0,0,0,0],"id":7,"left_children":[1,3,5,7,9,11,13,15,17,19,21,23,25,27,29,-1,-1,-1,-1,-1,-1,-1,-1,-1,-1,-1,-1,-1,-1,-1,-1],"loss_changes":[6.2470796E3,3.3051516E3,2.8167764E3,1.2326113E3,8.797079E2,9.3817175E2,9.8278174E2,8.433545E2,6.749563E2,4.074431E2,1.2602941E3,9.630851E2,6.4018823E2,5.0620898E2,1.2319727E3,0E0,0E0,0E0,0E0,0E0,0E0,0E0,0E0,0E0,0E0,0E0,0E0,0E0,0E0,0E0,0E0],"parents":[2147483647,0,0,1,1,2,2,3,3,4,4,5,5,6,6,7,7,8,8,9,9,10,10,11,11,12,12,13,13,14,14],"right_children":[2,4,6,8,10,12,14,16,18,20,22,24,26,28,30,-1,-1,-1,-1,-1,-1,-1,-1,-1,-1,-1,-1,-1,-1,-1,-1],"split_conditions":[9.991E1,1.0026E2,9.915E1,1.103E0,1.151E2,6E0,2.279E2,2.202E2,3E0,3.26E1,1.1E0,1.34E-1,9.884E1,1.164E2,2.264E2,-4.4383532E-1,-1.5607774E-1,7.8356996E-2,-9.4142355E-2,-9.976914E-2,2.2339916E-2,1.8121658E-2,2.595495E-1,9.89048E-2,-5.8861922E-2,2.229849E-1,1.3455876E0,2.653882E-2,2.2739232E-1,1.0963962E-1,2.9744908E-1],"split_indices":[14,3,3,29,1,7,28,27,9,30,29,6,3,0,27,0,0,0,0,0,0,0,0,0,0,0,0,0,0,0,0],"split_type":[0,0,0,0,0,0,0,0,0,0,0,0,0,0,0,0,0,0,0,0,0,0,0,0,0,0,0,0,0,0,0],"sum_hessian":[2.366E3,1.384E3,9.82E2,8.66E2,5.18E2,4.46E2,5.36E2,6.09E2,2.57E2,2.75E2,2.43E2,4.4E2,6E0,1.75E2,3.61E2,2.6E1,5.83E2,8.3E1,1.74E2,1.22E2,1.53E2,1.63E2,8E1,1.42E2,2.98E2,5E0,1E0,1.35E2,4E1,1.53E2,2.08E2],"tree_param":{"num_deleted":"0","num_feature":"34","num_nodes":"31","size_leaf_vector":"1"}},{"base_weights":[4.08477E-2,-2.021363E0,1.9301955E0,-2.7520533E0,-3.551483E-4,2.3153938E-1,2.844076E0,-4.3213015E0,-1.9709594E0,-4.1587644E0,1.1004016E0,-4.6985075E-1,3.3626683E0,1.5357636E0,4.467802E0,-1.1482046E-1,-2.7926216E-1,-2.2051339E-1,-5.4769244E-2,-2.497953E-1,3.275631E-1,4.2027727E-1,4.0488195E-2,-1.3658093E-1,2.1122944E-2,2.4682517E-1,-1.1713806E-2,5.897286E-2,3.2969803E-1,1.6037399E-1,2.970204E-1],"categories":[],"categories_nodes":[],"categories_segments":[],"categories_sizes":[],"default_left":[0,0,0,0,0,0,0,0,0,0,0,0,0,0,0,0,0,0,0,0,0,0,0,0,0,0,0,0,0,0,0],"id":8,"left_children":[1,3,5,7,9,11,13,15,17,19,21,23,25,27,29,-1,-1,-1,-1,-1,-1,-1,-1,-1,-1,-1,-1,-1,-1,-1,-1],"loss_changes":[9.175635E3,1.6627979E3,1.9072021E3,1.0051621E3,1.3777954E3,9.481175E2,1.6904868E3,6.884346E2,1.1784004E3,5.975757E2,4.9850336E2,7.135777E2,4.4837543E2,7.924298E2,6.4166797E2,0E0,0E0,0E0,0E0,0E0,0E0,0E0,0E0,0E0,0E0,0E0,0E0,0E0,0E0,0E0,0E0],"parents":[2147483647,0,0,1,1,2,2,3,3,4,4,5,5,6,6,7,7,8,8,9,9,10,10,11,11,12,12,13,13,14,14],"right_children":[2,4,6,8,10,12,14,16,18,20,22,24,26,28,30,-1,-1,-1,-1,-1,-1,-1,-1,-1,-1,-1,-1,-1,-1,-1,-1],"split_conditions":[9.9385E1,1.168E2,2.279E2,1.137E2,9.7705E1,1.0192E2,2.281E2,1.37E-1,2.249E2,1.5E0,9.651E1,9.966E1,3.3E0,4E0,1.00355E2,-1.1482046E-1,-2.7926216E-1,-2.2051339E-1,-5.4769244E-2,-2.497953E-1,3.275631E-1,4.2027727E-1,4.0488195E-2,-1.3658093E-1,2.1122944E-2,2.4682517E-1,-1.1713806E-2,5.897286E-2,3.2969803E-1,1.6037399E-1,2.970204E-1],"split_indices":[26,0,28,11,26,14,27,6,28,24,14,3,21,7,26,0,0,0,0,0,0,0,0,0,0,0,0,0,0,0,0],"split_type":[0,0,0,0,0,0,0,0,0,0,0,0,0,0,0,0,0,0,0,0,0,0,0,0,0,0,0,0,0,0,0],"sum_hessian":[2.353E3,1.125E3,1.228E3,8.26E2,2.99E2,4.3E2,7.98E2,2.73E2,5.53E2,6.2E1,2.37E2,3.52E2,7.8E1,4.43E2,3.55E2,1.06E2,1.67E2,1.45E2,4.08E2,5.8E1,4E0,8E0,2.29E2,9.9E1,2.53E2,5.4E1,2.4E1,4.15E2,2.8E1,1.93E2,1.62E2],"tree_param":{"num_deleted":"0","num_feature":"34","num_nodes":"31","size_leaf_vector":"1"}},{"base_weights":[1.353219E-1,-1.770486E0,1.5724107E0,-3.5546582E0,-6.3591313E-1,3.9996073E-1,3.3042905E0,-3.9576755E0,-5.839176E-1,-9.990298E-1,4.6360993E0,-1.1966203E0,1.4971874E0,1.2921189E0,4.2492867E0,-2.5941834E-1,-1.4388692E-1,-1.3968436E-1,7.804089E-2,-6.6508465E-2,9.7101584E-2,-2.2616397E-1,4.8710224E-1,-9.714905E-2,7.08349E-2,-3.4379081E-3,1.4562373E-1,-2.3088522E-1,8.79194E-2,5.7552673E-2,2.625889E-1],"categories":[],"categories_nodes":[],"categories_segments":[],"categories_sizes":[],"default_left":[0,0,0,0,0,0,0,0,0,0,0,0,0,0,0,0,0,0,0,0,0,0,0,0,0,0,0,0,0,0,0],"id":9,"left_children":[1,3,5,7,9,11,13,15,17,19,21,23,25,27,29,-1,-1,-1,-1,-1,-1,-1,-1,-1,-1,-1,-1,-1,-1,-1,-1],"loss_changes":[6.428045E3,2.0402312E3,2.715544E3,4.6701514E2,1.1877035E3,1.4014888E3,1.0213164E3,4.4359766E2,2.3185025E2,5.6647205E2,1.9147576E3,6.386084E2,1.0507086E3,4.8758847E2,1.1338384E3,0E0,0E0,0E0,0E0,0E0,0E0,0E0,0E0,0E0,0E0,0E0,0E0,0E0,0E0,0E0,0E0],"parents":[2147483647,0,0,1,1,2,2,3,3,4,4,5,5,6,6,7,7,8,8,9,9,10,10,11,11,12,12,13,13,14,14],"right_children":[2,4,6,8,10,12,14,16,18,20,22,24,26,28,30,-1,-1,-1,-1,-1,-1,-1,-1,-1,-1,-1,-1,-1,-1,-1,-1],"split_conditions":[9.915E1,9.877E1,9.991E1,9.3E0,4E0,1.0051E2,2.279E2,1.088E0,-7E-2,1.0216E2,2.257E2,1.104E0,1.149E2,2.248E2,2.242E2,-2.5941834E-1,-1.4388692E-1,-1.3968436E-1,7.804089E-2,-6.6508465E-2,9.7101584E-2,-2.2616397E-1,4.8710224E-1,-9.714905E-2,7.08349E-2,-3.4379081E-3,1.4562373E-1,-2.3088522E-1,8.79194E-2,5.7552673E-2,2.625889E-1],"split_indices":[3,14,14,23,7,3,28,29,24,14,28,29,1,27,27,0,0,0,0,0,0,0,0,0,0,0,0,0,0,0,0],"split_type":[0,0,0,0,0,0,0,0,0,0,0,0,0,0,0,0,0,0,0,0,0,0,0,0,0,0,0,0,0,0,0],"sum_hessian":[2.345E3,1.008E3,1.337E3,3.91E2,6.17E2,7.98E2,5.39E2,3.44E2,4.7E1,5.78E2,3.9E1,3.25E2,4.73E2,1.73E2,3.66E2,1.59E2,1.85E2,2.3E1,2.4E1,5.2E2,5.8E1,1.4E1,2.5E1,2.53E2,7.2E1,2.25E2,2.48E2,1.2E1,1.61E2,9E1,2.76E2],"tree_param":{"num_deleted":"0","num_feature":"34","num_nodes":"31","size_leaf_vector":"1"}},{"base_weights":[6.8735844E-3,-1.5998378E0,2.0056098E0,-2.419005E0,-8.028874E-3,3.3721825E-1,2.6130483E0,-3.4226356E0,-1.0687371E0,-1.2522156E0,2.2284083E0,-4.7070107E0,8.087975E-1,2.1789238E0,5.7949457E0,-2.8739855E-1,-1.3867617E-1,-3.2777438E-1,-3.74709E-2,-7.628771E-2,5.8380127E-1,-2.8075218E-2,1.7438702E-1,3.7941456E-2,-3.5011438E-1,4.9906014E-3,1.3456236E-1,9.834697E-2,4.333437E-1,-2.7844486E-1,3.122816E-1],"categories":[],"categories_nodes":[],"categories_segments":[],"categories_sizes":[],"default_left":[0,0,0,0,0,0,0,0,0,0,0,0,0,0,0,0,0,0,0,0,0,0,0,0,0,0,0,0,0,0,0],"id":10,"left_children":[1,3,5,7,9,11,13,15,17,19,21,23,25,27,29,-1,-1,-1,-1,-1,-1,-1,-1,-1,-1,-1,-1,-1,-1,-1,-1],"loss_changes":[7.501809E3,1.688605E3,1.0541152E3,1.1550127E3,1.2298931E3,6.674792E2,1.041335E3,7.236655E2,6.3632825E2,1.02214417E3,5.570798E2,3.0640833E2,3.4139648E2,9.085596E2,5.0084058E2,0E0,0E0,0E0,0E0,0E0,0E0,0E0,0E0,0E0,0E0,0E0,0E0,0E0,0E0,0E0,0E0],"parents":[2147483647,0,0,1,1,2,2,3,3,4,4,5,5,6,6,7,7,8,8,9,9,10,10,11,11,12,12,13,13,14,14],"right_children":[2,4,6,8,10,12,14,16,18,20,22,24,26,28,30,-1,-1,-1,-1,-1,-1,-1,-1,-1,-1,-1,-1,-1,-1,-1,-1],"split_conditions":[9.963E1,2.291E2,2.268E2,1.101E0,2.289E2,4.51E-1,1.176E2,2.241E2,1.099E2,1.179E2,1.144E2,1.57E1,4.34E1,1.02185E2,1.081E2,-2.8739855E-1,-1.3867617E-1,-3.2777438E-1,-3.74709E-2,-7.628771E-2,5.8380127E-1,-2.8075218E-2,1.7438702E-1,3.7941456E-2,-3.5011438E-1,4.9906014E-3,1.3456236E-1,9.834697E-2,4.333437E-1,-2.7844486E-1,3.122816E-1],"split_indices":[26,28,28,29,27,22,0,28,1,11,12,31,30,26,11,0,0,0,0,0,0,0,0,0,0,0,0,0,0,0,0],"split_type":[0,0,0,0,0,0,0,0,0,0,0,0,0,0,0,0,0,0,0,0,0,0,0,0,0,0,0,0,0,0,0],"sum_hessian":[2.334E3,1.294E3,1.04E3,8.54E2,4.4E2,2.78E2,7.62E2,4.89E2,3.65E2,2.83E2,1.57E2,2.3E1,2.55E2,6.72E2,9E1,1.05E2,3.84E2,1.9E1,3.46E2,2.78E2,5E0,4.9E1,1.08E2,7E0,1.6E1,1.86E2,6.9E1,6.52E2,2E1,3E0,8.7E1],"tree_param":{"num_deleted":"0","num_feature":"34","num_nodes":"31","size_leaf_vector":"1"}},{"base_weights":[-2.1500105E-2,-1.541579E0,1.6338363E0,-4.9110866E0,-1.1910971E0,8.383203E-1,2.8146958E0,-6.8448253E0,-1.6351715E0,-1.8692237E0,1.924969E-1,-3.2363381E0,1.2133887E0,1.5252603E-2,3.3538623E0,3.454813E-1,-3.5679343E-1,9.41255E-2,-1.8562539E-1,-1.2646276E-1,-1.25796525E-2,-4.3376405E-2,6.835827E-2,-4.986025E-2,-3.2515022E-1,3.7322298E-2,2.2889379E-1,1.5941028E-1,-1.0501943E-1,1.9083099E-1,-3.8914803E-2],"categories":[],"categories_nodes":[],"categories_segments":[],"categories_sizes":[],"default_left":[0,0,0,0,0,0,0,0,0,0,0,0,0,0,0,0,0,0,0,0,0,0,0,0,0,0,0,0,0,0,0],"id":11,"left_children":[1,3,5,7,9,11,13,15,17,19,21,23,25,27,29,-1,-1,-1,-1,-1,-1,-1,-1,-1,-1,-1,-1,-1,-1,-1,-1],"loss_changes":[5.9081387E3,1.4396353E3,1.0535178E3,7.173052E2,1.0418196E3,1.0324565E3,6.821824E2,3.3753247E2,3.2851474E2,7.947905E2,4.5692117E2,4.1044165E2,9.6590393E2,5.0344586E2,7.2768945E2,0E0,0E0,0E0,0E0,0E0,0E0,0E0,0E0,0E0,0E0,0E0,0E0,0E0,0E0,0E0,0E0],"parents":[2147483647,0,0,1,1,2,2,3,3,4,4,5,5,6,6,7,7,8,8,9,9,10,10,11,11,12,12,13,13,14,14],"right_children":[2,4,6,8,10,12,14,16,18,20,22,24,26,28,30,-1,-1,-1,-1,-1,-1,-1,-1,-1,-1,-1,-1,-1,-1,-1,-1],"split_conditions":[9.95E1,9.7375E1,1.00605E2,2.266E2,1.162E2,5.54E-1,2.264E2,-1.6E1,3.84E1,2.302E2,9.874E1,1.00165E2,1.176E2,3.56E1,1.56E-1,3.454813E-1,-3.5679343E-1,9.41255E-2,-1.8562539E-1,-1.2646276E-1,-1.25796525E-2,-4.3376405E-2,6.835827E-2,-4.986025E-2,-3.2515022E-1,3.7322298E-2,2.2889379E-1,1.5941028E-1,-1.0501943E-1,1.9083099E-1,-3.8914803E-2],"split_indices":[26,26,26,28,0,16,28,23,30,28,3,26,0,31,6,0,0,0,0,0,0,0,0,0,0,0,0,0,0,0,0],"split_type":[0,0,0,0,0,0,0,0,0,0,0,0,0,0,0,0,0,0,0,0,0,0,0,0,0,0,0,0,0,0,0],"sum_hessian":[2.346E3,1.223E3,1.123E3,1.14E2,1.109E3,6.72E2,4.51E2,7.1E1,4.3E1,7.44E2,3.65E2,5.6E1,6.16E2,7.3E1,3.78E2,1E0,7E1,1.6E1,2.7E1,5.28E2,2.16E2,1.92E2,1.73E2,3.4E1,2.2E1,5.42E2,7.4E1,2.9E1,4.4E1,3.4E2,3.8E1],"tree_param":{"num_deleted":"0","num_feature":"34","num_nodes":"31","size_leaf_vector":"1"}},{"base_weights":[3.642226E-2,-1.4718668E0,1.912062E0,-2.2743037E0,-3.8390917E-1,1.2811742E0,3.3111804E0,-2.622523E0,-2.3979016E-1,-1.3451812E0,1.9219677E0,-4.0780716E0,1.5180354E0,1.7437143E0,4.9067593E0,-2.6356632E-1,-1.1393447E-1,2.5288975E-2,-3.216444E-1,-3.4641457E-1,-4.9771633E-2,2.1937475E-2,2.6474652E-1,-2.8647646E-1,6.930299E-2,7.1185976E-2,5.299011E-1,2.9591938E-2,2.2410165E-1,1.3130912E-1,3.0827352E-1],"categories":[],"categories_nodes":[],"categories_segments":[],"categories_sizes":[],"default_left":[0,0,0,0,0,0,0,0,0,0,0,0,0,0,0,0,0,0,0,0,0,0,0,0,0,0,0,0,0,0,0],"id":12,"left_children":[1,3,5,7,9,11,13,15,17,19,21,23,25,27,29,-1,-1,-1,-1,-1,-1,-1,-1,-1,-1,-1,-1,-1,-1,-1,-1],"loss_changes":[6.6707837E3,1.1401606E3,9.2346216E2,5.321306E2,1.235001E3,9.2777344E2,8.0677466E2,5.72688E2,5.1578345E2,7.605085E2,8.181425E2,2.8767865E2,5.809564E2,5.209448E2,4.4597314E2,0E0,0E0,0E0,0E0,0E0,0E0,0E0,0E0,0E0,0E0,0E0,0E0,0E0,0E0,0E0,0E0],"parents":[2147483647,0,0,1,1,2,2,3,3,4,4,5,5,6,6,7,7,8,8,9,9,10,10,11,11,12,12,13,13,14,14],"right_children":[2,4,6,8,10,12,14,16,18,20,22,24,26,28,30,-1,-1,-1,-1,-1,-1,-1,-1,-1,-1,-1,-1,-1,-1,-1,-1],"split_conditions":[9.963E1,1.15E2,1.16E2,1.0026E2,1.32E0,2.213E2,1.088E0,1.048E0,2.6E0,9.6985E1,2.34E2,3.3E0,8E0,1.177E2,9.959E1,-2.6356632E-1,-1.1393447E-1,2.5288975E-2,-3.216444E-1,-3.4641457E-1,-4.9771633E-2,2.1937475E-2,2.6474652E-1,-2.8647646E-1,6.930299E-2,7.1185976E-2,5.299011E-1,2.9591938E-2,2.2410165E-1,1.3130912E-1,3.0827352E-1],"split_indices":[26,0,1,14,24,27,29,29,2,26,27,9,7,12,14,0,0,0,0,0,0,0,0,0,0,0,0,0,0,0,0],"split_type":[0,0,0,0,0,0,0,0,0,0,0,0,0,0,0,0,0,0,0,0,0,0,0,0,0,0,0,0,0,0,0],"sum_hessian":[2.356E3,1.306E3,1.05E3,7.51E2,5.55E2,7.25E2,3.25E2,6.41E2,1.1E2,3.92E2,1.63E2,3E1,6.95E2,1.65E2,1.6E2,7.2E1,5.69E2,9.9E1,1.1E1,2.2E1,3.7E2,1.14E2,4.9E1,2.3E1,7E0,6.89E2,6E0,1.17E2,4.8E1,5.8E1,1.02E2],"tree_param":{"num_deleted":"0","num_feature":"34","num_nodes":"31","size_leaf_vector":"1"}},{"base_weights":[2.7295126E-2,-1.5544003E0,1.1508718E0,-2.351948E0,-2.817801E-1,1.3648258E-1,2.0571315E0,-4.5279245E0,-1.724599E0,-1.3094282E0,1.5372628E0,-4.2851627E-2,6.8798594E0,9.2763233E-1,3.6842835E0,-1.7634934E-1,-3.7574264E-1,-3.3318365E-1,-6.7512445E-2,-1.4633723E-1,5.0470658E-2,4.9395606E-2,3.8949785E-1,-2.645797E-1,7.6279626E-3,-2.5336329E-2,3.9492598E-1,1.0403378E-2,1.4153071E-1,2.1100293E-1,-3.8925197E-2],"categories":[],"categories_nodes":[],"categories_segments":[],"categories_sizes":[],"default_left":[0,0,0,0,0,0,0,0,0,0,0,0,0,0,0,0,0,0,0,0,0,0,0,0,0,0,0,0,0,0,0],"id":13,"left_children":[1,3,5,7,9,11,13,15,17,19,21,23,25,27,29,-1,-1,-1,-1,-1,-1,-1,-1,-1,-1,-1,-1,-1,-1,-1,-1],"loss_changes":[4.21898E3,1.0001028E3,1.275708E3,8.1943994E2,7.1423004E2,7.936075E2,1.3437388E3,3.7710864E2,8.6370337E2,9.180274E2,4.663234E2,6.572305E2,1.3191754E2,5.936954E2,7.206008E2,0E0,0E0,0E0,0E0,0E0,0E0,0E0,0E0,0E0,0E0,0E0,0E0,0E0,0E0,0E0,0E0],"parents":[2147483647,0,0,1,1,2,2,3,3,4,4,5,5,6,6,7,7,8,8,9,9,10,10,11,11,12,12,13,13,14,14],"right_children":[2,4,6,8,10,12,14,16,18,20,22,24,26,28,30,-1,-1,-1,-1,-1,-1,-1,-1,-1,-1,-1,-1,-1,-1,-1,-1],"split_conditions":[9.92E1,1.099E0,2.281E2,9.765E1,2.27E2,1.02045E2,1.0036E2,1.157E2,1.103E2,2.326E2,1.0062E2,2.241E2,2.191E2,2.296E2,2.94E0,-1.7634934E-1,-3.7574264E-1,-3.3318365E-1,-6.7512445E-2,-1.4633723E-1,5.0470658E-2,4.9395606E-2,3.8949785E-1,-2.645797E-1,7.6279626E-3,-2.5336329E-2,3.9492598E-1,1.0403378E-2,1.4153071E-1,2.1100293E-1,-3.8925197E-2],"split_indices":[26,29,27,26,28,26,26,0,1,27,3,28,27,28,24,0,0,0,0,0,0,0,0,0,0,0,0,0,0,0,0],"split_type":[0,0,0,0,0,0,0,0,0,0,0,0,0,0,0,0,0,0,0,0,0,0,0,0,0,0,0,0,0,0,0],"sum_hessian":[2.372E3,9.85E2,1.387E3,6.05E2,3.8E2,6.55E2,7.32E2,1.34E2,4.71E2,2.43E2,1.37E2,6.39E2,1.6E1,4.33E2,2.99E2,1.02E2,3.2E1,3.2E1,4.39E2,1.43E2,1E2,1.27E2,1E1,2.2E1,6.17E2,2E0,1.4E1,3.15E2,1.18E2,2.67E2,3.2E1],"tree_param":{"num_deleted":"0","num_feature":"34","num_nodes":"31","size_leaf_vector":"1"}},{"base_weights":[-1.4030366E-2,-1.0083874E0,1.4114683E0,-2.518142E0,2.3037316E-2,-6.8622106E-1,2.2539558E0,-3.3851144E0,-6.750898E-1,-4.6704042E-1,2.4556315E0,-1.2497994E0,2.1955948E0,4.0294114E-1,3.1197846E0,-2.2044861E-1,-8.792513E-2,-2.4420242E-1,-2.4212946E-4,-5.2216467E-2,5.3437937E-2,3.948472E-2,2.8499064E-1,-1.0797633E-1,1.8515266E-2,2.0417082E-1,-2.0911653E-1,-3.8413536E-2,1.9865674E-1,2.4829903E-1,1.1671188E-1],"categories":[],"categories_nodes":[],"categories_segments":[],"categories_sizes":[],"default_left":[0,0,0,0,0,0,0,0,0,0,0,0,0,0,0,0,0,0,0,0,0,0,0,0,0,0,0,0,0,0,0],"id":14,"left_children":[1,3,5,7,9,11,13,15,17,19,21,23,25,27,29,-1,-1,-1,-1,-1,-1,-1,-1,-1,-1,-1,-1,-1,-1,-1,-1],"loss_changes":[3.3494512E3,2.1676782E3,1.7175729E3,9.005144E2,9.882555E2,4.5587598E2,1.1093875E3,6.317676E2,5.134062E2,6.1287E2,7.4673865E2,3.4568137E2,5.7093604E2,9.3133496E2,6.72938E2,0E0,0E0,0E0,0E0,0E0,0E0,0E0,0E0,0E0,0E0,0E0,0E0,0E0,0E0,0E0,0E0],"parents":[2147483647,0,0,1,1,2,2,3,3,4,4,5,5,6,6,7,7,8,8,9,9,10,10,11,11,12,12,13,13,14,14],"right_children":[2,4,6,8,10,12,14,16,18,20,22,24,26,28,30,-1,-1,-1,-1,-1,-1,-1,-1,-1,-1,-1,-1,-1,-1,-1,-1],"split_conditions":[9.991E1,9.9E1,2.269E2,1.138E2,2.325E2,6.7E0,2.254E2,5.57E-1,1.048E0,1.0156E2,1.0495134E3,9.959E1,1.31E1,1.2574264E3,1.149E2,-2.2044861E-1,-8.792513E-2,-2.4420242E-1,-2.4212946E-4,-5.2216467E-2,5.3437937E-2,3.948472E-2,2.8499064E-1,-1.0797633E-1,1.8515266E-2,2.0417082E-1,-2.0911653E-1,-3.8413536E-2,1.9865674E-1,2.4829903E-1,1.1671188E-1],"split_indices":[14,3,28,1,27,2,27,4,29,3,20,3,23,20,12,0,0,0,0,0,0,0,0,0,0,0,0,0,0,0,0],"split_type":[0,0,0,0,0,0,0,0,0,0,0,0,0,0,0,0,0,0,0,0,0,0,0,0,0,0,0,0,0,0,0],"sum_hessian":[2.361E3,1.391E3,9.7E2,5.64E2,8.27E2,2.78E2,6.92E2,3.83E2,1.81E2,6.89E2,1.38E2,2.33E2,4.5E1,2.21E2,4.71E2,2.34E2,1.49E2,2.4E1,1.57E2,5.01E2,1.88E2,9.2E1,4.6E1,1.49E2,8.4E1,3.5E1,1E1,1.67E2,5.4E1,1.39E2,3.32E2],"tree_param":{"num_deleted":"0","num_feature":"34","num_nodes":"31","size_leaf_vector":"1"}},{"base_weights":[5.6032334E-2,-1.5963311E0,1.2401856E0,-4.820521E0,-1.1832268E0,2.6002257E0,5.5955726E-1,-6.116379E0,-9.007768E-1,-5.600379E-1,-2.584482E0,1.8355381E0,5.168117E0,-3.3554214E-1,1.8010436E0,-4.073127E-1,-1.8943983E-1,-1.3528559E-1,2.579203E-1,-2.0978328E-2,-3.2500502E-1,-2.0180951E-1,-5.8332182E-2,1.637787E-2,1.5118028E-1,4.8818478E-1,1.8049763E-1,-2.3910563E-2,6.1732984E-1,1.1236866E-1,-6.2161904E-2],"categories":[],"categories_nodes":[],"categories_segments":[],"categories_sizes":[],"default_left":[0,0,0,0,0,0,0,0,0,0,0,0,0,0,0,0,0,0,0,0,0,0,0,0,0,0,0,0,0,0,0],"id":15,"left_children":[1,3,5,7,9,11,13,15,17,19,21,23,25,27,29,-1,-1,-1,-1,-1,-1,-1,-1,-1,-1,-1,-1,-1,-1,-1,-1],"loss_changes":[4.635331E3,1.3115718E3,1.2759858E3,5.633867E2,7.652632E2,8.9378564E2,1.024069E3,3.6601E2,3.3111362E2,5.0542767E2,5.510288E2,6.368131E2,7.166238E2,9.7571564E2,5.2727246E2,0E0,0E0,0E0,0E0,0E0,0E0,0E0,0E0,0E0,0E0,0E0,0E0,0E0,0E0,0E0,0E0],"parents":[2147483647,0,0,1,1,2,2,3,3,4,4,5,5,6,6,7,7,8,8,9,9,10,10,11,11,12,12,13,13,14,14],"right_children":[2,4,6,8,10,12,14,16,18,20,22,24,26,28,30,-1,-1,-1,-1,-1,-1,-1,-1,-1,-1,-1,-1,-1,-1,-1,-1],"split_conditions":[9.92E1,9.7375E1,1.34E-1,1.134E2,1.43E-1,2.314E2,1.0045E2,6.1E-1,1.128E2,9.917E1,9.87E1,1.097E0,1.2E0,6E0,1.56E-1,-4.073127E-1,-1.8943983E-1,-1.3528559E-1,2.579203E-1,-2.0978328E-2,-3.2500502E-1,-2.0180951E-1,-5.8332182E-2,1.637787E-2,1.5118028E-1,4.8818478E-1,1.8049763E-1,-2.3910563E-2,6.1732984E-1,1.1236866E-1,-6.2161904E-2],"split_indices":[26,26,6,12,6,28,26,22,1,26,3,29,23,7,6,0,0,0,0,0,0,0,0,0,0,0,0,0,0,0,0],"split_type":[0,0,0,0,0,0,0,0,0,0,0,0,0,0,0,0,0,0,0,0,0,0,0,0,0,0,0,0,0,0,0],"sum_hessian":[2.367E3,9.88E2,1.379E3,1.11E2,8.77E2,4.59E2,9.2E2,8.3E1,2.8E1,6.08E2,2.69E2,3.55E2,1.04E2,5.35E2,3.85E2,4.3E1,4E1,2.2E1,6E0,5.95E2,1.3E1,1.32E2,1.37E2,1.57E2,1.98E2,2.5E1,7.9E1,5.3E2,5E0,3.36E2,4.9E1],"tree_param":{"num_deleted":"0","num_feature":"34","num_nodes":"31","size_leaf_vector":"1"}},{"base_weights":[-2.2140395E-2,-1.1093994E0,1.350651E0,-3.5850854E0,-6.93945E-1,-4.0296322E-1,1.7991449E0,-4.798811E0,-6.601418E-1,-4.564115E0,-5.15898E-1,-9.17529E-1,5.925653E0,5.7669795E-1,2.6865187E0,1.9608253E-1,-2.5509816E-1,-1.1155843E-1,3.394849E-1,-2.9576054E-1,-7.0388965E-2,-8.498427E-2,2.8951652E-4,-1.5141983E-1,4.894481E-2,4.2607388E-1,1.1323219E-1,4.75931E-3,1.7174871E-1,1.273208E-1,4.836683E-1],"categories":[],"categories_nodes":[],"categories_segments":[],"categories_sizes":[],"default_left":[0,0,0,0,0,0,0,0,0,0,0,0,0,0,0,0,0,0,0,0,0,0,0,0,0,0,0,0,0,0,0],"id":16,"left_children":[1,3,5,7,9,11,13,15,17,19,21,23,25,27,29,-1,-1,-1,-1,-1,-1,-1,-1,-1,-1,-1,-1,-1,-1,-1,-1],"loss_changes":[3.4851802E3,1.3376931E3,8.1237756E2,6.606968E2,7.6733905E2,6.925562E2,8.901299E2,3.6896704E2,6.7056726E2,2.0063379E2,6.601902E2,7.875726E2,1.3275531E2,4.7724695E2,4.41313E2,0E0,0E0,0E0,0E0,0E0,0E0,0E0,0E0,0E0,0E0,0E0,0E0,0E0,0E0,0E0,0E0],"parents":[2147483647,0,0,1,1,2,2,3,3,4,4,5,5,6,6,7,7,8,8,9,9,10,10,11,11,12,12,13,13,14,14],"right_children":[2,4,6,8,10,12,14,16,18,20,22,24,26,28,30,-1,-1,-1,-1,-1,-1,-1,-1,-1,-1,-1,-1,-1,-1,-1,-1],"split_conditions":[9.963E1,9.7675E1,2.244E2,1.168E2,1.099E2,5.73E-1,1.136E2,2.17E1,5.6E-1,1.48E-1,1.124E2,7.2065234E2,3.65E1,1.01745E2,8E0,1.9608253E-1,-2.5509816E-1,-1.1155843E-1,3.394849E-1,-2.9576054E-1,-7.0388965E-2,-8.498427E-2,2.8951652E-4,-1.5141983E-1,4.894481E-2,4.2607388E-1,1.1323219E-1,4.75931E-3,1.7174871E-1,1.273208E-1,4.836683E-1],"split_indices":[26,26,27,11,1,22,1,30,4,17,12,20,31,26,7,0,0,0,0,0,0,0,0,0,0,0,0,0,0,0,0],"split_type":[0,0,0,0,0,0,0,0,0,0,0,0,0,0,0,0,0,0,0,0,0,0,0,0,0,0,0,0,0,0,0],"sum_hessian":[2.333E3,1.302E3,1.031E3,1.86E2,1.116E3,2.1E2,8.21E2,1.31E2,5.5E1,4.8E1,1.068E3,1.95E2,1.5E1,3.46E2,4.75E2,4E0,1.27E2,4.6E1,9E0,3.3E1,1.5E1,3.26E2,7.42E2,9.2E1,1.03E2,8E0,7E0,2.97E2,4.9E1,4.67E2,8E0],"tree_param":{"num_deleted":"0","num_feature":"34","num_nodes":"31","size_leaf_vector":"1"}},{"base_weights":[8.3986625E-2,-1.4352002E0,1.461612E0,-2.1152108E0,-3.5081238E-1,-1.6216596E0,1.8200415E0,-6.968875E-1,-2.802769E0,-9.2075247E-1,1.5835849E0,-2.8036625E0,2.6999104E0,9.8815715E-1,2.721216E0,-1.1874808E-1,4.018619E-2,-1.5416585E-1,9.940089E-2,7.541403E-4,-1.2658702E-1,2.9125502E-2,3.1595737E-1,-6.701612E-1,-1.1712094E-1,1.3457775E-3,2.8910324E-1,1.3992803E-2,1.2645625E-1,1.055929E-1,2.3295712E-1],"categories":[],"categories_nodes":[],"categories_segments":[],"categories_sizes":[],"default_left":[0,0,0,0,0,0,0,0,0,0,0,0,0,0,0,0,0,0,0,0,0,0,0,0,0,0,0,0,0,0,0],"id":17,"left_children":[1,3,5,7,9,11,13,15,17,19,21,23,25,27,29,-1,-1,-1,-1,-1,-1,-1,-1,-1,-1,-1,-1,-1,-1,-1,-1],"loss_changes":[4.884764E3,8.177666E2,1.3556372E3,6.631196E2,4.7442657E2,6.614075E2,8.197024E2,5.659715E2,6.230459E2,5.0056766E2,4.6090298E2,4.623913E2,2.3052466E2,6.236125E2,6.113093E2,0E0,0E0,0E0,0E0,0E0,0E0,0E0,0E0,0E0,0E0,0E0,0E0,0E0,0E0,0E0,0E0],"parents":[2147483647,0,0,1,1,2,2,3,3,4,4,5,5,6,6,7,7,8,8,9,9,10,10,11,11,12,12,13,13,14,14],"right_children":[2,4,6,8,10,12,14,16,18,20,22,24,26,28,30,-1,-1,-1,-1,-1,-1,-1,-1,-1,-1,-1,-1,-1,-1,-1,-1],"split_conditions":[9.9385E1,1.099E0,2.246E2,3.12E1,1.94E0,1.478067E3,1.094E0,-6.4E0,5E0,1E-2,1.5801572E3,-2.7E0,3.3E0,1.2251588E3,1.161E2,-1.1874808E-1,4.018619E-2,-1.5416585E-1,9.940089E-2,7.541403E-4,-1.2658702E-1,2.9125502E-2,3.1595737E-1,-6.701612E-1,-1.1712094E-1,1.3457775E-3,2.8910324E-1,1.3992803E-2,1.2645625E-1,1.055929E-1,2.3295712E-1],"split_indices":[26,29,28,31,24,20,29,13,9,24,20,13,9,20,1,0,0,0,0,0,0,0,0,0,0,0,0,0,0,0,0],"split_type":[0,0,0,0,0,0,0,0,0,0,0,0,0,0,0,0,0,0,0,0,0,0,0,0,0,0,0,0,0,0,0],"sum_hessian":[2.332E3,1.109E3,1.223E3,6.81E2,4.28E2,1.27E2,1.096E3,2.23E2,4.58E2,3.31E2,9.7E1,1E2,2.7E1,5.71E2,5.25E2,1.05E2,1.18E2,4.33E2,2.5E1,2.1E2,1.21E2,8.1E1,1.6E1,3E0,9.7E1,1.5E1,1.2E1,3.92E2,1.79E2,4.01E2,1.24E2],"tree_param":{"num_deleted":"0","num_feature":"34","num_nodes":"31","size_leaf_vector":"1"}},{"base_weights":[-4.5637544E-2,-7.868432E-1,1.9918718E0,-2.0022697E0,-1.6791578E-1,-4.7587495E0,2.1410925E0,-8.9413226E-1,-2.8274138E0,-5.019527E0,-4.722986E-2,-6.61672E0,1.5403576E0,-3.47406E0,2.3147583E0,2.490609E-1,-5.6611832E-2,-2.1102718E-1,-9.638831E-2,-1.5621482E-1,-5.7239956E-1,-9.9634476E-2,1.2560091E-2,-3.7236398E-1,4.2221833E-2,1.4223842E-1,7.864889E-3,3.7781295E-1,-2.2533238E-1,7.442613E-2,1.9421005E-1],"categories":[],"categories_nodes":[],"categories_segments":[],"categories_sizes":[],"default_left":[0,0,0,0,0,0,0,0,0,0,0,0,0,0,0,0,0,0,0,0,0,0,0,0,0,0,0,0,0,0,0],"id":18,"left_children":[1,3,5,7,9,11,13,15,17,19,21,23,25,27,29,-1,-1,-1,-1,-1,-1,-1,-1,-1,-1,-1,-1,-1,-1,-1,-1],"loss_changes":[3.5837935E3,1.3085978E3,6.478303E2,5.3420874E2,6.7545435E2,1.740419E2,6.126406E2,3.581745E2,4.129812E2,3.0536884E2,6.5482184E2,7.445502E1,6.768838E0,2.5045906E2,7.748496E2,0E0,0E0,0E0,0E0,0E0,0E0,0E0,0E0,0E0,0E0,0E0,0E0,0E0,0E0,0E0,0E0],"parents":[2147483647,0,0,1,1,2,2,3,3,4,4,5,5,6,6,7,7,8,8,9,9,10,10,11,11,12,12,13,13,14,14],"right_children":[2,4,6,8,10,12,14,16,18,20,22,24,26,28,30,-1,-1,-1,-1,-1,-1,-1,-1,-1,-1,-1,-1,-1,-1,-1,-1],"split_conditions":[1.00355E2,9.859E1,1.081E2,1.36E-1,1.094E2,1.01305E2,1.25E-1,-7.8E0,2.255E2,1.27E1,2.17E1,5E0,1.138E2,1.093E2,1.149E2,2.490609E-1,-5.6611832E-2,-2.1102718E-1,-9.638831E-2,-1.5621482E-1,-5.7239956E-1,-9.9634476E-2,1.2560091E-2,-3.7236398E-1,4.2221833E-2,1.4223842E-1,7.864889E-3,3.7781295E-1,-2.2533238E-1,7.442613E-2,1.9421005E-1],"split_indices":[26,26,11,6,1,26,17,23,28,23,30,9,0,0,11,0,0,0,0,0,0,0,0,0,0,0,0,0,0,0,0],"split_type":[0,0,0,0,0,0,0,0,0,0,0,0,0,0,0,0,0,0,0,0,0,0,0,0,0,0,0,0,0,0,0],"sum_hessian":[2.371E3,1.739E3,6.32E2,5.86E2,1.153E3,1.3E1,6.19E2,2.51E2,3.35E2,2.7E1,1.126E3,1E1,3E0,1.8E1,6.01E2,9E0,2.42E2,1.3E2,2.05E2,2.2E1,5E0,1.49E2,9.77E2,9E0,1E0,1E0,2E0,1E0,1.7E1,3.95E2,2.06E2],"tree_param":{"num_deleted":"0","num_feature":"34","num_nodes":"31","size_leaf_vector":"1"}},{"base_weights":[-1.9405156E-2,-1.1193672E0,8.2917565E-1,-3.9783137E0,-7.607607E-1,8.944088E-2,1.7806584E0,-5.2613645E0,2.250941E0,-2.478452E0,-6.7178555E-2,-2.5125018E-1,3.830105E0,2.6367366E0,6.0502404E-1,-2.84046E-1,2.7994272E-1,-1.2818037E-1,2.5202954E-1,-1.01887606E-1,-3.6984998E-1,-8.93214E-3,5.916769E-1,-3.940245E-2,5.4053683E-2,9.197012E-3,3.4137094E-1,6.1410796E-2,1.8716596E-1,-3.2422196E-2,1.4372414E-1],"categories":[],"categories_nodes":[],"categories_segments":[],"categories_sizes":[],"default_left":[0,0,0,0,0,0,0,0,0,0,0,0,0,0,0,0,0,0,0,0,0,0,0,0,0,0,0,0,0,0,0],"id":19,"left_children":[1,3,5,7,9,11,13,15,17,19,21,23,25,27,29,-1,-1,-1,-1,-1,-1,-1,-1,-1,-1,-1,-1,-1,-1,-1,-1],"loss_changes":[2.1776326E3,1.0386143E3,9.268043E2,9.1499E2,1.076823E3,9.465752E2,5.781112E2,4.6011377E2,2.8154016E2,5.485034E2,8.5770917E2,4.8789618E2,6.7632367E2,5.1443115E2,6.959692E2,0E0,0E0,0E0,0E0,0E0,0E0,0E0,0E0,0E0,0E0,0E0,0E0,0E0,0E0,0E0,0E0],"parents":[2147483647,0,0,1,1,2,2,3,3,4,4,5,5,6,6,7,7,8,8,9,9,10,10,11,11,12,12,13,13,14,14],"right_children":[2,4,6,8,10,12,14,16,18,20,22,24,26,28,30,-1,-1,-1,-1,-1,-1,-1,-1,-1,-1,-1,-1,-1,-1,-1,-1],"split_conditions":[9.915E1,5.54E-1,9.974E1,1.176E2,2.255E2,2.341E2,3.69E1,4E0,1.138E2,5.91E1,7E0,1.0156E2,8.609459E2,2.263E2,1.1210854E3,-2.84046E-1,2.7994272E-1,-1.2818037E-1,2.5202954E-1,-1.01887606E-1,-3.6984998E-1,-8.93214E-3,5.916769E-1,-3.940245E-2,5.4053683E-2,9.197012E-3,3.4137094E-1,6.1410796E-2,1.8716596E-1,-3.2422196E-2,1.4372414E-1],"split_indices":[3,5,14,11,28,27,31,7,1,30,7,3,20,27,20,0,0,0,0,0,0,0,0,0,0,0,0,0,0,0,0],"split_type":[0,0,0,0,0,0,0,0,0,0,0,0,0,0,0,0,0,0,0,0,0,0,0,0,0,0,0,0,0,0,0],"sum_hessian":[2.331E3,1.015E3,1.316E3,1.12E2,9.03E2,7.41E2,5.75E2,9.3E1,1.9E1,2.59E2,6.44E2,6.8E2,6.1E1,3.32E2,2.43E2,9E1,3E0,7E0,1.2E1,2.39E2,2E1,6.39E2,5E0,4.85E2,1.95E2,2.8E1,3.3E1,1.47E2,1.85E2,1.57E2,8.6E1],"tree_param":{"num_deleted":"0","num_feature":"34","num_nodes":"31","size_leaf_vector":"1"}},{"base_weights":[-2.3343181E-2,-1.1814632E0,9.44629E-1,-2.0184786E0,-1.8723257E-1,8.639208E-1,6.276872E0,-3.4554806E0,-1.5435997E0,-6.088126E0,1.1093492E-2,7.488719E-1,4.6682796E0,-5.3807324E-1,7.110282E0,-2.7520576E-1,-8.501115E-2,-2.4503477E-1,-6.4740025E-2,1.9071516E-2,-4.5317546E-1,-8.510873E-3,1.9781183E-1,2.857078E-2,1.6823573E-1,2.9565746E-1,-1.3745353E-1,-3.7677765E-2,-2.6777268E-3,3.9993287E-3,4.0211612E-1],"categories":[],"categories_nodes":[],"categories_segments":[],"categories_sizes":[],"default_left":[0,0,0,0,0,0,0,0,0,0,0,0,0,0,0,0,0,0,0,0,0,0,0,0,0,0,0,0,0,0,0],"id":20,"left_children":[1,3,5,7,9,11,13,15,17,19,21,23,25,27,29,-1,-1,-1,-1,-1,-1,-1,-1,-1,-1,-1,-1,-1,-1,-1,-1],"loss_changes":[2.6445E3,8.9339014E2,5.4758435E2,3.925066E2,5.7585565E2,5.510539E2,1.1173901E2,5.0844885E2,3.6116138E2,3.1144757E2,3.418704E2,5.6950494E2,3.579001E2,2.7285904E-1,1.1074957E2,0E0,0E0,0E0,0E0,0E0,0E0,0E0,0E0,0E0,0E0,0E0,0E0,0E0,0E0,0E0,0E0],"parents":[2147483647,0,0,1,1,2,2,3,3,4,4,5,5,6,6,7,7,8,8,9,9,10,10,11,11,12,12,13,13,14,14],"right_children":[2,4,6,8,10,12,14,16,18,20,22,24,26,28,30,-1,-1,-1,-1,-1,-1,-1,-1,-1,-1,-1,-1,-1,-1,-1,-1],"split_conditions":[9.9295E1,1.147E2,1.0224E2,1.12E2,9.6855E1,2.362E2,2.191E2,6.22E-1,2.2E2,1.079E0,6.02E1,4E0,3E0,3E0,4.247817E2,-2.7520576E-1,-8.501115E-2,-2.4503477E-1,-6.4740025E-2,1.9071516E-2,-4.5317546E-1,-8.510873E-3,1.9781183E-1,2.857078E-2,1.6823573E-1,2.9565746E-1,-1.3745353E-1,-3.7677765E-2,-2.6777268E-3,3.9993287E-3,4.0211612E-1],"split_indices":[26,0,26,12,26,27,27,22,27,29,31,7,7,18,20,0,0,0,0,0,0,0,0,0,0,0,0,0,0,0,0],"split_type":[0,0,0,0,0,0,0,0,0,0,0,0,0,0,0,0,0,0,0,0,0,0,0,0,0,0,0,0,0,0,0],"sum_hessian":[2.357E3,1.073E3,1.284E3,5.82E2,4.91E2,1.266E3,1.8E1,1.43E2,4.39E2,1.5E1,4.76E2,1.23E3,3.6E1,2E0,1.6E1,6.5E1,7.8E1,2.9E1,4.1E2,5E0,1E1,4.56E2,2E1,1.153E3,7.7E1,3.1E1,5E0,1E0,1E0,2E0,1.4E1],"tree_param":{"num_deleted":"0","num_feature":"34","num_nodes":"31","size_leaf_vector":"1"}},{"base_weights":[-1.8779434E-2,-1.0657578E0,9.648401E-1,-1.5510979E0,4.688346E-1,-8.455512E-1,1.4201931E0,-2.209427E0,-4.8509124E-1,-9.854275E-1,2.9165232E0,-4.602605E0,8.2828775E-3,4.1252258E-1,2.3052747E0,-1.18971325E-1,8.280935E-2,1.7732178E-1,-4.4264648E-2,-9.737723E-2,1.642348E-1,1.02788486E-1,4.9252072E-1,-3.114544E-1,8.564957E-2,-2.2001205E-2,3.2281843E-1,-2.679618E-2,7.688343E-2,1.8658969E-1,6.909191E-2],"categories":[],"categories_nodes":[],"categories_segments":[],"categories_sizes":[],"default_left":[0,0,0,0,0,0,0,0,0,0,0,0,0,0,0,0,0,0,0,0,0,0,0,0,0,0,0,0,0,0,0],"id":21,"left_children":[1,3,5,7,9,11,13,15,17,19,21,23,25,27,29,-1,-1,-1,-1,-1,-1,-1,-1,-1,-1,-1,-1,-1,-1,-1,-1],"loss_changes":[2.4087668E3,8.445851E2,9.953876E2,6.031636E2,9.746396E2,7.79558E2,8.58812E2,3.5354565E2,5.355695E2,7.130348E2,5.8852374E2,4.7291956E2,5.7809454E2,4.831716E2,6.706179E2,0E0,0E0,0E0,0E0,0E0,0E0,0E0,0E0,0E0,0E0,0E0,0E0,0E0,0E0,0E0,0E0],"parents":[2147483647,0,0,1,1,2,2,3,3,4,4,5,5,6,6,7,7,8,8,9,9,10,10,11,11,12,12,13,13,14,14],"right_children":[2,4,6,8,10,12,14,16,18,20,22,24,26,28,30,-1,-1,-1,-1,-1,-1,-1,-1,-1,-1,-1,-1,-1,-1,-1,-1],"split_conditions":[9.9385E1,2.3E2,2.244E2,2.308E2,3.74E1,2.285E2,2.286E2,1.0147E2,2.56E1,2.285E2,2.339E2,1.01465E2,2.371E2,1.4E-1,1.34E-1,-1.18971325E-1,8.280935E-2,1.7732178E-1,-4.4264648E-2,-9.737723E-2,1.642348E-1,1.02788486E-1,4.9252072E-1,-3.114544E-1,8.564957E-2,-2.2001205E-2,3.2281843E-1,-2.679618E-2,7.688343E-2,1.8658969E-1,6.909191E-2],"split_indices":[26,28,27,27,30,28,28,14,31,27,28,26,28,6,6,0,0,0,0,0,0,0,0,0,0,0,0,0,0,0,0],"split_type":[0,0,0,0,0,0,0,0,0,0,0,0,0,0,0,0,0,0,0,0,0,0,0,0,0,0,0,0,0,0,0],"sum_hessian":[2.337E3,1.132E3,1.205E3,8.6E2,2.72E2,2.42E2,9.63E2,5.31E2,3.29E2,1.71E2,1.01E2,4.4E1,1.98E2,4.51E2,5.12E2,5.09E2,2.2E1,2.9E1,3E2,1.4E2,3.1E1,9.1E1,1E1,3.5E1,9E0,1.86E2,1.2E1,2.45E2,2.06E2,2E2,3.12E2],"tree_param":{"num_deleted":"0","num_feature":"34","num_nodes":"31","size_leaf_vector":"1"}},{"base_weights":[2.299708E-1,-8.498055E-1,1.2429135E0,-4.00128E0,-6.144383E-1,-5.059295E0,1.3432515E0,-5.09628E0,-1.4760284E0,-9.052662E-1,1.5599992E0,1.4676121E-1,-7.47338E0,-2.4803096E-1,1.7621857E0,-2.8289402E-1,1.669095E-1,3.7938617E-3,-3.8494134E-1,-2.4748556E-2,-1.1089128E-1,1.4575423E-1,-4.005627E-2,-2.8003445E-1,1.0190588E-1,-4.8618594E-1,1.0406495E-3,1.626925E-2,-1.755674E-1,5.284341E-2,1.3514529E-1],"categories":[],"categories_nodes":[],"categories_segments":[],"categories_sizes":[],"default_left":[0,0,0,0,0,0,0,0,0,0,0,0,0,0,0,0,0,0,0,0,0,0,0,0,0,0,0,0,0,0,0],"id":22,"left_children":[1,3,5,7,9,11,13,15,17,19,21,23,25,27,29,-1,-1,-1,-1,-1,-1,-1,-1,-1,-1,-1,-1,-1,-1,-1,-1],"loss_changes":[2.5418413E3,8.320143E2,7.649839E2,2.0815967E2,6.64154E2,2.3988614E2,7.8774243E2,2.746742E2,2.4201407E2,4.970487E2,3.9907645E2,8.75082E1,2.1944055E2,4.633383E2,6.1752124E2,0E0,0E0,0E0,0E0,0E0,0E0,0E0,0E0,0E0,0E0,0E0,0E0,0E0,0E0,0E0,0E0],"parents":[2147483647,0,0,1,1,2,2,3,3,4,4,5,5,6,6,7,7,8,8,9,9,10,10,11,11,12,12,13,13,14,14],"right_children":[2,4,6,8,10,12,14,16,18,20,22,24,26,28,30,-1,-1,-1,-1,-1,-1,-1,-1,-1,-1,-1,-1,-1,-1,-1,-1],"split_conditions":[9.9385E1,1.101E2,1.101E2,2.301E2,2.341E2,5.49E-1,2.244E2,1.192E2,1.151E2,4E0,6.95E-1,1.115E2,3E0,1.1E0,1.00435E2,-2.8289402E-1,1.669095E-1,3.7938617E-3,-3.8494134E-1,-2.4748556E-2,-1.1089128E-1,1.4575423E-1,-4.005627E-2,-2.8003445E-1,1.0190588E-1,-4.8618594E-1,1.0406495E-3,1.626925E-2,-1.755674E-1,5.284341E-2,1.3514529E-1],"split_indices":[26,1,12,27,27,4,27,12,12,21,22,1,9,2,26,0,0,0,0,0,0,0,0,0,0,0,0,0,0,0,0],"split_type":[0,0,0,0,0,0,0,0,0,0,0,0,0,0,0,0,0,0,0,0,0,0,0,0,0,0,0,0,0,0,0],"sum_hessian":[2.322E3,1.124E3,1.198E3,7.7E1,1.047E3,1.8E1,1.18E3,5.3E1,2.4E1,9.24E2,1.23E2,6E0,1.2E1,2.46E2,9.34E2,5E1,3E0,2E1,4E0,7.05E2,2.19E2,7.8E1,4.5E1,1E0,5E0,9E0,3E0,2.1E2,3.6E1,5.35E2,3.99E2],"tree_param":{"num_deleted":"0","num_feature":"34","num_nodes":"31","size_leaf_vector":"1"}},{"base_weights":[5.1613856E-2,-9.405734E-1,8.229472E-1,-1.4104272E0,1.3147296E0,-4.275899E-1,1.5758752E0,-2.5175753E0,-8.929926E-1,-2.3127158E0,2.2376513E0,-4.6000595E0,-1.0640331E-1,7.243618E-1,2.7620144E0,-1.7893402E-1,-4.3924145E-2,-5.0048005E-2,4.113365E-1,-3.391563E-1,3.5166103E-2,1.5340896E-1,-1.5325148E-1,-3.2564348E-1,-5.6450572E-2,-5.9441853E-2,4.1520502E-2,-4.2736554E-3,9.866512E-2,9.4429985E-2,2.3212688E-1],"categories":[],"categories_nodes":[],"categories_segments":[],"categories_sizes":[],"default_left":[0,0,0,0,0,0,0,0,0,0,0,0,0,0,0,0,0,0,0,0,0,0,0,0,0,0,0,0,0,0,0],"id":23,"left_children":[1,3,5,7,9,11,13,15,17,19,21,23,25,27,29,-1,-1,-1,-1,-1,-1,-1,-1,-1,-1,-1,-1,-1,-1,-1,-1],"loss_changes":[1.8214397E3,1.1049631E3,1.2614285E3,4.915714E2,6.0778784E2,6.749418E2,8.4237036E2,4.7341064E2,5.881841E2,5.0363892E2,6.4358344E2,2.3166718E2,4.7657123E2,4.9374927E2,5.644568E2,0E0,0E0,0E0,0E0,0E0,0E0,0E0,0E0,0E0,0E0,0E0,0E0,0E0,0E0,0E0,0E0],"parents":[2147483647,0,0,1,1,2,2,3,3,4,4,5,5,6,6,7,7,8,8,9,9,10,10,11,11,12,12,13,13,14,14],"right_children":[2,4,6,8,10,12,14,16,18,20,22,24,26,28,30,-1,-1,-1,-1,-1,-1,-1,-1,-1,-1,-1,-1,-1,-1,-1,-1],"split_conditions":[9.915E1,1.0147E2,2.279E2,2.255E2,5E-1,1.96E1,2.281E2,6.22E-1,6E0,1.16E2,-2.79E0,-3.5E0,2.292E2,1.0015E2,2.322E2,-1.7893402E-1,-4.3924145E-2,-5.0048005E-2,4.113365E-1,-3.391563E-1,3.5166103E-2,1.5340896E-1,-1.5325148E-1,-3.2564348E-1,-5.6450572E-2,-5.9441853E-2,4.1520502E-2,-4.2736554E-3,9.866512E-2,9.4429985E-2,2.3212688E-1],"split_indices":[3,14,28,28,10,30,27,10,7,1,24,23,27,14,28,0,0,0,0,0,0,0,0,0,0,0,0,0,0,0,0],"split_type":[0,0,0,0,0,0,0,0,0,0,0,0,0,0,0,0,0,0,0,0,0,0,0,0,0,0,0,0,0,0,0],"sum_hessian":[2.378E3,1.04E3,1.338E3,8.61E2,1.79E2,5.03E2,8.35E2,2.73E2,5.88E2,3.6E1,1.43E2,3.5E1,4.68E2,4.87E2,3.48E2,1.65E2,1.08E2,5.82E2,6E0,1.4E1,2.2E1,1.24E2,1.9E1,2.2E1,1.3E1,2.17E2,2.51E2,2.96E2,1.91E2,2.39E2,1.09E2],"tree_param":{"num_deleted":"0","num_feature":"34","num_nodes":"31","size_leaf_vector":"1"}},{"base_weights":[1.3973604E-1,-7.4431056E-1,1.178792E0,-3.3985484E0,-4.913197E-1,-9.320204E-1,1.3957964E0,-8.211276E0,-2.7254462E0,4.6628115E-1,-9.940751E-1,-3.9992974E0,1.9213492E0,1.0251789E0,3.1002831E0,-1.309632E-1,-5.202793E-1,-1.9271366E-1,4.5784887E-2,-1.1723401E-1,5.2030783E-2,-6.0479965E-2,1.4551048E-1,-3.9036474E-1,-1.04483604E-1,2.7261436E-1,3.1874355E-2,-1.4330362E-1,6.573724E-2,7.750427E-2,2.7764183E-1],"categories":[],"categories_nodes":[],"categories_segments":[],"categories_sizes":[],"default_left":[0,0,0,0,0,0,0,0,0,0,0,0,0,0,0,0,0,0,0,0,0,0,0,0,0,0,0,0,0,0,0],"id":24,"left_children":[1,3,5,7,9,11,13,15,17,19,21,23,25,27,29,-1,-1,-1,-1,-1,-1,-1,-1,-1,-1,-1,-1,-1,-1,-1,-1],"loss_changes":[2.1521775E3,8.484467E2,4.946267E2,3.3396094E2,5.5748846E2,8.9164355E2,6.1400476E2,1.3226294E2,4.0633087E2,6.465983E2,6.4219385E2,3.4000592E2,2.3678583E2,9.096943E2,6.529308E2,0E0,0E0,0E0,0E0,0E0,0E0,0E0,0E0,0E0,0E0,0E0,0E0,0E0,0E0,0E0,0E0],"parents":[2147483647,0,0,1,1,2,2,3,3,4,4,5,5,6,6,7,7,8,8,9,9,10,10,11,11,12,12,13,13,14,14],"right_children":[2,4,6,8,10,12,14,16,18,20,22,24,26,28,30,-1,-1,-1,-1,-1,-1,-1,-1,-1,-1,-1,-1,-1,-1,-1,-1],"split_conditions":[9.963E1,9.7375E1,1E0,-1.58E0,1.34E-1,1.00605E2,1.176E2,1.12E2,1.134E2,3.09E1,5E0,1.4E-1,5.54E-1,3.66E-1,1.157E2,-1.309632E-1,-5.202793E-1,-1.9271366E-1,4.5784887E-2,-1.1723401E-1,5.2030783E-2,-6.0479965E-2,1.4551048E-1,-3.9036474E-1,-1.04483604E-1,2.7261436E-1,3.1874355E-2,-1.4330362E-1,6.573724E-2,7.750427E-2,2.7764183E-1],"split_indices":[26,26,9,24,6,26,1,12,12,30,9,6,5,10,11,0,0,0,0,0,0,0,0,0,0,0,0,0,0,0,0],"split_type":[0,0,0,0,0,0,0,0,0,0,0,0,0,0,0,0,0,0,0,0,0,0,0,0,0,0,0,0,0,0,0],"sum_hessian":[2.341E3,1.265E3,1.076E3,1.09E2,1.156E3,1E2,9.76E2,1.2E1,9.7E1,3.98E2,7.58E2,4.8E1,5.2E1,8.03E2,1.73E2,4E0,8E0,7.4E1,2.3E1,6.7E1,3.31E2,7.19E2,3.9E1,1.5E1,3.3E1,1.3E1,3.9E1,5.5E1,7.48E2,1.07E2,6.6E1],"tree_param":{"num_deleted":"0","num_feature":"34","num_nodes":"31","size_leaf_vector":"1"}},{"base_weights":[1.0492066E-1,-4.175108E-1,1.5054568E0,-1.4293531E0,1.6224419E-1,4.9621326E-1,2.8229103E0,2.5821543E0,-1.7197869E0,-2.344757E0,4.2584425E-1,-1.1116599E0,1.1977193E0,4.1095147E0,1.4909346E-1,-1.5774159E-1,2.3264161E-1,-1.120436E-1,2.9772911E-2,-1.4875814E-1,2.835404E-1,1.6377188E-2,3.039547E-1,-3.845321E-1,-2.3106547E-2,-2.0461102E-1,7.259649E-2,2.3658414E-1,1.0062974E-2,-3.413365E-2,2.0713256E-1],"categories":[],"categories_nodes":[],"categories_segments":[],"categories_sizes":[],"default_left":[0,0,0,0,0,0,0,0,0,0,0,0,0,0,0,0,0,0,0,0,0,0,0,0,0,0,0,0,0,0,0],"id":25,"left_children":[1,3,5,7,9,11,13,15,17,19,21,23,25,27,29,-1,-1,-1,-1,-1,-1,-1,-1,-1,-1,-1,-1,-1,-1,-1,-1],"loss_changes":[1.7398418E3,1.0162588E3,8.5754114E2,7.396046E2,7.292505E2,4.1528284E2,9.626277E2,5.254951E2,7.1192737E2,5.4744275E2,5.526147E2,4.750487E2,3.5019962E2,4.5861865E2,3.0842514E2,0E0,0E0,0E0,0E0,0E0,0E0,0E0,0E0,0E0,0E0,0E0,0E0,0E0,0E0,0E0,0E0],"parents":[2147483647,0,0,1,1,2,2,3,3,4,4,5,5,6,6,7,7,8,8,9,9,10,10,11,11,12,12,13,13,14,14],"right_children":[2,4,6,8,10,12,14,16,18,20,22,24,26,28,30,-1,-1,-1,-1,-1,-1,-1,-1,-1,-1,-1,-1,-1,-1,-1,-1],"split_conditions":[1.0034E2,2.265E2,1.096E0,2.45E1,5.17E-1,2.286E2,1.47E-1,1.145E2,2.34E2,4E0,5E0,2.2676317E2,9.883E1,5.08E1,5.13E1,-1.5774159E-1,2.3264161E-1,-1.120436E-1,2.9772911E-2,-1.4875814E-1,2.835404E-1,1.6377188E-2,3.039547E-1,-3.845321E-1,-2.3106547E-2,-2.0461102E-1,7.259649E-2,2.3658414E-1,1.0062974E-2,-3.413365E-2,2.0713256E-1],"split_indices":[26,28,29,31,4,28,6,0,27,7,7,20,14,31,31,0,0,0,0,0,0,0,0,0,0,0,0,0,0,0,0],"split_type":[0,0,0,0,0,0,0,0,0,0,0,0,0,0,0,0,0,0,0,0,0,0,0,0,0,0,0,0,0,0,0],"sum_hessian":[2.376E3,1.731E3,6.45E2,6.3E2,1.101E3,3.66E2,2.79E2,4.2E1,5.88E2,1.04E2,9.97E2,1.11E2,2.55E2,1.88E2,9.1E1,1.1E1,3.1E1,4.8E2,1.08E2,9.7E1,7E0,9.81E2,1.6E1,9E0,1.02E2,1.1E1,2.44E2,1.62E2,2.6E1,7.6E1,1.5E1],"tree_param":{"num_deleted":"0","num_feature":"34","num_nodes":"31","size_leaf_vector":"1"}},{"base_weights":[-5.879833E-2,-6.585663E-1,1.6061363E0,-2.496407E0,-1.5338682E-1,2.5209808E0,5.358777E-1,-3.1536658E0,3.7485734E-1,-9.825888E-1,7.188292E-1,-3.9021628E0,2.8141878E0,-3.820893E-1,7.376847E-1,-1.447132E-1,-3.9619687E-1,1.2035251E-1,-1.475374E-1,9.600695E-2,-6.481658E-2,-1.513326E-3,1.5671884E-1,-5.8288883E-2,-4.5708886E-1,1.2116988E-1,2.914886E-1,-1.0143683E-1,6.7996465E-2],"categories":[],"categories_nodes":[],"categories_segments":[],"categories_sizes":[],"default_left":[0,0,0,0,0,0,0,0,0,0,0,0,0,0,0,0,0,0,0,0,0,0,0,0,0,0,0,0,0],"id":26,"left_children":[1,3,5,7,9,11,13,15,17,19,21,23,25,-1,27,-1,-1,-1,-1,-1,-1,-1,-1,-1,-1,-1,-1,-1,-1],"loss_changes":[2.3377222E3,1.5974612E3,6.0570374E2,7.013198E2,9.77808E2,6.400066E2,4.7927612E2,3.507661E2,4.801816E2,6.336109E2,1.1925398E3,2.0440674E2,3.6297925E2,0E0,4.864696E2,0E0,0E0,0E0,0E0,0E0,0E0,0E0,0E0,0E0,0E0,0E0,0E0,0E0,0E0],"parents":[2147483647,0,0,1,1,2,2,3,3,4,4,5,5,6,6,7,7,8,8,9,9,10,10,11,11,12,12,14,14],"right_children":[2,4,6,8,10,12,14,16,18,20,22,24,26,-1,28,-1,-1,-1,-1,-1,-1,-1,-1,-1,-1,-1,-1,-1,-1],"split_conditions":[1.00355E2,2.249E2,3.69E1,2.34E2,2.287E2,2.193E2,-3.77E0,5.91E1,1.32E-1,1.28E-1,2.298E2,1.2E0,2.323E2,-3.820893E-1,3.84E1,-1.447132E-1,-3.9619687E-1,1.2035251E-1,-1.475374E-1,9.600695E-2,-6.481658E-2,-1.513326E-3,1.5671884E-1,-5.8288883E-2,-4.5708886E-1,1.2116988E-1,2.914886E-1,-1.0143683E-1,6.7996465E-2],"split_indices":[26,28,31,27,27,27,24,30,6,17,28,9,27,0,31,0,0,0,0,0,0,0,0,0,0,0,0,0,0],"split_type":[0,0,0,0,0,0,0,0,0,0,0,0,0,0,0,0,0,0,0,0,0,0,0,0,0,0,0,0,0],"sum_hessian":[2.339E3,1.72E3,6.19E2,3.7E2,1.35E3,3.33E2,2.86E2,3.01E2,6.9E1,6.92E2,6.58E2,1.4E1,3.19E2,6E0,2.8E2,2.87E2,1.4E1,4.3E1,2.6E1,6.7E1,6.25E2,5.03E2,1.55E2,1E1,4E0,2.84E2,3.5E1,5.1E1,2.29E2],"tree_param":{"num_deleted":"0","num_feature":"34","num_nodes":"29","size_leaf_vector":"1"}},{"base_weights":[-3.3231758E-2,-8.629369E-1,8.750373E-1,-1.1150777E0,1.297433E0,-2.1953743E0,1.0931201E0,-2.9882362E0,-7.740457E-1,6.1030917E0,7.615423E-1,-3.1420648E0,5.2013288E0,2.203499E0,5.238001E-1,-2.6068437E-1,-8.270671E-2,-4.6794523E-2,1.1400204E-1,3.729205E-1,-4.5038607E-2,-5.368153E-2,1.0768553E-1,2.0912457E-1,-1.7722337E-1,4.1895205E-1,-4.32786E-2,-2.4043489E-1,1.20848835E-1,1.2646982E-2,2.5136513E-1],"categories":[],"categories_nodes":[],"categories_segments":[],"categories_sizes":[],"default_left":[0,0,0,0,0,0,0,0,0,0,0,0,0,0,0,0,0,0,0,0,0,0,0,0,0,0,0,0,0,0,0],"id":27,"left_children":[1,3,5,7,9,11,13,15,17,19,21,23,25,27,29,-1,-1,-1,-1,-1,-1,-1,-1,-1,-1,-1,-1,-1,-1,-1,-1],"loss_changes":[1.8010946E3,6.817988E2,7.664179E2,7.1251184E2,3.3271762E2,5.485244E2,6.727294E2,5.0204028E2,4.7071875E2,1.301203E2,3.0634174E2,2.1524927E2,1.8076245E2,5.520205E2,8.5992163E2,0E0,0E0,0E0,0E0,0E0,0E0,0E0,0E0,0E0,0E0,0E0,0E0,0E0,0E0,0E0,0E0],"parents":[2147483647,0,0,1,1,2,2,3,3,4,4,5,5,6,6,7,7,8,8,9,9,10,10,11,11,12,12,13,13,14,14],"right_children":[2,4,6,8,10,12,14,16,18,20,22,24,26,28,30,-1,-1,-1,-1,-1,-1,-1,-1,-1,-1,-1,-1,-1,-1,-1,-1],"split_conditions":[9.95E1,2.341E2,5.54E-1,1.109E2,9.673E1,1.0159E2,1.34E-1,2.282E2,5E0,1.124E0,9.8345E1,5.19E-1,1.133E2,1E0,4E0,-2.6068437E-1,-8.270671E-2,-4.6794523E-2,1.1400204E-1,3.729205E-1,-4.5038607E-2,-5.368153E-2,1.0768553E-1,2.0912457E-1,-1.7722337E-1,4.1895205E-1,-4.32786E-2,-2.4043489E-1,1.20848835E-1,1.2646982E-2,2.5136513E-1],"split_indices":[26,27,16,1,14,26,6,27,9,29,26,4,1,9,7,0,0,0,0,0,0,0,0,0,0,0,0,0,0,0,0],"split_type":[0,0,0,0,0,0,0,0,0,0,0,0,0,0,0,0,0,0,0,0,0,0,0,0,0,0,0,0,0,0,0],"sum_hessian":[2.388E3,1.248E3,1.14E3,1.118E3,1.3E2,7.5E1,1.065E3,1.71E2,9.47E2,1.2E1,1.18E2,6.7E1,8E0,3.6E2,7.05E2,6.3E1,1.08E2,9E2,4.7E1,1E1,2E0,5.1E1,6.7E1,3E0,6.4E1,5E0,3E0,1E1,3.5E2,6.66E2,3.9E1],"tree_param":{"num_deleted":"0","num_feature":"34","num_nodes":"31","size_leaf_vector":"1"}},{"base_weights":[-2.0176396E-2,-8.001077E-1,6.63837E-1,-3.584452E-1,-2.4382179E0,-3.5359377E-1,1.4588912E0,-3.5193996E0,-1.060672E-1,-8.474528E0,-1.893436E0,-2.06939E0,3.371172E-1,3.596505E0,9.3041825E-1,-2.0109788E-1,4.0199637E-1,-3.332229E-2,5.106918E-2,-1.8985558E-2,-4.9842873E-1,1.6613545E-1,-1.0954932E-1,-1.2691799E-1,2.9883513E-1,-2.288759E-2,1.0325809E-1,1.5782453E-1,6.412038E-1,-3.4308335E-1,5.202327E-2],"categories":[],"categories_nodes":[],"categories_segments":[],"categories_sizes":[],"default_left":[0,0,0,0,0,0,0,0,0,0,0,0,0,0,0,0,0,0,0,0,0,0,0,0,0,0,0,0,0,0,0],"id":28,"left_children":[1,3,5,7,9,11,13,15,17,19,21,23,25,27,29,-1,-1,-1,-1,-1,-1,-1,-1,-1,-1,-1,-1,-1,-1,-1,-1],"loss_changes":[1.2536838E3,7.9352014E2,1.0132744E3,6.904828E2,7.5016833E2,6.5251324E2,7.908125E2,4.0412683E2,5.0801553E2,2.2600159E2,3.409743E2,6.1136395E2,5.407578E2,5.2389795E2,4.9162466E2,0E0,0E0,0E0,0E0,0E0,0E0,0E0,0E0,0E0,0E0,0E0,0E0,0E0,0E0,0E0,0E0],"parents":[2147483647,0,0,1,1,2,2,3,3,4,4,5,5,6,6,7,7,8,8,9,9,10,10,11,11,12,12,13,13,14,14],"right_children":[2,4,6,8,10,12,14,16,18,20,22,24,26,28,30,-1,-1,-1,-1,-1,-1,-1,-1,-1,-1,-1,-1,-1,-1,-1,-1],"split_conditions":[1.137E2,1.5131316E3,1.085E0,-3.3E0,1.5492584E3,9.8815E1,2E0,1.422017E3,1.106E0,-3.54E0,1.5795432E3,3.3E0,1.1157606E3,6.02E1,1.21E-1,-2.0109788E-1,4.0199637E-1,-3.332229E-2,5.106918E-2,-1.8985558E-2,-4.9842873E-1,1.6613545E-1,-1.0954932E-1,-1.2691799E-1,2.9883513E-1,-2.288759E-2,1.0325809E-1,1.5782453E-1,6.412038E-1,-3.4308335E-1,5.202327E-2],"split_indices":[1,20,29,23,20,26,18,20,29,24,20,9,20,31,17,0,0,0,0,0,0,0,0,0,0,0,0,0,0,0,0],"split_type":[0,0,0,0,0,0,0,0,0,0,0,0,0,0,0,0,0,0,0,0,0,0,0,0,0,0,0,0,0,0,0],"sum_hessian":[2.348E3,1.097E3,1.251E3,8.65E2,2.32E2,5.49E2,7.02E2,6.3E1,8.02E2,1.8E1,2.14E2,1.57E2,3.92E2,1.38E2,5.64E2,6.1E1,2E0,5.36E2,2.66E2,3E0,1.5E1,1.1E1,2.03E2,1.49E2,8E0,2.69E2,1.23E2,1.33E2,5E0,7E0,5.57E2],"tree_param":{"num_deleted":"0","num_feature":"34","num_nodes":"31","size_leaf_vector":"1"}},{"base_weights":[-9.837656E-2,-5.243208E-1,1.0897975E0,-8.8100195E-1,6.074141E-1,1.3895137E0,-2.047066E0,2.0505445E0,-1.0383883E0,4.2845006E0,1.7550132E-1,1.0643926E0,3.5631082E0,-4.813111E0,1.2232575E0,-1.2304562E-1,1.743005E-1,-1.7340706E-1,-4.3212384E-2,-1.2656192E-1,2.8211886E-1,3.394567E-3,4.0732917E-1,1.0665667E-1,-4.3029786E-4,2.4192369E-1,-1.9169757E-2,-4.0608164E-2,-3.9124426E-1,-3.887434E-1,1.367482E-1],"categories":[],"categories_nodes":[],"categories_segments":[],"categories_sizes":[],"default_left":[0,0,0,0,0,0,0,0,0,0,0,0,0,0,0,0,0,0,0,0,0,0,0,0,0,0,0,0,0,0,0],"id":29,"left_children":[1,3,5,7,9,11,13,15,17,19,21,23,25,27,29,-1,-1,-1,-1,-1,-1,-1,-1,-1,-1,-1,-1,-1,-1,-1,-1],"loss_changes":[1.2005248E3,7.0534045E2,5.9139014E2,6.148489E2,6.6469586E2,4.0042944E2,5.0341003E2,4.4894968E2,5.305552E2,4.2149902E2,3.2196768E2,5.7225037E2,3.7431427E2,3.551433E2,3.7492957E2,0E0,0E0,0E0,0E0,0E0,0E0,0E0,0E0,0E0,0E0,0E0,0E0,0E0,0E0,0E0,0E0],"parents":[2147483647,0,0,1,1,2,2,3,3,4,4,5,5,6,6,7,7,8,8,9,9,10,10,11,11,12,12,13,13,14,14],"right_children":[2,4,6,8,10,12,14,16,18,20,22,24,26,28,30,-1,-1,-1,-1,-1,-1,-1,-1,-1,-1,-1,-1,-1,-1,-1,-1],"split_conditions":[1.00355E2,2.304E2,1.56E-1,-4.07E0,1.25E-1,1.176E2,2.285E2,-1.1E0,1.101E2,9.82E1,2.346E2,-5E-1,1.51E-1,3.63E1,2E0,-1.2304562E-1,1.743005E-1,-1.7340706E-1,-4.3212384E-2,-1.2656192E-1,2.8211886E-1,3.394567E-3,4.0732917E-1,1.0665667E-1,-4.3029786E-4,2.4192369E-1,-1.9169757E-2,-4.0608164E-2,-3.9124426E-1,-3.887434E-1,1.367482E-1],"split_indices":[26,28,6,24,17,0,27,23,1,26,27,23,17,31,7,0,0,0,0,0,0,0,0,0,0,0,0,0,0,0,0],"split_type":[0,0,0,0,0,0,0,0,0,0,0,0,0,0,0,0,0,0,0,0,0,0,0,0,0,0,0,0,0,0,0],"sum_hessian":[2.37E3,1.745E3,6.25E2,1.327E3,4.18E2,5.71E2,5.4E1,6.7E1,1.26E3,4.3E1,3.75E2,4.98E2,7.3E1,2.9E1,2.5E1,1.6E1,5.1E1,8.3E1,1.177E3,7E0,3.6E1,3.71E2,4E0,2.49E2,2.49E2,5.5E1,1.8E1,1.3E1,1.6E1,3E0,2.2E1],"tree_param":{"num_deleted":"0","num_feature":"34","num_nodes":"31","size_leaf_vector":"1"}},{"base_weights":[3.973404E-3,-6.331369E-1,7.2595173E-1,-1.4949582E0,-8.7538615E-2,2.823755E-1,2.5313745E0,-2.0397437E0,2.8977913E-1,1.166791E-1,-4.2658978E0,-5.582353E0,3.95737E-1,6.1931477E0,1.7035841E0,3.8620327E-3,-1.3603716E-1,-2.8589347E-1,3.9619356E-2,4.0978342E-1,1.9577856E-3,3.4944737E-1,-2.566752E-1,2.9907465E-2,-4.9842596E-1,2.7252285E-2,-1.9189566E-1,2.5621387E-1,1.1969769E0,2.664632E-1,5.692446E-2],"categories":[],"categories_nodes":[],"categories_segments":[],"categories_sizes":[],"default_left":[0,0,0,0,0,0,0,0,0,0,0,0,0,0,0,0,0,0,0,0,0,0,0,0,0,0,0,0,0,0,0],"id":30,"left_children":[1,3,5,7,9,11,13,15,17,19,21,23,25,27,29,-1,-1,-1,-1,-1,-1,-1,-1,-1,-1,-1,-1,-1,-1,-1,-1],"loss_changes":[1.0901519E3,5.918613E2,8.8902136E2,4.7507312E2,6.5924146E2,5.959061E2,6.5327795E2,5.393927E2,3.5177237E2,4.6127002E2,3.874099E2,4.668108E2,5.5646173E2,6.3607043E2,3.627262E2,0E0,0E0,0E0,0E0,0E0,0E0,0E0,0E0,0E0,0E0,0E0,0E0,0E0,0E0,0E0,0E0],"parents":[2147483647,0,0,1,1,2,2,3,3,4,4,5,5,6,6,7,7,8,8,9,9,10,10,11,11,12,12,13,13,14,14],"right_children":[2,4,6,8,10,12,14,16,18,20,22,24,26,28,30,-1,-1,-1,-1,-1,-1,-1,-1,-1,-1,-1,-1,-1,-1,-1,-1],"split_conditions":[2.285E2,5.8E-1,5.98E-1,1.0067E2,1.27E1,2.163E2,2E0,1.28E-1,1.084E2,-3E0,1.57E1,2.154E2,1.62E-1,4E0,1.091E0,3.8620327E-3,-1.3603716E-1,-2.8589347E-1,3.9619356E-2,4.0978342E-1,1.9577856E-3,3.4944737E-1,-2.566752E-1,2.9907465E-2,-4.9842596E-1,2.7252285E-2,-1.9189566E-1,2.5621387E-1,1.1969769E0,2.664632E-1,5.692446E-2],"split_indices":[28,5,16,14,23,27,18,6,12,2,31,27,6,7,29,0,0,0,0,0,0,0,0,0,0,0,0,0,0,0,0],"split_type":[0,0,0,0,0,0,0,0,0,0,0,0,0,0,0,0,0,0,0,0,0,0,0,0,0,0,0,0,0,0,0],"sum_hessian":[2.368E3,1.258E3,1.11E3,4.87E2,7.71E2,8.92E2,2.18E2,3.73E2,1.14E2,7.36E2,3.5E1,1.6E1,8.76E2,3.9E1,1.79E2,9.1E1,2.82E2,8E0,1.06E2,6E0,7.3E2,2E0,3.3E1,7E0,9E0,8.47E2,2.9E1,3.8E1,1E0,2.3E1,1.56E2],"tree_param":{"num_deleted":"0","num_feature":"34","num_nodes":"31","size_leaf_vector":"1"}},{"base_weights":[-1.7874697E-2,-5.0483173E-1,1.3047619E0,-1.790337E0,-1.5540631E-1,8.51969E-1,2.84775E0,-1.5970361E0,-8.628125E0,-9.304932E-1,3.783732E-1,7.0414275E-1,5.9016795E0,3.6567876E0,-2.453815E-1,-9.8263316E-2,1.0119676E-1,-1.4463852E-1,-5.984783E-1,-9.1336645E-2,1.385682E-2,-1.0441752E-2,1.3499177E-1,2.4669681E-1,2.603509E-2,3.7823898E-1,-7.363224E-3,2.3051293E-1,1.8921394E-2,-3.6646444E-1,6.99402E-2],"categories":[],"categories_nodes":[],"categories_segments":[],"categories_sizes":[],"default_left":[0,0,0,0,0,0,0,0,0,0,0,0,0,0,0,0,0,0,0,0,0,0,0,0,0,0,0,0,0,0,0],"id":31,"left_children":[1,3,5,7,9,11,13,15,17,19,21,23,25,27,29,-1,-1,-1,-1,-1,-1,-1,-1,-1,-1,-1,-1,-1,-1,-1,-1],"loss_changes":[1.5341825E3,7.817584E2,4.4541113E2,4.7791187E2,5.67156E2,3.6684485E2,3.637539E2,4.8798395E2,1.5701825E2,6.055263E2,1.1074673E3,3.729748E2,1.4195398E2,3.5772473E2,3.713172E2,0E0,0E0,0E0,0E0,0E0,0E0,0E0,0E0,0E0,0E0,0E0,0E0,0E0,0E0,0E0,0E0],"parents":[2147483647,0,0,1,1,2,2,3,3,4,4,5,5,6,6,7,7,8,8,9,9,10,10,11,11,12,12,13,13,14,14],"right_children":[2,4,6,8,10,12,14,16,18,20,22,24,26,28,30,-1,-1,-1,-1,-1,-1,-1,-1,-1,-1,-1,-1,-1,-1,-1,-1],"split_conditions":[1.00355E2,2.249E2,1.157E2,1.21E1,2.275E2,1.0224E2,1.51E-1,1.192E2,1.076E2,9.923E1,2.304E2,1.00375E2,1.181E2,2.354E2,2.2E0,-9.8263316E-2,1.0119676E-1,-1.4463852E-1,-5.984783E-1,-9.1336645E-2,1.385682E-2,-1.0441752E-2,1.3499177E-1,2.4669681E-1,2.603509E-2,3.7823898E-1,-7.363224E-3,2.3051293E-1,1.8921394E-2,-3.6646444E-1,6.99402E-2],"split_indices":[26,28,0,23,27,26,17,0,11,26,28,26,12,27,2,0,0,0,0,0,0,0,0,0,0,0,0,0,0,0,0],"split_type":[0,0,0,0,0,0,0,0,0,0,0,0,0,0,0,0,0,0,0,0,0,0,0,0,0,0,0,0,0,0,0],"sum_hessian":[2.38E3,1.74E3,6.4E2,3.71E2,1.369E3,4.96E2,1.44E2,3.62E2,9E0,5.58E2,8.11E2,4.83E2,1.3E1,1.14E2,3E1,3.29E2,3.3E1,4E0,5E0,3.2E2,2.38E2,6.48E2,1.63E2,1.9E1,4.64E2,1E1,3E0,8.8E1,2.6E1,5E0,2.5E1],"tree_param":{"num_deleted":"0","num_feature":"34","num_nodes":"31","size_leaf_vector":"1"}},{"base_weights":[7.824737E-2,-4.35429E-1,9.646053E-1,-1.0146545E0,5.022576E-1,1.8282266E-1,1.7280798E0,-1.4495108E0,4.3963006E-1,1.0180621E0,-1.3234195E0,-2.0926884E-1,3.2912402E0,9.333992E-1,3.1116507E0,-9.448128E-2,8.254407E-3,-1.2235483E-1,6.47118E-2,-4.4476982E-2,7.5887375E-2,-1.0384436E-1,1.5145515E-1,3.0273236E-3,-2.3074582E-1,-9.036949E-2,2.2570954E-1,5.3277653E-2,-4.2092857E-1,2.2839859E-1,-1.2543278E-2],"categories":[],"categories_nodes":[],"categories_segments":[],"categories_sizes":[],"default_left":[0,0,0,0,0,0,0,0,0,0,0,0,0,0,0,0,0,0,0,0,0,0,0,0,0,0,0,0,0,0,0],"id":32,"left_children":[1,3,5,7,9,11,13,15,17,19,21,23,25,27,29,-1,-1,-1,-1,-1,-1,-1,-1,-1,-1,-1,-1,-1,-1,-1,-1],"loss_changes":[1.0721989E3,8.103194E2,5.1538074E2,5.837145E2,5.381121E2,5.223283E2,4.775758E2,5.0484436E2,5.286411E2,4.255243E2,4.1950616E2,4.5317838E2,3.0745673E2,3.5378644E2,7.7975354E2,0E0,0E0,0E0,0E0,0E0,0E0,0E0,0E0,0E0,0E0,0E0,0E0,0E0,0E0,0E0,0E0],"parents":[2147483647,0,0,1,1,2,2,3,3,4,4,5,5,6,6,7,7,8,8,9,9,10,10,11,11,12,12,13,13,14,14],"right_children":[2,4,6,8,10,12,14,16,18,20,22,24,26,28,30,-1,-1,-1,-1,-1,-1,-1,-1,-1,-1,-1,-1,-1,-1,-1,-1],"split_conditions":[1.0026E2,1.0015E2,1.15E2,4E0,5.94E-1,1.0194E2,1.155E2,3E0,3.4E1,1.068E0,1.0207E2,1.24E1,2.58E1,1.138E0,1.178E2,-9.448128E-2,8.254407E-3,-1.2235483E-1,6.47118E-2,-4.4476982E-2,7.5887375E-2,-1.0384436E-1,1.5145515E-1,3.0273236E-3,-2.3074582E-1,-9.036949E-2,2.2570954E-1,5.3277653E-2,-4.2092857E-1,2.2839859E-1,-1.2543278E-2],"split_indices":[3,14,1,9,5,14,11,7,30,29,14,23,30,29,11,0,0,0,0,0,0,0,0,0,0,0,0,0,0,0,0],"split_type":[0,0,0,0,0,0,0,0,0,0,0,0,0,0,0,0,0,0,0,0,0,0,0,0,0,0,0,0,0,0,0],"sum_hessian":[2.353E3,1.49E3,8.63E2,9.21E2,5.69E2,4.27E2,4.36E2,7.09E2,2.12E2,4.44E2,1.25E2,3.8E2,4.7E1,2.78E2,1.58E2,5.57E2,1.52E2,4.8E1,1.64E2,9.2E1,3.52E2,1.07E2,1.8E1,3.59E2,2.1E1,9E0,3.8E1,2.75E2,3E0,1.1E2,4.8E1],"tree_param":{"num_deleted":"0","num_feature":"34","num_nodes":"31","size_leaf_vector":"1"}},{"base_weights":[1.3521703E-1,-1.2651201E0,5.035772E-1,-4.439199E0,-9.9267095E-1,1.9669631E-1,1.461983E0,-3.7582388E0,-5.678987E-1,-1.1798128E0,6.076681E0,-2.4851213E-1,1.1879451E0,5.1335077E0,1.1366075E0,5.6035507E-2,-2.3693517E-1,-8.538683E-2,9.143957E-3,4.166865E-1,6.250336E-2,3.0057905E-2,-4.281255E-2,-8.186957E-2,8.2971215E-2,-2.1864013E-1,2.9008314E-1,9.63376E-2,7.144066E-3],"categories":[],"categories_nodes":[],"categories_segments":[],"categories_sizes":[],"default_left":[0,0,0,0,0,0,0,0,0,0,0,0,0,0,0,0,0,0,0,0,0,0,0,0,0,0,0,0,0],"id":33,"left_children":[1,3,5,7,9,11,13,15,-1,17,19,21,23,25,27,-1,-1,-1,-1,-1,-1,-1,-1,-1,-1,-1,-1,-1,-1],"loss_changes":[1.230888E3,4.253866E2,5.5529834E2,1.4105902E2,6.144134E2,6.322545E2,5.41303E2,1.823053E2,0E0,3.2260236E2,1.2030911E2,5.112122E2,5.9416406E2,2.6038202E2,3.3107373E2,0E0,0E0,0E0,0E0,0E0,0E0,0E0,0E0,0E0,0E0,0E0,0E0,0E0,0E0],"parents":[2147483647,0,0,1,1,2,2,3,3,4,4,5,5,6,6,7,7,9,9,10,10,11,11,12,12,13,13,14,14],"right_children":[2,4,6,8,10,12,14,16,-1,18,20,22,24,26,28,-1,-1,-1,-1,-1,-1,-1,-1,-1,-1,-1,-1,-1,-1],"split_conditions":[9.8405E1,1.048E0,1.0062E2,2.331E2,2.323E2,1.2701575E3,1.00665E2,1E0,-5.678987E-1,3.8E0,2.5E0,1.37E-1,2.17E1,1.115E2,3E0,5.6035507E-2,-2.3693517E-1,-8.538683E-2,9.143957E-3,4.166865E-1,6.250336E-2,3.0057905E-2,-4.281255E-2,-8.186957E-2,8.2971215E-2,-2.1864013E-1,2.9008314E-1,9.63376E-2,7.144066E-3],"split_indices":[26,29,26,28,28,20,26,21,0,9,21,17,30,12,9,0,0,0,0,0,0,0,0,0,0,0,0,0,0],"split_type":[0,0,0,0,0,0,0,0,0,0,0,0,0,0,0,0,0,0,0,0,0,0,0,0,0,0,0,0,0],"sum_hessian":[2.384E3,4.96E2,1.888E3,3.8E1,4.58E2,1.431E3,4.57E2,3.6E1,2E0,4.47E2,1.1E1,9.88E2,4.43E2,3.6E1,4.21E2,6E0,3E1,3.22E2,1.25E2,7E0,4E0,4.12E2,5.76E2,6.3E1,3.8E2,2E0,3.4E1,2.34E2,1.87E2],"tree_param":{"num_deleted":"0","num_feature":"34","num_nodes":"29","size_leaf_vector":"1"}},{"base_weights":[-7.464873E-2,-1.4297938E0,2.3129976E-1,6.8221865E0,-1.6201459E0,-4.9517477E-1,6.9666487E-1,-1.6205254E-1,8.300441E0,-2.2729402E0,2.0815088E-1,-2.0080938E0,-1.18629985E-1,5.1837426E-1,3.54697E0,4.7808835E-1,1.2952666E-1,-2.1227781E-1,-6.7915075E-2,3.6847405E-2,-3.9523143E-1,-1.3275264E-1,1.2961285E-1,-1.3934174E-1,7.153953E-3,-1.2159566E-3,6.509595E-2,2.929602E-1,2.6180614E-2],"categories":[],"categories_nodes":[],"categories_segments":[],"categories_sizes":[],"default_left":[0,0,0,0,0,0,0,0,0,0,0,0,0,0,0,0,0,0,0,0,0,0,0,0,0,0,0,0,0],"id":34,"left_children":[1,3,5,7,9,11,13,-1,15,17,19,21,23,25,27,-1,-1,-1,-1,-1,-1,-1,-1,-1,-1,-1,-1,-1,-1],"loss_changes":[9.792122E2,6.94343E2,6.518172E2,1.7566232E2,5.089048E2,4.2873215E2,5.9527594E2,0E0,4.00484E1,5.6076184E2,4.9059702E2,4.533183E2,4.221679E2,4.707553E2,4.7929108E2,0E0,0E0,0E0,0E0,0E0,0E0,0E0,0E0,0E0,0E0,0E0,0E0,0E0,0E0],"parents":[2147483647,0,0,1,1,2,2,3,3,4,4,5,5,6,6,8,8,9,9,10,10,11,11,12,12,13,13,14,14],"right_children":[2,4,6,8,10,12,14,-1,16,18,20,22,24,26,28,-1,-1,-1,-1,-1,-1,-1,-1,-1,-1,-1,-1,-1,-1],"split_conditions":[2.249E2,-4.73E0,9.924E1,1.28E-1,6.95E-1,1.123E2,4E0,-1.6205254E-1,3.3E0,3E0,1.42E1,1.178E2,1.109E2,1.149E2,2.298E2,4.7808835E-1,1.2952666E-1,-2.1227781E-1,-6.7915075E-2,3.6847405E-2,-3.9523143E-1,-1.3275264E-1,1.2961285E-1,-1.3934174E-1,7.153953E-3,-1.2159566E-3,6.509595E-2,2.929602E-1,2.6180614E-2],"split_indices":[28,24,26,17,10,0,7,0,21,21,23,11,1,11,28,0,0,0,0,0,0,0,0,0,0,0,0,0,0],"split_type":[0,0,0,0,0,0,0,0,0,0,0,0,0,0,0,0,0,0,0,0,0,0,0,0,0,0,0,0,0],"sum_hessian":[2.36E3,4.34E2,1.926E3,9E0,4.25E2,7.52E2,1.174E3,1E0,8E0,3.13E2,1.12E2,1.49E2,6.03E2,1.106E3,6.8E1,6E0,2E0,9.8E1,2.15E2,1.06E2,6E0,1.31E2,1.8E1,5.3E1,5.5E2,6.54E2,4.52E2,3.8E1,3E1],"tree_param":{"num_deleted":"0","num_feature":"34","num_nodes":"29","size_leaf_vector":"1"}},{"base_weights":[-1.8832012E-1,-9.066741E-1,3.8899314E-1,-1.6846179E0,2.4519804E-1,2.1862634E-1,3.0797467E0,-2.2178895E0,-3.7965342E-1,-4.2183828E-1,2.887524E0,-3.5957365E0,3.1216627E-1,5.7035484E0,-5.6068355E-1,-1.02263704E-1,-3.7360993E-1,-6.75045E-2,1.3015996E-1,3.2354927E-1,-3.0233396E-2,2.5013044E-1,4.4679344E-2,1.0697142E-1,-2.5593352E-1,-1.9325663E-1,1.924741E-2,1.8764314E-1,8.017766E-1,2.2056416E-2,-2.2439168E-1],"categories":[],"categories_nodes":[],"categories_segments":[],"categories_sizes":[],"default_left":[0,0,0,0,0,0,0,0,0,0,0,0,0,0,0,0,0,0,0,0,0,0,0,0,0,0,0,0,0,0,0],"id":35,"left_children":[1,3,5,7,9,11,13,15,17,19,21,23,25,27,29,-1,-1,-1,-1,-1,-1,-1,-1,-1,-1,-1,-1,-1,-1,-1,-1],"loss_changes":[9.931811E2,9.56543E2,6.081019E2,4.424464E2,7.608673E2,4.4711652E2,7.5778754E2,3.9467017E2,5.4192303E2,4.3868604E2,3.6243878E2,2.729794E2,3.7271085E2,8.6692554E2,1.3574472E2,0E0,0E0,0E0,0E0,0E0,0E0,0E0,0E0,0E0,0E0,0E0,0E0,0E0,0E0,0E0,0E0],"parents":[2147483647,0,0,1,1,2,2,3,3,4,4,5,5,6,6,7,7,8,8,9,9,10,10,11,11,12,12,13,13,14,14],"right_children":[2,4,6,8,10,12,14,16,18,20,22,24,26,28,30,-1,-1,-1,-1,-1,-1,-1,-1,-1,-1,-1,-1,-1,-1,-1,-1],"split_conditions":[9.924E1,1.099E0,4E0,1.2361348E3,1.94E0,1.106E2,5.53E-1,2.319E2,9.887E1,1E0,9.8735E1,1.34E-1,1.2061235E2,1.114E0,5.6E0,-1.02263704E-1,-3.7360993E-1,-6.75045E-2,1.3015996E-1,3.2354927E-1,-3.0233396E-2,2.5013044E-1,4.4679344E-2,1.0697142E-1,-2.5593352E-1,-1.9325663E-1,1.924741E-2,1.8764314E-1,8.017766E-1,2.2056416E-2,-2.2439168E-1],"split_indices":[26,29,7,20,24,12,4,27,26,21,26,6,20,29,2,0,0,0,0,0,0,0,0,0,0,0,0,0,0,0,0],"split_type":[0,0,0,0,0,0,0,0,0,0,0,0,0,0,0,0,0,0,0,0,0,0,0,0,0,0,0,0,0,0,0],"sum_hessian":[2.393E3,1.066E3,1.327E3,6.36E2,4.3E2,1.249E3,7.8E1,4.51E2,1.85E2,3.44E2,8.6E1,2.9E1,1.22E3,4.5E1,3.3E1,4.38E2,1.3E1,1.4E2,4.5E1,8E0,3.36E2,4.1E1,4.5E1,6E0,2.3E1,2E1,1.2E3,3.9E1,6E0,2.7E1,6E0],"tree_param":{"num_deleted":"0","num_feature":"34","num_nodes":"31","size_leaf_vector":"1"}},{"base_weights":[-1.5426987E-3,-4.130738E-1,8.412964E-1,-2.2529423E0,-2.7492762E-1,-2.6098618E-1,1.6215383E0,-3.2651675E0,1.7178726E0,5.232429E-1,-7.1069133E-1,-8.059788E-1,1.8894614E0,4.752623E-1,2.6825068E0,-1.941389E-1,4.8496533E-2,-4.4986427E-2,4.642182E-1,-3.8237855E-2,6.732E-2,-4.504909E-2,9.053067E-2,-5.281782E-2,1.7987162E-1,3.5678026E-1,1.5471478E-2,-4.5734808E-1,4.1891675E-2,3.092777E-1,1.04847364E-1],"categories":[],"categories_nodes":[],"categories_segments":[],"categories_sizes":[],"default_left":[0,0,0,0,0,0,0,0,0,0,0,0,0,0,0,0,0,0,0,0,0,0,0,0,0,0,0,0,0,0,0],"id":36,"left_children":[1,3,5,7,9,11,13,15,17,19,21,23,25,27,29,-1,-1,-1,-1,-1,-1,-1,-1,-1,-1,-1,-1,-1,-1,-1,-1],"loss_changes":[8.140682E2,4.00208E2,6.626595E2,4.4773865E2,5.1096246E2,3.7655582E2,5.472145E2,2.3394238E2,4.638927E2,5.5128705E2,4.574224E2,2.8604425E2,5.365818E2,7.682092E2,4.6702014E2,0E0,0E0,0E0,0E0,0E0,0E0,0E0,0E0,0E0,0E0,0E0,0E0,0E0,0E0,0E0,0E0],"parents":[2147483647,0,0,1,1,2,2,3,3,4,4,5,5,6,6,7,7,8,8,9,9,10,10,11,11,12,12,13,13,14,14],"right_children":[2,4,6,8,10,12,14,16,18,20,22,24,26,28,30,-1,-1,-1,-1,-1,-1,-1,-1,-1,-1,-1,-1,-1,-1,-1,-1],"split_conditions":[1.0051E2,9.694E1,2.281E2,5.92E-1,1.36E-1,1.149E2,2.279E2,2.297E2,1.259879E3,7.0070514E2,4E0,1.0216E2,1.073E0,4.51E-1,2.289E2,-1.941389E-1,4.8496533E-2,-4.4986427E-2,4.642182E-1,-3.8237855E-2,6.732E-2,-4.504909E-2,9.053067E-2,-5.281782E-2,1.7987162E-1,3.5678026E-1,1.5471478E-2,-4.5734808E-1,4.1891675E-2,3.092777E-1,1.04847364E-1],"split_indices":[3,14,27,5,6,11,28,28,20,20,7,14,29,22,27,0,0,0,0,0,0,0,0,0,0,0,0,0,0,0,0],"split_type":[0,0,0,0,0,0,0,0,0,0,0,0,0,0,0,0,0,0,0,0,0,0,0,0,0,0,0,0,0,0,0],"sum_hessian":[2.345E3,1.576E3,7.69E2,1.09E2,1.467E3,3.19E2,4.5E2,8.7E1,2.2E1,5.18E2,9.49E2,2.55E2,6.4E1,2.17E2,2.33E2,7.6E1,1.1E1,1.7E1,5E0,2.02E2,3.16E2,8.83E2,6.6E1,2.42E2,1.3E1,1.4E1,5E1,7E0,2.1E2,3.2E1,2.01E2],"tree_param":{"num_deleted":"0","num_feature":"34","num_nodes":"31","size_leaf_vector":"1"}},{"base_weights":[4.8981883E-2,-7.955314E-1,4.6694237E-1,-1.2481844E0,1.2775474E0,4.140897E-1,5.042118E0,-7.1213055E0,-1.1348739E0,3.3379012E-1,6.9705896E0,-4.046029E0,4.656175E-1,1.13067045E1,2.4446144E0,-4.0389624E-1,8.503761E-2,-6.9746464E-2,7.847678E-2,3.8007763E-1,-2.0884261E-3,4.5382294E-1,2.7207503E-2,-2.0939637E-2,-4.843072E-1,-6.2354226E-3,4.017076E-2,2.1067849E-1,7.3154694E-1,2.4914776E-1,-4.0278845E-2],"categories":[],"categories_nodes":[],"categories_segments":[],"categories_sizes":[],"default_left":[0,0,0,0,0,0,0,0,0,0,0,0,0,0,0,0,0,0,0,0,0,0,0,0,0,0,0,0,0,0,0],"id":37,"left_children":[1,3,5,7,9,11,13,15,17,19,21,23,25,27,29,-1,-1,-1,-1,-1,-1,-1,-1,-1,-1,-1,-1,-1,-1,-1,-1],"loss_changes":[8.35859E2,7.3728894E2,3.809394E2,4.2049194E2,7.552451E2,3.6201184E2,2.6526068E2,1.1501068E2,4.4737598E2,3.3331296E2,2.6572595E2,3.6418805E2,3.0918686E2,5.624768E1,1.1951544E2,0E0,0E0,0E0,0E0,0E0,0E0,0E0,0E0,0E0,0E0,0E0,0E0,0E0,0E0,0E0,0E0],"parents":[2147483647,0,0,1,1,2,2,3,3,4,4,5,5,6,6,7,7,8,8,9,9,10,10,11,11,12,12,13,13,14,14],"right_children":[2,4,6,8,10,12,14,16,18,20,22,24,26,28,30,-1,-1,-1,-1,-1,-1,-1,-1,-1,-1,-1,-1,-1,-1,-1,-1],"split_conditions":[2.266E2,2.35E0,2.374E2,1.084E2,1.13E2,2.163E2,1.184E2,1.0076E2,2.352E2,5E-1,1.164E2,2.161E2,9.924E1,1.099E2,-3.4E-1,-4.0389624E-1,8.503761E-2,-6.9746464E-2,7.847678E-2,3.8007763E-1,-2.0884261E-3,4.5382294E-1,2.7207503E-2,-2.0939637E-2,-4.843072E-1,-6.2354226E-3,4.017076E-2,2.1067849E-1,7.3154694E-1,2.4914776E-1,-4.0278845E-2],"split_indices":[28,24,28,12,12,27,12,3,27,22,11,27,26,0,24,0,0,0,0,0,0,0,0,0,0,0,0,0,0,0,0],"split_type":[0,0,0,0,0,0,0,0,0,0,0,0,0,0,0,0,0,0,0,0,0,0,0,0,0,0,0,0,0,0,0],"sum_hessian":[2.366E3,7.83E2,1.583E3,6.43E2,1.4E2,1.566E3,1.7E1,1.1E1,6.32E2,1.21E2,1.9E1,1.7E1,1.549E3,4E0,1.3E1,1E1,1E0,5.77E2,5.5E1,5E0,1.16E2,1.4E1,5E0,1.1E1,6E0,5.64E2,9.85E2,2E0,2E0,7E0,6E0],"tree_param":{"num_deleted":"0","num_feature":"34","num_nodes":"31","size_leaf_vector":"1"}},{"base_weights":[1.7620017E-1,-1.9416175E0,3.8208556E-1,-2.2507646E0,3.8276458E0,-2.9828733E-1,8.1551284E-1,-2.924153E0,-7.147741E-2,6.269955E0,-3.571167E-1,-2.5751708E0,-7.408741E-2,1.8537431E0,3.6351374E-1,-1.781045E-1,-1.5961703E-2,2.1687391E-1,-1.2057507E-1,-8.011246E-3,4.4370362E-1,9.064446E-2,-1.20404184E-1,-1.5464644E-1,3.6941347E-1,-9.846547E-2,7.3842146E-3,1.6136302E-1,3.0437518E-2,1.4877914E-2,5.158583E-1],"categories":[],"categories_nodes":[],"categories_segments":[],"categories_sizes":[],"default_left":[0,0,0,0,0,0,0,0,0,0,0,0,0,0,0,0,0,0,0,0,0,0,0,0,0,0,0,0,0,0,0],"id":38,"left_children":[1,3,5,7,9,11,13,15,17,19,21,23,25,27,29,-1,-1,-1,-1,-1,-1,-1,-1,-1,-1,-1,-1,-1,-1,-1,-1],"loss_changes":[1.0284591E3,3.8137738E2,6.3396655E2,2.918247E2,1.14664444E2,4.2707855E2,6.154896E2,2.5145251E2,5.056788E2,1.18636444E2,2.661864E1,4.097503E2,3.209848E2,6.786228E2,5.9828186E2,0E0,0E0,0E0,0E0,0E0,0E0,0E0,0E0,0E0,0E0,0E0,0E0,0E0,0E0,0E0,0E0],"parents":[2147483647,0,0,1,1,2,2,3,3,4,4,5,5,6,6,7,7,8,8,9,9,10,10,11,11,12,12,13,13,14,14],"right_children":[2,4,6,8,10,12,14,16,18,20,22,24,26,28,30,-1,-1,-1,-1,-1,-1,-1,-1,-1,-1,-1,-1,-1,-1,-1,-1],"split_conditions":[9.7715E1,5E0,2.274E2,5.9E-1,5.41E-1,2.17E1,1.34E-1,1.48E-1,1.2E0,5.33E-1,3.3E0,1.54E-1,4.39E-1,1.4E-1,8E0,-1.781045E-1,-1.5961703E-2,2.1687391E-1,-1.2057507E-1,-8.011246E-3,4.4370362E-1,9.064446E-2,-1.20404184E-1,-1.5464644E-1,3.6941347E-1,-9.846547E-2,7.3842146E-3,1.6136302E-1,3.0437518E-2,1.4877914E-2,5.158583E-1],"split_indices":[26,9,28,16,15,30,6,17,2,4,21,17,22,17,7,0,0,0,0,0,0,0,0,0,0,0,0,0,0,0,0],"split_type":[0,0,0,0,0,0,0,0,0,0,0,0,0,0,0,0,0,0,0,0,0,0,0,0,0,0,0,0,0,0,0],"sum_hessian":[2.356E3,2.08E2,2.148E3,1.98E2,1E1,8.36E2,1.312E3,1.51E2,4.7E1,6E0,4E0,7.4E1,7.62E2,3.97E2,9.15E2,1.21E2,3E1,1.6E1,3.1E1,2E0,4E0,2E0,2E0,7.1E1,3E0,7.9E1,6.83E2,1.88E2,2.09E2,9.1E2,5E0],"tree_param":{"num_deleted":"0","num_feature":"34","num_nodes":"31","size_leaf_vector":"1"}},{"base_weights":[6.835242E-2,-5.635078E-1,8.2531E-1,7.505818E-1,-8.521356E-1,6.079922E-1,3.5116987E0,-1.7539834E0,1.6459311E0,1.9342087E-1,-1.1764514E0,1.6449413E0,4.3967217E-2,-5.1260834E0,4.1735477E0,-5.859952E-3,-2.5108463E-1,1.6845663E-1,1.1326232E-3,2.0085402E-1,-7.36598E-3,-9.2513174E-2,-2.6577985E-2,3.4190413E-1,7.0084676E-2,-9.51456E-3,1.9507514E-1,-3.608035E-1,-3.1536993E-2,1.2943295E-1,3.8649714E-1],"categories":[],"categories_nodes":[],"categories_segments":[],"categories_sizes":[],"default_left":[0,0,0,0,0,0,0,0,0,0,0,0,0,0,0,0,0,0,0,0,0,0,0,0,0,0,0,0,0,0,0],"id":39,"left_children":[1,3,5,7,9,11,13,15,17,19,21,23,25,27,29,-1,-1,-1,-1,-1,-1,-1,-1,-1,-1,-1,-1,-1,-1,-1,-1],"loss_changes":[1.098622E3,4.7550162E2,6.07936E2,5.0968307E2,3.4847357E2,5.660773E2,4.6731293E2,3.2032355E2,4.67062E2,3.184934E2,3.3969263E2,4.211734E2,5.6824097E2,5.1819794E1,3.9145374E2,0E0,0E0,0E0,0E0,0E0,0E0,0E0,0E0,0E0,0E0,0E0,0E0,0E0,0E0,0E0,0E0],"parents":[2147483647,0,0,1,1,2,2,3,3,4,4,5,5,6,6,7,7,8,8,9,9,10,10,11,11,12,12,13,13,14,14],"right_children":[2,4,6,8,10,12,14,16,18,20,22,24,26,28,30,-1,-1,-1,-1,-1,-1,-1,-1,-1,-1,-1,-1,-1,-1,-1,-1],"split_conditions":[9.956E1,1.3E-1,2.352E2,5.548031E2,2.97E1,1.34E-1,-1.18E1,3.3E0,2.5E0,-4.2E0,1.146E2,1.057E0,4E0,1.093E2,1.079E0,-5.859952E-3,-2.5108463E-1,1.6845663E-1,1.1326232E-3,2.0085402E-1,-7.36598E-3,-9.2513174E-2,-2.6577985E-2,3.4190413E-1,7.0084676E-2,-9.51456E-3,1.9507514E-1,-3.608035E-1,-3.1536993E-2,1.2943295E-1,3.8649714E-1],"split_indices":[26,17,28,20,31,6,23,21,9,23,0,29,7,0,29,0,0,0,0,0,0,0,0,0,0,0,0,0,0,0,0],"split_type":[0,0,0,0,0,0,0,0,0,0,0,0,0,0,0,0,0,0,0,0,0,0,0,0,0,0,0,0,0,0,0],"sum_hessian":[2.295E3,1.251E3,1.044E3,2.25E2,1.026E3,9.67E2,7.7E1,5.9E1,1.66E2,2.43E2,7.83E2,3.4E2,6.27E2,5E0,7.2E1,4E1,1.9E1,8E1,8.6E1,1.9E1,2.24E2,3.82E2,4.01E2,1.4E1,3.26E2,5.92E2,3.5E1,3E0,2E0,5.1E1,2.1E1],"tree_param":{"num_deleted":"0","num_feature":"34","num_nodes":"31","size_leaf_vector":"1"}},{"base_weights":[1.2983958E-1,-2.3968905E-1,8.6730504E-1,6.740685E-1,-7.513728E-1,-6.637058E0,9.53892E-1,-3.4411998E0,9.14408E-1,-1.0867289E0,8.7292814E-1,1.7698346E-1,-8.351607E0,1.0615076E1,8.895842E-1,-5.7675153E-2,-3.747892E-1,6.829846E-2,-4.1697085E-2,-1.1405974E-1,-3.668024E-2,-2.0330252E-2,1.0421906E-1,-5.320835E-1,-4.9380623E-2,6.547478E-1,1.7388916E-2,-9.687826E-3,6.817641E-2],"categories":[],"categories_nodes":[],"categories_segments":[],"categories_sizes":[],"default_left":[0,0,0,0,0,0,0,0,0,0,0,0,0,0,0,0,0,0,0,0,0,0,0,0,0,0,0,0,0],"id":40,"left_children":[1,3,5,7,9,11,13,15,17,19,21,-1,23,25,27,-1,-1,-1,-1,-1,-1,-1,-1,-1,-1,-1,-1,-1,-1],"loss_changes":[6.351669E2,7.266193E2,5.118598E2,5.5504297E2,5.4348883E2,1.8659845E2,4.6895026E2,2.7889905E2,4.1798822E2,3.4672882E2,2.659136E2,0E0,1.2440228E2,1.2275415E2,3.9356134E2,0E0,0E0,0E0,0E0,0E0,0E0,0E0,0E0,0E0,0E0,0E0,0E0,0E0,0E0],"parents":[2147483647,0,0,1,1,2,2,3,3,4,4,5,5,6,6,7,7,8,8,9,9,10,10,12,12,13,13,14,14],"right_children":[2,4,6,8,10,12,14,16,18,20,22,-1,24,26,28,-1,-1,-1,-1,-1,-1,-1,-1,-1,-1,-1,-1,-1,-1],"split_conditions":[1.103E0,3.12E1,1.084E2,2.193E2,1.0155E2,1.34E-1,2.262E2,2.347E2,5.92E-1,2.246E2,1.143E2,1.7698346E-1,3E0,1.149E2,9.834E1,-5.7675153E-2,-3.747892E-1,6.829846E-2,-4.1697085E-2,-1.1405974E-1,-3.668024E-2,-2.0330252E-2,1.0421906E-1,-5.320835E-1,-4.9380623E-2,6.547478E-1,1.7388916E-2,-9.687826E-3,6.817641E-2],"split_indices":[29,31,12,27,3,6,27,28,5,27,11,0,9,1,3,0,0,0,0,0,0,0,0,0,0,0,0,0,0],"split_type":[0,0,0,0,0,0,0,0,0,0,0,0,0,0,0,0,0,0,0,0,0,0,0,0,0,0,0,0,0],"sum_hessian":[2.329E3,1.552E3,7.77E2,5.57E2,9.95E2,8E0,7.69E2,3E1,5.27E2,8.25E2,1.7E2,1E0,7E0,4E0,7.65E2,2E1,1E1,4.19E2,1.08E2,1.87E2,6.38E2,8.3E1,8.7E1,5E0,2E0,3E0,1E0,2.33E2,5.32E2],"tree_param":{"num_deleted":"0","num_feature":"34","num_nodes":"29","size_leaf_vector":"1"}},{"base_weights":[-1.114169E-1,-5.3382003E-1,4.8352766E-1,-9.989093E-1,4.4155568E-1,3.784096E-1,8.233157E0,-2.4415598E0,-7.487304E-1,1.904579E0,-2.963904E-1,-1.1757464E0,7.298871E-1,1.1608676E1,5.1059264E-1,-1.9805138E-1,6.0641434E-2,-1.479293E-1,-2.5364175E-2,3.739226E-1,6.1241437E-2,-3.9399575E-2,1.19624235E-1,5.927306E-2,-1.2888783E-1,-1.6008861E-2,6.3535534E-2,1.9307175E-1,7.4193615E-1,1.0686703E-1,-2.1521473E-2],"categories":[],"categories_nodes":[],"categories_segments":[],"categories_sizes":[],"default_left":[0,0,0,0,0,0,0,0,0,0,0,0,0,0,0,0,0,0,0,0,0,0,0,0,0,0,0,0,0,0,0],"id":41,"left_children":[1,3,5,7,9,11,13,15,17,19,21,23,25,27,29,-1,-1,-1,-1,-1,-1,-1,-1,-1,-1,-1,-1,-1,-1,-1,-1],"loss_changes":[5.900744E2,6.232844E2,7.91145E2,3.3382806E2,4.7992126E2,5.268978E2,3.329521E2,7.6552747E2,4.2214807E2,5.553775E2,3.9315393E2,5.923136E2,4.4677585E2,1.6791699E2,8.574003E0,0E0,0E0,0E0,0E0,0E0,0E0,0E0,0E0,0E0,0E0,0E0,0E0,0E0,0E0,0E0,0E0],"parents":[2147483647,0,0,1,1,2,2,3,3,4,4,5,5,6,6,7,7,8,8,9,9,10,10,11,11,12,12,13,13,14,14],"right_children":[2,4,6,8,10,12,14,16,18,20,22,24,26,28,30,-1,-1,-1,-1,-1,-1,-1,-1,-1,-1,-1,-1,-1,-1,-1,-1],"split_conditions":[9.991E1,1.102E0,2.374E2,1.118E2,3.62E1,2.244E2,2.5E0,4E0,5.52E-1,-4.3E0,5E0,2E0,2.269E2,3.3585828E2,1.184E2,-1.9805138E-1,6.0641434E-2,-1.479293E-1,-2.5364175E-2,3.739226E-1,6.1241437E-2,-3.9399575E-2,1.19624235E-1,5.927306E-2,-1.2888783E-1,-1.6008861E-2,6.3535534E-2,1.9307175E-1,7.4193615E-1,1.0686703E-1,-2.1521473E-2],"split_indices":[14,29,28,1,31,27,21,9,5,23,21,9,28,20,1,0,0,0,0,0,0,0,0,0,0,0,0,0,0,0,0],"split_type":[0,0,0,0,0,0,0,0,0,0,0,0,0,0,0,0,0,0,0,0,0,0,0,0,0,0,0,0,0,0,0],"sum_hessian":[2.346E3,1.372E3,9.74E2,9.29E2,4.43E2,9.62E2,1.2E1,1.36E2,7.93E2,1.48E2,2.95E2,1.77E2,7.85E2,8E0,4E0,9.6E1,4E1,7.7E1,7.16E2,1.5E1,1.33E2,2.5E2,4.5E1,6.6E1,1.11E2,2.67E2,5.18E2,3E0,5E0,1E0,3E0],"tree_param":{"num_deleted":"0","num_feature":"34","num_nodes":"31","size_leaf_vector":"1"}},{"base_weights":[1.4676571E-2,-1.1950134E0,2.3682001E-1,-8.759682E-1,-4.187242E0,8.036829E-1,-9.0748616E-2,-6.727063E-2,-2.3614616E0,-6.9593744E0,4.680552E-1,-2.7577314E-1,1.3134984E0,-2.1531818E0,1.1952614E-1,7.941277E-3,-4.8201472E-1,-1.5028875E-1,9.4681315E-2,-1.6674577E-1,-4.850924E-1,-1.7252903E-1,1.5142365E-1,-6.38788E-2,1.05193496E-1,8.0102235E-2,-4.6846036E-2,-5.17303E-2,-3.014202E-1,1.5223039E-3,2.7055773E-1],"categories":[],"categories_nodes":[],"categories_segments":[],"categories_sizes":[],"default_left":[0,0,0,0,0,0,0,0,0,0,0,0,0,0,0,0,0,0,0,0,0,0,0,0,0,0,0,0,0,0,0],"id":42,"left_children":[1,3,5,7,9,11,13,15,17,19,21,23,25,27,29,-1,-1,-1,-1,-1,-1,-1,-1,-1,-1,-1,-1,-1,-1,-1,-1],"loss_changes":[6.3393585E2,3.457362E2,3.7014615E2,3.9867767E2,4.549359E2,4.020983E2,5.4842584E2,4.6904666E2,3.2646008E2,1.863247E2,1.5091681E2,5.6291205E2,3.2357874E2,5.0092645E2,5.4097797E2,0E0,0E0,0E0,0E0,0E0,0E0,0E0,0E0,0E0,0E0,0E0,0E0,0E0,0E0,0E0,0E0],"parents":[2147483647,0,0,1,1,2,2,3,3,4,4,5,5,6,6,7,7,8,8,9,9,10,10,11,11,12,12,13,13,14,14],"right_children":[2,4,6,8,10,12,14,16,18,20,22,24,26,28,30,-1,-1,-1,-1,-1,-1,-1,-1,-1,-1,-1,-1,-1,-1,-1,-1],"split_conditions":[9.8175E1,9.8065E1,1.36E-1,4.8E-1,1.159E2,6.1187415E2,2.243E2,2.347E2,1.39E-1,3.96E1,3.0472913E2,1.00345E2,1.1E1,3E0,1.0224E2,7.941277E-3,-4.8201472E-1,-1.5028875E-1,9.4681315E-2,-1.6674577E-1,-4.850924E-1,-1.7252903E-1,1.5142365E-1,-6.38788E-2,1.05193496E-1,8.0102235E-2,-4.6846036E-2,-5.17303E-2,-3.014202E-1,1.5223039E-3,2.7055773E-1],"split_indices":[26,26,6,24,11,20,28,28,17,31,20,26,23,18,26,0,0,0,0,0,0,0,0,0,0,0,0,0,0,0,0],"split_type":[0,0,0,0,0,0,0,0,0,0,0,0,0,0,0,0,0,0,0,0,0,0,0,0,0,0,0,0,0,0,0],"sum_hessian":[2.357E3,3.65E2,1.992E3,3.31E2,3.4E1,7.29E2,1.263E3,2.15E2,1.16E2,2.1E1,1.3E1,2.34E2,4.95E2,1.16E2,1.147E3,2.11E2,4E0,1.01E2,1.5E1,1E1,1.1E1,5E0,8E0,1.65E2,6.9E1,4.39E2,5.6E1,9.1E1,2.5E1,1.129E3,1.8E1],"tree_param":{"num_deleted":"0","num_feature":"34","num_nodes":"31","size_leaf_vector":"1"}},{"base_weights":[-1.2932184E-1,-5.3870153E-1,3.805869E-1,-1.1736076E0,-9.896093E-2,1.7189772E-1,3.667197E0,-1.4784001E0,3.8589149E0,-3.4905046E-1,2.560184E0,-6.5834564E-1,8.796809E-1,2.5884924E0,1.2189229E0,-1.1364298E-1,-9.0457074E-4,4.0195104E-1,7.427888E-2,-7.967198E-3,-1.306142E-1,-3.05425E-3,2.281117E-1,-4.9930055E-2,1.9512555E-1,5.109197E-2,-1.9066103E-1,-1.6427122E-1,1.7053837E-1],"categories":[],"categories_nodes":[],"categories_segments":[],"categories_sizes":[],"default_left":[0,0,0,0,0,0,0,0,0,0,0,0,0,0,0,0,0,0,0,0,0,0,0,0,0,0,0,0,0],"id":43,"left_children":[1,3,5,7,9,11,13,15,17,19,21,23,25,27,-1,-1,-1,-1,-1,-1,-1,-1,-1,-1,-1,-1,-1,-1,-1],"loss_changes":[4.949337E2,3.6702393E2,7.236588E2,8.3092975E2,5.182826E2,5.846856E2,1.3444001E3,5.8931836E2,2.9560223E2,3.05281E2,3.5188873E2,7.146472E2,3.6214844E2,3.0583423E2,0E0,0E0,0E0,0E0,0E0,0E0,0E0,0E0,0E0,0E0,0E0,0E0,0E0,0E0,0E0],"parents":[2147483647,0,0,1,1,2,2,3,3,4,4,5,5,6,6,7,7,8,8,9,9,10,10,11,11,12,12,13,13],"right_children":[2,4,6,8,10,12,14,16,18,20,22,24,26,28,-1,-1,-1,-1,-1,-1,-1,-1,-1,-1,-1,-1,-1,-1,-1],"split_conditions":[2.288E2,3E0,4E0,1.0194E2,5.72E-1,2.265E2,6.06E-1,1.162E2,3.63E1,1.128E0,2.255E2,1.196E2,2.440884E3,1.086E2,1.2189229E0,-1.1364298E-1,-9.0457074E-4,4.0195104E-1,7.427888E-2,-7.967198E-3,-1.306142E-1,-3.05425E-3,2.281117E-1,-4.9930055E-2,1.9512555E-1,5.109197E-2,-1.9066103E-1,-1.6427122E-1,1.7053837E-1],"split_indices":[28,21,7,14,4,27,16,0,30,29,28,1,20,11,0,0,0,0,0,0,0,0,0,0,0,0,0,0,0],"split_type":[0,0,0,0,0,0,0,0,0,0,0,0,0,0,0,0,0,0,0,0,0,0,0,0,0,0,0,0,0],"sum_hessian":[2.369E3,1.314E3,1.055E3,5.37E2,7.77E2,9.93E2,6.2E1,5.07E2,3E1,7.11E2,6.6E1,4.57E2,5.36E2,6E1,2E0,3.28E2,1.79E2,1E1,2E1,6.57E2,5.4E1,2.9E1,3.7E1,4.26E2,3.1E1,5.21E2,1.5E1,7E0,5.3E1],"tree_param":{"num_deleted":"0","num_feature":"34","num_nodes":"29","size_leaf_vector":"1"}},{"base_weights":[2.9183183E-2,-2.6920187E-1,1.1101007E0,-1.5078398E0,2.5654186E-2,1.4150587E0,-1.668922E0,-1.0733908E0,-4.837123E0,-2.9819766E-1,1.335441E0,2.3742852E0,3.5602298E-1,-3.2485359E0,3.0767894E0,-2.001245E-1,-3.3087276E-2,-3.079553E-1,-1.2763214E-2,-7.5453594E-3,-1.4078382E-1,-1.7092183E-1,8.307026E-2,1.340147E-1,-2.0782326E-1,-2.339162E-1,3.774979E-2,-2.2031717E-1,4.8588563E-2,-5.086441E-3,5.1269436E-1],"categories":[],"categories_nodes":[],"categories_segments":[],"categories_sizes":[],"default_left":[0,0,0,0,0,0,0,0,0,0,0,0,0,0,0,0,0,0,0,0,0,0,0,0,0,0,0,0,0,0,0],"id":44,"left_children":[1,3,5,7,9,11,13,15,17,19,21,23,25,27,29,-1,-1,-1,-1,-1,-1,-1,-1,-1,-1,-1,-1,-1,-1,-1,-1],"loss_changes":[7.469549E2,6.629128E2,4.2695172E2,4.9960272E2,6.226657E2,4.583213E2,3.8481464E2,3.7113388E2,2.4071344E2,4.3600745E2,4.566112E2,4.8477698E2,4.3738263E2,1.8996143E2,2.9760608E2,0E0,0E0,0E0,0E0,0E0,0E0,0E0,0E0,0E0,0E0,0E0,0E0,0E0,0E0,0E0,0E0],"parents":[2147483647,0,0,1,1,2,2,3,3,4,4,5,5,6,6,7,7,8,8,9,9,10,10,11,11,12,12,13,13,14,14],"right_children":[2,4,6,8,10,12,14,16,18,20,22,24,26,28,30,-1,-1,-1,-1,-1,-1,-1,-1,-1,-1,-1,-1,-1,-1,-1,-1],"split_conditions":[1.00515E2,2.246E2,1.56E-1,1.0024E2,2.304E2,2.5E0,2.292E2,9.708E1,2.345E2,6.02E1,-1.27E1,5.91E1,1.105E2,1.145E2,1.0155E2,-2.001245E-1,-3.3087276E-2,-3.079553E-1,-1.2763214E-2,-7.5453594E-3,-1.4078382E-1,-1.7092183E-1,8.307026E-2,1.340147E-1,-2.0782326E-1,-2.339162E-1,3.774979E-2,-2.2031717E-1,4.8588563E-2,-5.086441E-3,5.1269436E-1],"split_indices":[26,27,6,26,28,9,27,3,28,30,23,31,0,11,14,0,0,0,0,0,0,0,0,0,0,0,0,0,0,0,0],"split_type":[0,0,0,0,0,0,0,0,0,0,0,0,0,0,0,0,0,0,0,0,0,0,0,0,0,0,0,0,0,0,0],"sum_hessian":[2.314E3,1.814E3,5E2,3.48E2,1.466E3,4.51E2,4.9E1,3.09E2,3.9E1,1.176E3,2.9E2,2.36E2,2.15E2,3.7E1,1.2E1,3.7E1,2.72E2,3E1,9E0,1.112E3,6.4E1,1.8E1,2.72E2,2.26E2,1E1,1.5E1,2E2,2.9E1,8E0,9E0,3E0],"tree_param":{"num_deleted":"0","num_feature":"34","num_nodes":"31","size_leaf_vector":"1"}},{"base_weights":[-1.16770335E-1,-1.4538972E0,7.9616E-2,-6.5115447E0,-1.1092005E0,-2.1399677E-2,2.5673945E0,-8.055843E0,1.2935352E0,-2.3220742E0,1.0658212E0,-2.47034E0,5.8105927E-2,-2.9531404E-1,2.9742427E0,-1.15092926E-1,-4.8910078E-1,-7.524388E-2,2.4221936E-1,-1.2808454E-1,2.0171504E-1,-8.7949226E-4,1.6165803E-1,-1.7651542E-1,1.6972622E-1,-2.2120357E-3,1.4155732E-1,3.3832508E-1,9.738118E-2],"categories":[],"categories_nodes":[],"categories_segments":[],"categories_sizes":[],"default_left":[0,0,0,0,0,0,0,0,0,0,0,0,0,0,0,0,0,0,0,0,0,0,0,0,0,0,0,0,0],"id":45,"left_children":[1,3,5,7,9,11,13,15,17,19,21,23,25,-1,27,-1,-1,-1,-1,-1,-1,-1,-1,-1,-1,-1,-1,-1,-1],"loss_changes":[6.172103E2,5.1752716E2,5.1522943E2,2.394347E2,7.490365E2,3.839061E2,2.9336664E2,1.3640112E2,4.7037212E1,2.8753778E2,2.3956508E2,3.9741095E2,5.4220496E2,0E0,2.865982E2,0E0,0E0,0E0,0E0,0E0,0E0,0E0,0E0,0E0,0E0,0E0,0E0,0E0,0E0],"parents":[2147483647,0,0,1,1,2,2,3,3,4,4,5,5,6,6,7,7,8,8,9,9,10,10,11,11,12,12,14,14],"right_children":[2,4,6,8,10,12,14,16,18,20,22,24,26,-1,28,-1,-1,-1,-1,-1,-1,-1,-1,-1,-1,-1,-1,-1,-1],"split_conditions":[2.241E2,4.63E-1,1.58E-1,1.48E-1,3.3E0,2.193E2,9.688E1,-6.3E0,1.7E0,9.4E0,1.124E2,1E0,2.357E2,-2.9531404E-1,1.059E0,-1.15092926E-1,-4.8910078E-1,-7.524388E-2,2.4221936E-1,-1.2808454E-1,2.0171504E-1,-8.7949226E-4,1.6165803E-1,-1.7651542E-1,1.6972622E-1,-2.2120357E-3,1.4155732E-1,3.3832508E-1,9.738118E-2],"split_indices":[28,22,17,6,9,27,3,13,21,2,12,8,28,0,29,0,0,0,0,0,0,0,0,0,0,0,0,0,0],"split_type":[0,0,0,0,0,0,0,0,0,0,0,0,0,0,0,0,0,0,0,0,0,0,0,0,0,0,0,0,0],"sum_hessian":[2.349E3,3E2,2.049E3,1.8E1,2.82E2,1.97E3,7.9E1,1.5E1,3E0,1.81E2,1.01E2,6.1E1,1.909E3,3E0,7.6E1,4E0,1.1E1,2E0,1E0,1.75E2,6E0,6.8E1,3.3E1,5.2E1,9E0,1.842E3,6.7E1,1.5E1,6.1E1],"tree_param":{"num_deleted":"0","num_feature":"34","num_nodes":"29","size_leaf_vector":"1"}},{"base_weights":[-6.366142E-2,-6.539484E-1,3.6201066E-1,8.728453E-1,-1.0129385E0,1.868255E-1,2.3717566E0,1.2638484E0,-3.7470474E0,-3.8701615E0,-8.61822E-1,-2.1993184E-2,1.6701145E0,6.2236357E0,1.2244457E0,-1.03182554E-1,8.654993E-2,-2.7614912E-1,1.2587595E-1,-8.950492E-2,-3.802636E-1,-4.9154155E-2,1.6335781E-1,-1.7947732E-1,3.5174151E-3,2.0897059E-2,1.4121872E-1,-5.675691E-2,4.0600434E-1,3.072679E-1,-1.3137937E-2],"categories":[],"categories_nodes":[],"categories_segments":[],"categories_sizes":[],"default_left":[0,0,0,0,0,0,0,0,0,0,0,0,0,0,0,0,0,0,0,0,0,0,0,0,0,0,0,0,0,0,0],"id":46,"left_children":[1,3,5,7,9,11,13,15,17,19,21,23,25,27,29,-1,-1,-1,-1,-1,-1,-1,-1,-1,-1,-1,-1,-1,-1,-1,-1],"loss_changes":[5.937334E2,5.4350696E2,4.8295953E2,3.4614386E2,3.4294684E2,3.9154614E2,4.7850287E2,2.7559955E2,1.8078613E2,2.9715643E2,3.85234E2,3.655939E2,2.2429163E2,3.581062E2,6.309974E2,0E0,0E0,0E0,0E0,0E0,0E0,0E0,0E0,0E0,0E0,0E0,0E0,0E0,0E0,0E0,0E0],"parents":[2147483647,0,0,1,1,2,2,3,3,4,4,5,5,6,6,7,7,8,8,9,9,10,10,11,11,12,12,13,13,14,14],"right_children":[2,4,6,8,10,12,14,16,18,20,22,24,26,28,30,-1,-1,-1,-1,-1,-1,-1,-1,-1,-1,-1,-1,-1,-1,-1,-1],"split_conditions":[9.9E1,2.68E1,2.341E2,9.9905E1,1.076E2,1.01515E2,2.2E0,1.83E-1,1.4495574E3,2.287E2,1.00405E2,1.25E-1,3.65E1,2.343E2,5.54E-1,-1.03182554E-1,8.654993E-2,-2.7614912E-1,1.2587595E-1,-8.950492E-2,-3.802636E-1,-4.9154155E-2,1.6335781E-1,-1.7947732E-1,3.5174151E-3,2.0897059E-2,1.4121872E-1,-5.675691E-2,4.0600434E-1,3.072679E-1,-1.3137937E-2],"split_indices":[3,31,27,26,0,26,2,22,20,28,26,6,30,27,15,0,0,0,0,0,0,0,0,0,0,0,0,0,0,0,0],"split_type":[0,0,0,0,0,0,0,0,0,0,0,0,0,0,0,0,0,0,0,0,0,0,0,0,0,0,0,0,0,0,0],"sum_hessian":[2.361E3,9.89E2,1.372E3,1.88E2,8.01E2,1.263E3,1.09E2,1.74E2,1.4E1,3.9E1,7.62E2,1.108E3,1.55E2,2.4E1,8.5E1,2.1E1,1.53E2,1.1E1,3E0,2.6E1,1.3E1,7.41E2,2.1E1,2.7E1,1.081E3,7.5E1,8E1,5E0,1.9E1,1.9E1,6.6E1],"tree_param":{"num_deleted":"0","num_feature":"34","num_nodes":"31","size_leaf_vector":"1"}},{"base_weights":[-1.6656352E-2,-2.0442712E0,8.925089E-2,-2.4788136E0,4.1319027E0,-5.4260044E0,1.1915759E-1,-3.5847745E0,1.7687733E-1,3.4139004E-1,-1.3185972E-1,1.7577516E-1,-6.5584598E0,-4.3954067E0,1.561585E-1,-6.983973E-2,-2.514459E-1,-8.789349E-2,3.8071027E-1,-5.005121E-1,-2.0063806E-1,-1.9079514E-2,-4.1834125E-1,2.9413909E-2,-8.606409E-3],"categories":[],"categories_nodes":[],"categories_segments":[],"categories_sizes":[],"default_left":[0,0,0,0,0,0,0,0,0,0,0,0,0,0,0,0,0,0,0,0,0,0,0,0,0],"id":47,"left_children":[1,3,5,7,9,11,13,15,17,-1,-1,-1,19,21,23,-1,-1,-1,-1,-1,-1,-1,-1,-1,-1],"loss_changes":[5.0181302E2,3.2156415E2,3.669852E2,3.2077686E2,1.6399658E2,1.4456659E2,3.6985144E2,2.3627686E2,4.882333E2,0E0,0E0,0E0,5.6490448E1,2.837371E2,3.1119833E2,0E0,0E0,0E0,0E0,0E0,0E0,0E0,0E0,0E0,0E0],"parents":[2147483647,0,0,1,1,2,2,3,3,4,4,5,5,6,6,7,7,8,8,12,12,13,13,14,14],"right_children":[2,4,6,8,10,12,14,16,18,-1,-1,-1,20,22,24,-1,-1,-1,-1,-1,-1,-1,-1,-1,-1],"split_conditions":[9.7375E1,1.179E2,1.084E2,1.134E2,1.39E-1,1.34E-1,2.163E2,9.691E1,1.128E2,3.4139004E-1,-1.3185972E-1,1.7577516E-1,3.3E0,1.076E2,3.48E1,-6.983973E-2,-2.514459E-1,-8.789349E-2,3.8071027E-1,-5.005121E-1,-2.0063806E-1,-1.9079514E-2,-4.1834125E-1,2.9413909E-2,-8.606409E-3],"split_indices":[26,0,12,12,17,6,27,26,1,0,0,0,21,11,31,0,0,0,0,0,0,0,0,0,0],"split_type":[0,0,0,0,0,0,0,0,0,0,0,0,0,0,0,0,0,0,0,0,0,0,0,0,0],"sum_hessian":[2.335E3,1.15E2,2.22E3,1.08E2,7E0,1.1E1,2.209E3,7.6E1,3.2E1,5E0,2E0,1E0,1E1,1.7E1,2.192E3,3.1E1,4.5E1,2.6E1,6E0,3E0,7E0,9E0,8E0,9.46E2,1.246E3],"tree_param":{"num_deleted":"0","num_feature":"34","num_nodes":"25","size_leaf_vector":"1"}},{"base_weights":[6.7714356E-2,-1.667875E-2,2.9497359E0,-9.3977284E-1,1.6263588E-1,2.0938742E0,7.1943035E0,-1.6791027E0,3.290814E-1,-7.854217E-1,3.5109645E-1,2.7757475E0,-3.270596E0,-9.460564E-2,8.292156E0,-1.23447314E-1,1.3153796E-2,1.4846782E-1,-2.7290603E-2,-8.116624E-2,5.3618915E-2,-1.6310379E-2,3.4533795E-2,2.8509113E-1,4.5912772E-2,-2.5901794E-1,2.0469952E-1,4.5771047E-1,1.6146483E-1],"categories":[],"categories_nodes":[],"categories_segments":[],"categories_sizes":[],"default_left":[0,0,0,0,0,0,0,0,0,0,0,0,0,0,0,0,0,0,0,0,0,0,0,0,0,0,0,0,0],"id":48,"left_children":[1,3,5,7,9,11,13,15,17,19,21,23,25,-1,27,-1,-1,-1,-1,-1,-1,-1,-1,-1,-1,-1,-1,-1,-1],"loss_changes":[5.813516E2,3.8466574E2,2.3196387E2,3.551551E2,3.4797046E2,2.2123596E2,1.25420654E2,3.6727954E2,3.25015E2,5.0454083E2,3.7374295E2,2.773926E2,1.1966064E2,0E0,1.4082886E1,0E0,0E0,0E0,0E0,0E0,0E0,0E0,0E0,0E0,0E0,0E0,0E0,0E0,0E0],"parents":[2147483647,0,0,1,1,2,2,3,3,4,4,5,5,6,6,7,7,8,8,9,9,10,10,11,11,12,12,14,14],"right_children":[2,4,6,8,10,12,14,16,18,20,22,24,26,-1,28,-1,-1,-1,-1,-1,-1,-1,-1,-1,-1,-1,-1,-1,-1],"split_conditions":[2.36E2,9.8175E1,5.8E-1,5.89E-1,1.118E2,2.283E2,2E0,5.58E-1,3E0,1.00135E2,2.266E2,1.184E2,1.0085E2,-9.460564E-2,1.39E0,-1.23447314E-1,1.3153796E-2,1.4846782E-1,-2.7290603E-2,-8.116624E-2,5.3618915E-2,-1.6310379E-2,3.4533795E-2,2.8509113E-1,4.5912772E-2,-2.5901794E-1,2.0469952E-1,4.5771047E-1,1.6146483E-1],"split_indices":[28,26,5,5,12,27,18,15,9,26,27,12,3,0,24,0,0,0,0,0,0,0,0,0,0,0,0,0,0],"split_type":[0,0,0,0,0,0,0,0,0,0,0,0,0,0,0,0,0,0,0,0,0,0,0,0,0,0,0,0,0],"sum_hessian":[2.389E3,2.322E3,6.7E1,3.77E2,1.945E3,5.7E1,1E1,2.38E2,1.39E2,3.22E2,1.623E3,5.1E1,6E0,1E0,9E0,1.69E2,6.9E1,3.4E1,1.05E2,2.22E2,1E2,5.42E2,1.081E3,1.9E1,3.2E1,5E0,1E0,7E0,2E0],"tree_param":{"num_deleted":"0","num_feature":"34","num_nodes":"29","size_leaf_vector":"1"}},{"base_weights":[-1.1781896E-1,-2.4898016E-1,1.550808E0,-3.4462502E0,-1.6539223E-1,-1.6860269E0,2.1609488E0,-4.8012185E0,5.774109E-1,-5.410346E0,-1.3334826E-1,2.6660335E0,-4.6588917E0,4.816686E0,1.5179102E0,3.693497E-1,-2.6393312E-1,-1.7212163E-1,2.262539E-1,3.4556504E-2,-4.0994525E-1,-3.5453446E-2,6.828771E-3,5.82797E-1,-1.487709E-2,1.081983E-1,-2.8564352E-1,3.525736E-1,6.246751E-2,1.5543158E-1,-1.0434348E-2],"categories":[],"categories_nodes":[],"categories_segments":[],"categories_sizes":[],"default_left":[0,0,0,0,0,0,0,0,0,0,0,0,0,0,0,0,0,0,0,0,0,0,0,0,0,0,0,0,0,0,0],"id":49,"left_children":[1,3,5,7,9,11,13,15,17,19,21,23,25,27,29,-1,-1,-1,-1,-1,-1,-1,-1,-1,-1,-1,-1,-1,-1,-1,-1],"loss_changes":[5.1951996E2,5.8738696E2,3.4530554E2,3.0808057E2,3.5978687E2,3.746872E2,2.4201898E2,2.8339935E2,2.5361232E2,2.2685275E2,3.3156644E2,3.231753E2,1.3461194E2,2.1441272E2,3.2748645E2,0E0,0E0,0E0,0E0,0E0,0E0,0E0,0E0,0E0,0E0,0E0,0E0,0E0,0E0,0E0,0E0],"parents":[2147483647,0,0,1,1,2,2,3,3,4,4,5,5,6,6,7,7,8,8,9,9,10,10,11,11,12,12,13,13,14,14],"right_children":[2,4,6,8,10,12,14,16,18,20,22,24,26,28,30,-1,-1,-1,-1,-1,-1,-1,-1,-1,-1,-1,-1,-1,-1,-1,-1],"split_conditions":[1.0207E2,1.094E2,1.0003E2,1.1157606E3,1.084E2,9.965E1,1.12E2,-9.9E0,3E0,5.25E-1,2.266E2,2.292E2,2.7335065E2,-3.08E0,3E0,3.693497E-1,-2.6393312E-1,-1.7212163E-1,2.262539E-1,3.4556504E-2,-4.0994525E-1,-3.5453446E-2,6.828771E-3,5.82797E-1,-1.487709E-2,1.081983E-1,-2.8564352E-1,3.525736E-1,6.246751E-2,1.5543158E-1,-1.0434348E-2],"split_indices":[14,1,26,20,12,26,1,13,21,4,27,28,20,24,9,0,0,0,0,0,0,0,0,0,0,0,0,0,0,0,0],"split_type":[0,0,0,0,0,0,0,0,0,0,0,0,0,0,0,0,0,0,0,0,0,0,0,0,0,0,0,0,0,0,0],"sum_hessian":[2.371E3,2.199E3,1.72E2,5.5E1,2.144E3,2.7E1,1.45E2,4.1E1,1.4E1,1.2E1,2.132E3,1.1E1,1.6E1,2.7E1,1.18E2,1E0,4E1,7E0,7E0,4E0,8E0,6.8E2,1.452E3,2E0,9E0,2E0,1.4E1,1.6E1,1.1E1,6.1E1,5.7E1],"tree_param":{"num_deleted":"0","num_feature":"34","num_nodes":"31","size_leaf_vector":"1"}},{"base_weights":[-5.2323937E-2,-2.1682009E-1,2.1031845E0,4.254168E-1,-4.756343E-1,3.8917792E-1,3.137735E0,1.1594383E0,-4.533107E-1,-1.8948294E-1,-1.7175878E0,-4.0531793E0,1.9544048E0,4.785172E-1,3.8869135E0,1.9988708E-1,2.958468E-2,-3.241136E-2,3.7179756E-1,-2.5500193E-2,5.342443E-2,-1.5396503E-1,-3.3272445E-2,-2.514289E-1,1.0874367E-1,-3.337161E-1,1.2373304E-1,1.9766623E-1,-4.496905E-2,-5.339974E-2,2.2222736E-1],"categories":[],"categories_nodes":[],"categories_segments":[],"categories_sizes":[],"default_left":[0,0,0,0,0,0,0,0,0,0,0,0,0,0,0,0,0,0,0,0,0,0,0,0,0,0,0,0,0,0,0],"id":50,"left_children":[1,3,5,7,9,11,13,15,17,19,21,23,25,27,29,-1,-1,-1,-1,-1,-1,-1,-1,-1,-1,-1,-1,-1,-1,-1,-1],"loss_changes":[8.351205E2,3.638918E2,2.9490765E2,4.0623358E2,5.5407776E2,4.5293256E2,2.0533185E2,5.503556E2,4.461536E2,5.1221356E2,4.1630243E2,1.1420865E2,2.3199567E2,1.1846588E2,2.2855176E2,0E0,0E0,0E0,0E0,0E0,0E0,0E0,0E0,0E0,0E0,0E0,0E0,0E0,0E0,0E0,0E0],"parents":[2147483647,0,0,1,1,2,2,3,3,4,4,5,5,6,6,7,7,8,8,9,9,10,10,11,11,12,12,13,13,14,14],"right_children":[2,4,6,8,10,12,14,16,18,20,22,24,26,28,30,-1,-1,-1,-1,-1,-1,-1,-1,-1,-1,-1,-1,-1,-1,-1,-1],"split_conditions":[1.0207E2,3.09E1,9.916E1,1.39E-1,4E0,-1.6E0,4.2627106E2,1.065E0,2.374E2,2.4E0,3E0,2.369E2,1.061E0,1.2E0,2.259E2,1.9988708E-1,2.958468E-2,-3.241136E-2,3.7179756E-1,-2.5500193E-2,5.342443E-2,-1.5396503E-1,-3.3272445E-2,-2.514289E-1,1.0874367E-1,-3.337161E-1,1.2373304E-1,1.9766623E-1,-4.496905E-2,-5.339974E-2,2.2222736E-1],"split_indices":[14,31,3,6,2,2,20,29,28,2,21,28,29,9,28,0,0,0,0,0,0,0,0,0,0,0,0,0,0,0,0],"split_type":[0,0,0,0,0,0,0,0,0,0,0,0,0,0,0,0,0,0,0,0,0,0,0,0,0,0,0,0,0,0,0],"sum_hessian":[2.353E3,2.187E3,1.66E2,6.28E2,1.559E3,6.3E1,1.03E2,3.42E2,2.86E2,1.268E3,2.91E2,1.6E1,4.7E1,2.3E1,8E1,5.6E1,2.86E2,2.8E2,6E0,1.011E3,2.57E2,1.26E2,