{"learner":{"attributes":{"best_iteration":"65","best_score":"14.185435535725343","scikit_learn":"{\"_estimator_type\": \"regressor\"}"},"feature_names":[],"feature_types":[],"gradient_booster":{"model":{"cats":{"enc":[],"feature_segments":[],"sorted_idx":[]},"gbtree_model_param":{"num_parallel_tree":"1","num_trees":"86"},"iteration_indptr":[0,1,2,3,4,5,6,7,8,9,10,11,12,13,14,15,16,17,18,19,20,21,22,23,24,25,26,27,28,29,30,31,32,33,34,35,36,37,38,39,40,41,42,43,44,45,46,47,48,49,50,51,52,53,54,55,56,57,58,59,60,61,62,63,64,65,66,67,68,69,70,71,72,73,74,75,76,77,78,79,80,81,82,83,84,85,86],"tree_info":[0,0,0,0,0,0,0,0,0,0,0,0,0,0,0,0,0,0,0,0,0,0,0,0,0,0,0,0,0,0,0,0,0,0,0,0,0,0,0,0,0,0,0,0,0,0,0,0,0,0,0,0,0,0,0,0,0,0,0,0,0,0,0,0,0,0,0,0,0,0,0,0,0,0,0,0,0,0,0,0,0,0,0,0,0,0],"trees":[{"base_weights":[-2.1895821E-1,-8.653013E0,2.1502259E0,-1.1241047E1,-3.0296664E0,7.968012E0,-1.9629413E-1,-9.507361E0,-1.4570249E1,-5.8570075E0,2.527652E0,6.88124E0,1.4542517E1,-1.7245679E0,4.976981E0,-4.8964396E-1,7.9184765E-1,-3.0208933E-1,-7.8711104E-1,2.5899425E-1,-3.4510633E-1,2.0687003E-1,-9.716715E-1,5.3680116E-1,2.5580397E-1,6.4392406E-1,1.33305E0,2.9445607E-2,-2.0567797E-1,2.8547725E-1,-2.2530913E-1],"categories":[],"categories_nodes":[],"categories_segments":[],"categories_sizes":[],"default_left":[0,0,0,0,0,0,0,0,0,0,0,0,0,0,0,0,0,0,0,0,0,0,0,0,0,0,0,0,0,0,0],"id":0,"left_children":[1,3,5,7,9,11,13,15,17,19,21,23,25,27,29,-1,-1,-1,-1,-1,-1,-1,-1,-1,-1,-1,-1,-1,-1,-1,-1],"loss_changes":[4.7015867E4,7.475504E3,2.5079469E4,1.8989141E3,2.5916438E3,3.6724805E3,1.0365681E4,1.8556055E3,1.0943105E3,1.293053E3,2.0601057E3,3.041037E3,1.1488984E3,5.595629E3,2.1028857E3,0E0,0E0,0E0,0E0,0E0,0E0,0E0,0E0,0E0,0E0,0E0,0E0,0E0,0E0,0E0,0E0],"parents":[2147483647,0,0,1,1,2,2,3,3,4,4,5,5,6,6,7,7,8,8,9,9,10,10,11,11,12,12,13,13,14,14],"right_children":[2,4,6,8,10,12,14,16,18,20,22,24,26,28,30,-1,-1,-1,-1,-1,-1,-1,-1,-1,-1,-1,-1,-1,-1,-1,-1],"split_conditions":[-3.3E0,1.151E2,-1.7E0,3.8E0,-6.4E0,5.5E0,6.22E-1,2.345E2,1.135E2,2.2676317E2,6.07E-1,-8.1E0,1.00585E2,2.4E0,6.3E0,-4.8964396E-1,7.9184765E-1,-3.0208933E-1,-7.8711104E-1,2.5899425E-1,-3.4510633E-1,2.0687003E-1,-9.716715E-1,5.3680116E-1,2.5580397E-1,6.4392406E-1,1.33305E0,2.9445607E-2,-2.0567797E-1,2.8547725E-1,-2.2530913E-1],"split_indices":[2,12,13,21,2,2,10,28,11,20,16,13,26,13,13,0,0,0,0,0,0,0,0,0,0,0,0,0,0,0,0],"split_type":[0,0,0,0,0,0,0,0,0,0,0,0,0,0,0,0,0,0,0,0,0,0,0,0,0,0,0,0,0,0,0],"sum_hessian":[2.351E3,5.15E2,1.836E3,3.52E2,1.63E2,5.27E2,1.309E3,2.34E2,1.18E2,1.08E2,5.5E1,4.54E2,7.3E1,1.011E3,2.98E2,2.32E2,2E0,1.5E1,1.03E2,9E0,9.9E1,5.2E1,3E0,1.41E2,3.13E2,6.6E1,7E0,5.14E2,4.97E2,2.77E2,2.1E1],"tree_param":{"num_deleted":"0","num_feature":"34","num_nodes":"31","size_leaf_vector":"1"}},{"base_weights":[2.3039077E-1,-7.884274E0,2.1517117E0,-4.0001235E0,-1.02903385E1,8.098712E0,-4.4440112E-1,5.9484863E-1,-5.477862E0,-8.692664E0,-1.4164376E1,6.6017995E0,1.2334168E1,-1.8301119E0,4.2035413E0,-2.1518226E-1,4.1699097E-1,-1.8239905E-1,-4.4469506E-1,-4.6248314E-1,-2.7320238E-3,-6.0518074E-1,-1.0237824E0,2.6652884E-1,6.560082E-1,6.360042E-1,-1.1195344E0,-2.8550818E-3,-1.757266E-1,2.6476255E-1,-1.7745231E-1],"categories":[],"categories_nodes":[],"categories_segments":[],"categories_sizes":[],"default_left":[0,0,0,0,0,0,0,0,0,0,0,0,0,0,0,0,0,0,0,0,0,0,0,0,0,0,0,0,0,0,0],"id":1,"left_children":[1,3,5,7,9,11,13,15,17,19,21,23,25,27,29,-1,-1,-1,-1,-1,-1,-1,-1,-1,-1,-1,-1,-1,-1,-1,-1],"loss_changes":[3.6484023E4,4.145629E3,2.9214344E4,1.177957E3,1.5851621E3,3.5641367E3,8.496541E3,1.6672551E3,7.8642896E2,9.5214453E2,7.7964746E2,3.4683086E3,2.281541E3,3.0340776E3,2.5832563E3,0E0,0E0,0E0,0E0,0E0,0E0,0E0,0E0,0E0,0E0,0E0,0E0,0E0,0E0,0E0,0E0],"parents":[2147483647,0,0,1,1,2,2,3,3,4,4,5,5,6,6,7,7,8,8,9,9,10,10,11,11,12,12,13,13,14,14],"right_children":[2,4,6,8,10,12,14,16,18,20,22,24,26,28,30,-1,-1,-1,-1,-1,-1,-1,-1,-1,-1,-1,-1,-1,-1,-1,-1],"split_conditions":[3.78E-1,5E-1,-1.6E0,-6.9E0,4.6E0,1.186E2,6.22E-1,-6.4E0,1.0661666E3,1.01565E2,2.281E2,1.178E2,1.6E-1,2.4E0,5E0,-2.1518226E-1,4.1699097E-1,-1.8239905E-1,-4.4469506E-1,-4.6248314E-1,-2.7320238E-3,-6.0518074E-1,-1.0237824E0,2.6652884E-1,6.560082E-1,6.360042E-1,-1.1195344E0,-2.8550818E-3,-1.757266E-1,2.6476255E-1,-1.7745231E-1],"split_indices":[10,13,13,13,13,12,10,2,20,26,27,0,6,13,13,0,0,0,0,0,0,0,0,0,0,0,0,0,0,0,0],"split_type":[0,0,0,0,0,0,0,0,0,0,0,0,0,0,0,0,0,0,0,0,0,0,0,0,0,0,0,0,0,0,0],"sum_hessian":[2.338E3,4.47E2,1.891E3,1.72E2,2.75E2,5.74E2,1.317E3,4.2E1,1.3E2,1.97E2,7.8E1,4.26E2,1.48E2,1.015E3,3.02E2,2.6E1,1.6E1,8.6E1,4.4E1,1.85E2,1.2E1,6.1E1,1.7E1,3.58E2,6.8E1,1.47E2,1E0,4.95E2,5.2E2,2.65E2,3.7E1],"tree_param":{"num_deleted":"0","num_feature":"34","num_nodes":"31","size_leaf_vector":"1"}},{"base_weights":[-1.9003043E-1,-5.9028487E0,2.789399E0,-2.1422453E0,-9.150032E0,9.086126E0,4.997445E-1,-4.9353676E0,2.0244782E0,-1.0783378E1,-6.280286E0,7.1082926E0,1.3092067E1,-9.120691E-1,4.12152E0,8.693134E-2,-3.031313E-1,3.4092456E-1,-3.7158992E-2,-5.5224484E-1,2.6953584E-1,9.6772775E-2,-3.6422813E-1,5.827482E-1,2.1023753E-1,7.253689E-1,3.3275536E-1,3.6504094E-2,-1.989225E-1,2.6089928E-1,-1.7872706E-1],"categories":[],"categories_nodes":[],"categories_segments":[],"categories_sizes":[],"default_left":[0,0,0,0,0,0,0,0,0,0,0,0,0,0,0,0,0,0,0,0,0,0,0,0,0,0,0,0,0,0,0],"id":2,"left_children":[1,3,5,7,9,11,13,15,17,19,21,23,25,27,29,-1,-1,-1,-1,-1,-1,-1,-1,-1,-1,-1,-1,-1,-1,-1,-1],"loss_changes":[3.9726312E4,9.749496E3,2.211164E4,4.3393896E3,1.9431211E3,3.1474844E3,5.761303E3,1.6882407E3,1.9952957E3,1.2100586E3,1.3177378E3,3.5945938E3,1.1242324E3,4.0866626E3,2.6852065E3,0E0,0E0,0E0,0E0,0E0,0E0,0E0,0E0,0E0,0E0,0E0,0E0,0E0,0E0,0E0,0E0],"parents":[2147483647,0,0,1,1,2,2,3,3,4,4,5,5,6,6,7,7,8,8,9,9,10,10,11,11,12,12,13,13,14,14],"right_children":[2,4,6,8,10,12,14,16,18,20,22,24,26,28,30,-1,-1,-1,-1,-1,-1,-1,-1,-1,-1,-1,-1,-1,-1,-1,-1],"split_conditions":[-5E-1,1.1E0,-2.3E0,1.123E2,-3.3E0,3.8E0,6.22E-1,3.4548804E2,1.071E0,2.358E2,2.268E2,-7.9E0,2.5E0,1.165E2,5E0,8.693134E-2,-3.031313E-1,3.4092456E-1,-3.7158992E-2,-5.5224484E-1,2.6953584E-1,9.6772775E-2,-3.6422813E-1,5.827482E-1,2.1023753E-1,7.253689E-1,3.3275536E-1,3.6504094E-2,-1.989225E-1,2.6089928E-1,-1.7872706E-1],"split_indices":[2,13,13,0,2,2,10,20,29,28,27,13,21,11,13,0,0,0,0,0,0,0,0,0,0,0,0,0,0,0,0],"split_type":[0,0,0,0,0,0,0,0,0,0,0,0,0,0,0,0,0,0,0,0,0,0,0,0,0,0,0,0,0,0,0],"sum_hessian":[2.332E3,7.99E2,1.533E3,3.71E2,4.28E2,4.08E2,1.125E3,2.22E2,1.49E2,2.71E2,1.57E2,2.75E2,1.33E2,8.1E2,3.15E2,3.2E1,1.9E2,5.4E1,9.5E1,2.67E2,4E0,1.7E1,1.4E2,1.06E2,1.69E2,1.08E2,2.5E1,5.28E2,2.82E2,2.76E2,3.9E1],"tree_param":{"num_deleted":"0","num_feature":"34","num_nodes":"31","size_leaf_vector":"1"}},{"base_weights":[2.3712328E-1,-5.7413173E0,4.321446E0,-8.6795435E0,-3.2471738E0,3.1035664E0,1.1991259E1,-1.1274395E1,-6.8025846E0,-4.3495564E0,7.017101E-1,2.877457E-1,4.478463E0,3.251973E-1,1.2363832E1,-7.6747745E-1,-4.9613777E-1,-2.8215715E-1,-5.3616774E-1,-1.5466811E-1,-4.5507404E-1,2.445318E-1,-4.1713562E-2,-6.768831E-3,5.238794E-1,2.0107566E-1,5.712965E-1,-2.5615892E-1,1.7645918E-1,5.4867816E-1,8.253522E-1],"categories":[],"categories_nodes":[],"categories_segments":[],"categories_sizes":[],"default_left":[0,0,0,0,0,0,0,0,0,0,0,0,0,0,0,0,0,0,0,0,0,0,0,0,0,0,0,0,0,0,0],"id":3,"left_children":[1,3,5,7,9,11,13,15,17,19,21,23,25,27,29,-1,-1,-1,-1,-1,-1,-1,-1,-1,-1,-1,-1,-1,-1,-1,-1],"loss_changes":[5.799286E4,7.0363516E3,1.3142807E4,2.0760312E3,2.2797656E3,4.7180234E3,8.348457E2,8.6118945E2,1.116875E3,2.4133057E3,7.44003E2,1.7303499E3,2.554088E3,1.4027628E2,8.960137E2,0E0,0E0,0E0,0E0,0E0,0E0,0E0,0E0,0E0,0E0,0E0,0E0,0E0,0E0,0E0,0E0],"parents":[2147483647,0,0,1,1,2,2,3,3,4,4,5,5,6,6,7,7,8,8,9,9,10,10,11,11,12,12,13,13,14,14],"right_children":[2,4,6,8,10,12,14,16,18,20,22,24,26,28,30,-1,-1,-1,-1,-1,-1,-1,-1,-1,-1,-1,-1,-1,-1,-1,-1],"split_conditions":[-1.4E0,-6.3E0,1.06E1,-1.06E1,5.92E-1,1.1E0,9.676E1,2.276E2,1.4371492E3,5.85E-1,1.33E-1,1.56E-1,2.35E2,2E0,6.7E0,-7.6747745E-1,-4.9613777E-1,-2.8215715E-1,-5.3616774E-1,-1.5466811E-1,-4.5507404E-1,2.445318E-1,-4.1713562E-2,-6.768831E-3,5.238794E-1,2.0107566E-1,5.712965E-1,-2.5615892E-1,1.7645918E-1,5.4867816E-1,8.253522E-1],"split_indices":[23,23,23,23,5,23,14,28,20,5,17,17,27,18,2,0,0,0,0,0,0,0,0,0,0,0,0,0,0,0,0],"split_type":[0,0,0,0,0,0,0,0,0,0,0,0,0,0,0,0,0,0,0,0,0,0,0,0,0,0,0,0,0,0,0],"sum_hessian":[2.373E3,9.63E2,1.41E3,4.41E2,5.22E2,1.218E3,1.92E2,1.83E2,2.58E2,4.08E2,1.14E2,4E2,8.18E2,6E0,1.86E2,4.3E1,1.4E2,2.01E2,5.7E1,3.24E2,8.4E1,3E1,8.4E1,3.85E2,1.5E1,7.69E2,4.9E1,2E0,4E0,1.42E2,4.4E1],"tree_param":{"num_deleted":"0","num_feature":"34","num_nodes":"31","size_leaf_vector":"1"}},{"base_weights":[-1.8941528E-1,-5.733409E0,2.439706E0,-1.1789515E0,-7.483619E0,8.248469E0,7.708128E-1,-4.107539E0,4.8624134E0,-6.0315146E0,-1.02329855E1,7.2117267E0,1.4977234E1,5.4103746E0,-3.8865174E-3,2.1354929E-1,-2.5941107E-1,2.9247895E-1,-4.5703265E-1,-3.8740295E-1,-1.771184E-1,-6.775519E-1,-4.1498515E-1,1.3227294E-1,4.424026E-1,-1.4593886E-1,7.918737E-1,1.9114159E-1,5.171269E-1,5.5347305E-2,-1.108129E-1],"categories":[],"categories_nodes":[],"categories_segments":[],"categories_sizes":[],"default_left":[0,0,0,0,0,0,0,0,0,0,0,0,0,0,0,0,0,0,0,0,0,0,0,0,0,0,0,0,0,0,0],"id":4,"left_children":[1,3,5,7,9,11,13,15,17,19,21,23,25,27,29,-1,-1,-1,-1,-1,-1,-1,-1,-1,-1,-1,-1,-1,-1,-1,-1],"loss_changes":[3.4573285E4,6.07325E3,1.5591621E4,3.7885105E3,2.1380703E3,2.396371E3,4.496447E3,1.3260105E3,1.0211029E3,1.5235547E3,1.0999141E3,2.315295E3,7.697842E2,1.3620356E3,2.639431E3,0E0,0E0,0E0,0E0,0E0,0E0,0E0,0E0,0E0,0E0,0E0,0E0,0E0,0E0,0E0,0E0],"parents":[2147483647,0,0,1,1,2,2,3,3,4,4,5,5,6,6,7,7,8,8,9,9,10,10,11,11,12,12,13,13,14,14],"right_children":[2,4,6,8,10,12,14,16,18,20,22,24,26,28,30,-1,-1,-1,-1,-1,-1,-1,-1,-1,-1,-1,-1,-1,-1,-1,-1],"split_conditions":[-1.3E0,4.51E-1,4.02E-1,1.123E2,3.8E0,6.3E0,1.108E2,3.3585828E2,1.01685E2,-5.1E0,6.2384503E2,1.156E2,9.7375E1,2.338E2,1.165E2,2.1354929E-1,-2.5941107E-1,2.9247895E-1,-4.5703265E-1,-3.8740295E-1,-1.771184E-1,-6.775519E-1,-4.1498515E-1,1.3227294E-1,4.424026E-1,-1.4593886E-1,7.918737E-1,1.9114159E-1,5.171269E-1,5.5347305E-2,-1.108129E-1],"split_indices":[2,22,22,0,21,2,1,20,26,2,20,12,26,27,11,0,0,0,0,0,0,0,0,0,0,0,0,0,0,0,0],"split_type":[0,0,0,0,0,0,0,0,0,0,0,0,0,0,0,0,0,0,0,0,0,0,0,0,0,0,0,0,0,0,0],"sum_hessian":[2.37E3,7.62E2,1.608E3,2.12E2,5.5E2,3.58E2,1.25E3,1.43E2,6.9E1,3.62E2,1.88E2,3.12E2,4.6E1,1.78E2,1.072E3,1.6E1,1.27E2,6.5E1,4E0,2.13E2,1.49E2,6.7E1,1.21E2,8.3E1,2.29E2,2E0,4.4E1,1.36E2,4.2E1,7.14E2,3.58E2],"tree_param":{"num_deleted":"0","num_feature":"34","num_nodes":"31","size_leaf_vector":"1"}},{"base_weights":[2.646916E-1,-4.4501667E0,4.683213E0,-7.882146E0,-2.332671E0,3.2539299E0,1.1662812E1,-1.0024761E1,-5.9886317E0,5.7011026E-1,-3.000443E0,1.2514833E0,4.524744E0,1.04625E1,1.5062548E1,-7.828918E-1,-4.556994E-1,-1.9654791E-1,-4.9261108E-1,1.2412459E-1,-3.3791402E-1,-3.6525807E-1,-1.1578331E-1,-5.6348056E-2,1.2829441E-1,1.9866137E-1,4.3450975E-1,-2.7167207E-2,5.4898643E-1,1.1370298E0,5.8176786E-1],"categories":[],"categories_nodes":[],"categories_segments":[],"categories_sizes":[],"default_left":[0,0,0,0,0,0,0,0,0,0,0,0,0,0,0,0,0,0,0,0,0,0,0,0,0,0,0,0,0,0,0],"id":5,"left_children":[1,3,5,7,9,11,13,15,17,19,21,23,25,27,29,-1,-1,-1,-1,-1,-1,-1,-1,-1,-1,-1,-1,-1,-1,-1,-1],"loss_changes":[4.9477676E4,8.331629E3,1.2192412E4,1.7169648E3,1.3818486E3,2.5874268E3,6.912012E2,9.0390625E2,1.8295234E3,1.8947443E3,1.6898438E3,1.2440085E3,1.3967002E3,8.9969336E2,1.1037402E3,0E0,0E0,0E0,0E0,0E0,0E0,0E0,0E0,0E0,0E0,0E0,0E0,0E0,0E0,0E0,0E0],"parents":[2147483647,0,0,1,1,2,2,3,3,4,4,5,5,6,6,7,7,8,8,9,9,10,10,11,11,12,12,13,13,14,14],"right_children":[2,4,6,8,10,12,14,16,18,20,22,24,26,28,30,-1,-1,-1,-1,-1,-1,-1,-1,-1,-1,-1,-1,-1,-1,-1,-1],"split_conditions":[-2E-1,-6.3E0,1.06E1,-1.04E1,2E0,2.5E0,6.7E0,5.75E-1,1.2059141E3,1.149E2,2E0,3.62E1,5.73E-1,2.257E2,2E0,-7.828918E-1,-4.556994E-1,-1.9654791E-1,-4.9261108E-1,1.2412459E-1,-3.3791402E-1,-3.6525807E-1,-1.1578331E-1,-5.6348056E-2,1.2829441E-1,1.9866137E-1,4.3450975E-1,-2.7167207E-2,5.4898643E-1,1.1370298E0,5.8176786E-1],"split_indices":[23,23,23,23,18,23,2,16,20,12,7,30,4,28,7,0,0,0,0,0,0,0,0,0,0,0,0,0,0,0,0],"split_type":[0,0,0,0,0,0,0,0,0,0,0,0,0,0,0,0,0,0,0,0,0,0,0,0,0,0,0,0,0,0,0],"sum_hessian":[2.373E3,1.148E3,1.225E3,4.37E2,7.11E2,1.018E3,2.07E2,2.03E2,2.34E2,1.33E2,5.78E2,3.96E2,6.22E2,1.56E2,5.1E1,2.6E1,1.77E2,1.54E2,8E1,1.06E2,2.7E1,7.8E1,5E2,1.41E2,2.55E2,5.51E2,7.1E1,7E0,1.49E2,1.4E1,3.7E1],"tree_param":{"num_deleted":"0","num_feature":"34","num_nodes":"31","size_leaf_vector":"1"}},{"base_weights":[1.0414248E-1,-5.130953E0,3.5990481E0,-9.576149E0,-3.790365E0,2.3649623E0,9.566761E0,-7.5241327E0,-1.2079468E1,-4.2207092E-1,-4.567826E0,3.0004877E-1,3.4710631E0,6.9732122E0,1.2255069E1,-5.83498E-1,-2.6151857E-1,-9.880342E-1,-5.433606E-1,-1.012527E-1,3.1214863E-1,-3.0998847E-1,-1.6152166E-1,9.78416E-2,-1.3659386E-1,1.5388124E-1,4.356639E-1,1.797174E-1,5.7796514E-1,1.6643982E-1,6.570806E-1],"categories":[],"categories_nodes":[],"categories_segments":[],"categories_sizes":[],"default_left":[0,0,0,0,0,0,0,0,0,0,0,0,0,0,0,0,0,0,0,0,0,0,0,0,0,0,0,0,0,0,0],"id":6,"left_children":[1,3,5,7,9,11,13,15,17,19,21,23,25,27,29,-1,-1,-1,-1,-1,-1,-1,-1,-1,-1,-1,-1,-1,-1,-1,-1],"loss_changes":[4.3325484E4,5.613004E3,1.0435205E4,1.034084E3,1.9097344E3,2.6895132E3,1.6088008E3,1.1086348E3,6.884824E2,1.4870276E3,1.2742236E3,2.0749224E3,1.5551123E3,1.9109194E3,8.900508E2,0E0,0E0,0E0,0E0,0E0,0E0,0E0,0E0,0E0,0E0,0E0,0E0,0E0,0E0,0E0,0E0],"parents":[2147483647,0,0,1,1,2,2,3,3,4,4,5,5,6,6,7,7,8,8,9,9,10,10,11,11,12,12,13,13,14,14],"right_children":[2,4,6,8,10,12,14,16,18,20,22,24,26,28,30,-1,-1,-1,-1,-1,-1,-1,-1,-1,-1,-1,-1,-1,-1,-1,-1],"split_conditions":[-1.4E0,-9.7E0,9.6E0,9.9E-1,2E0,1.2E0,1.21E1,2.288E2,1.062E0,1.154E2,3.82E1,2.284E2,1.0194E2,1.181E2,-4.25E0,-5.83498E-1,-2.6151857E-1,-9.880342E-1,-5.433606E-1,-1.012527E-1,3.1214863E-1,-3.0998847E-1,-1.6152166E-1,9.78416E-2,-1.3659386E-1,1.5388124E-1,4.356639E-1,1.797174E-1,5.7796514E-1,1.6643982E-1,6.570806E-1],"split_indices":[23,23,23,24,18,23,23,28,29,0,31,28,3,12,24,0,0,0,0,0,0,0,0,0,0,0,0,0,0,0,0],"split_type":[0,0,0,0,0,0,0,0,0,0,0,0,0,0,0,0,0,0,0,0,0,0,0,0,0,0,0,0,0,0,0],"sum_hessian":[2.366E3,9.47E2,1.419E3,2.18E2,7.29E2,1.177E3,2.42E2,1.22E2,9.6E1,1.37E2,5.92E2,4.11E2,7.66E2,1.25E2,1.17E2,4.2E1,8E1,1.1E1,8.5E1,1.11E2,2.6E1,2.65E2,3.27E2,2.66E2,1.45E2,7.14E2,5.2E1,7.3E1,5.2E1,1.1E1,1.06E2],"tree_param":{"num_deleted":"0","num_feature":"34","num_nodes":"31","size_leaf_vector":"1"}},{"base_weights":[-7.942734E-3,-3.9468534E0,3.90445E0,-7.056019E0,-2.1020145E0,2.7298946E0,9.658461E0,-6.258243E0,-1.1897019E1,-5.984987E0,-1.4239277E0,1.2512099E0,3.628554E0,2.1500181E1,9.308882E0,-3.7455678E-1,-1.4183256E-1,-1.789547E-1,-6.4544946E-1,6.51571E-2,-3.963356E-1,1.110727E-1,-1.035879E-1,1.2136085E-1,-1.3348389E-1,1.5994355E-1,4.7778088E-1,1.2308916E0,2.2573951E-1,2.275877E-1,5.0681E-1],"categories":[],"categories_nodes":[],"categories_segments":[],"categories_sizes":[],"default_left":[0,0,0,0,0,0,0,0,0,0,0,0,0,0,0,0,0,0,0,0,0,0,0,0,0,0,0,0,0,0,0],"id":7,"left_children":[1,3,5,7,9,11,13,15,17,19,21,23,25,27,29,-1,-1,-1,-1,-1,-1,-1,-1,-1,-1,-1,-1,-1,-1,-1,-1],"loss_changes":[3.649222E4,6.753543E3,8.002617E3,1.6209766E3,1.9451582E3,1.3083481E3,6.319199E2,1.5775449E3,4.6726465E2,1.5669998E3,1.4994879E3,1.7356018E3,1.5331426E3,1.5362817E2,7.2918555E2,0E0,0E0,0E0,0E0,0E0,0E0,0E0,0E0,0E0,0E0,0E0,0E0,0E0,0E0,0E0,0E0],"parents":[2147483647,0,0,1,1,2,2,3,3,4,4,5,5,6,6,7,7,8,8,9,9,10,10,11,11,12,12,13,13,14,14],"right_children":[2,4,6,8,10,12,14,16,18,20,22,24,26,28,30,-1,-1,-1,-1,-1,-1,-1,-1,-1,-1,-1,-1,-1,-1,-1,-1],"split_conditions":[2E-1,-6.3E0,1.06E1,3.42E0,2E0,2.6E0,1.042E0,1.098E0,1.2E0,9.756E1,1.109E2,2.33E2,2.348E2,3.2E0,2.234E2,-3.7455678E-1,-1.4183256E-1,-1.789547E-1,-6.4544946E-1,6.51571E-2,-3.963356E-1,1.110727E-1,-1.035879E-1,1.2136085E-1,-1.3348389E-1,1.5994355E-1,4.7778088E-1,1.2308916E0,2.2573951E-1,2.275877E-1,5.0681E-1],"split_indices":[23,23,23,24,7,23,29,29,21,14,12,27,27,2,27,0,0,0,0,0,0,0,0,0,0,0,0,0,0,0,0],"split_type":[0,0,0,0,0,0,0,0,0,0,0,0,0,0,0,0,0,0,0,0,0,0,0,0,0,0,0,0,0,0,0],"sum_hessian":[2.366E3,1.179E3,1.187E3,4.38E2,7.41E2,9.87E2,2E2,3.78E2,6E1,1.09E2,6.32E2,3.74E2,6.13E2,4E0,1.96E2,2.77E2,1.01E2,7E0,5.3E1,2.3E1,8.6E1,9.5E1,5.37E2,2.88E2,8.6E1,5.73E2,4E1,3E0,1E0,3E1,1.66E2],"tree_param":{"num_deleted":"0","num_feature":"34","num_nodes":"31","size_leaf_vector":"1"}},{"base_weights":[1.4203446E-1,-3.1925507E0,4.424138E0,-6.3255477E0,-9.8568445E-1,3.1972702E0,9.176907E0,-9.401054E0,-4.7662506E0,-4.025789E0,-4.3060374E-1,6.0137434E0,2.5064237E0,1.3538752E1,8.077418E0,-1.4608525E-1,-4.8992226E-1,-1.8856904E-1,-3.817713E-1,-3.8250828E-1,-5.222815E-2,1.0032574E-1,-6.016005E-2,1.4998506E-1,4.803009E-1,2.6608834E-1,9.264378E-2,3.7627098E-1,1.0402187E0,5.916926E-1,3.2576415E-1],"categories":[],"categories_nodes":[],"categories_segments":[],"categories_sizes":[],"default_left":[0,0,0,0,0,0,0,0,0,0,0,0,0,0,0,0,0,0,0,0,0,0,0,0,0,0,0,0,0,0,0],"id":8,"left_children":[1,3,5,7,9,11,13,15,17,19,21,23,25,27,29,-1,-1,-1,-1,-1,-1,-1,-1,-1,-1,-1,-1,-1,-1,-1,-1],"loss_changes":[3.362698E4,9.148042E3,5.9824395E3,2.5783984E3,1.311144E3,1.5823877E3,9.025547E2,4.425664E2,1.01308105E3,1.288619E3,1.2432526E3,1.7143745E3,1.2063545E3,1.6347529E3,9.263369E2,0E0,0E0,0E0,0E0,0E0,0E0,0E0,0E0,0E0,0E0,0E0,0E0,0E0,0E0,0E0,0E0],"parents":[2147483647,0,0,1,1,2,2,3,3,4,4,5,5,6,6,7,7,8,8,9,9,10,10,11,11,12,12,13,13,14,14],"right_children":[2,4,6,8,10,12,14,16,18,20,22,24,26,28,30,-1,-1,-1,-1,-1,-1,-1,-1,-1,-1,-1,-1,-1,-1,-1,-1],"split_conditions":[1.1E0,-4.8E0,1.06E1,-1.06E1,2E0,1.28E-1,2E0,1.135E2,1.3728467E3,2.266E2,2.252E2,9.965E1,2E0,5.99E-1,2.5E0,-1.4608525E-1,-4.8992226E-1,-1.8856904E-1,-3.817713E-1,-3.8250828E-1,-5.222815E-2,1.0032574E-1,-6.016005E-2,1.4998506E-1,4.803009E-1,2.6608834E-1,9.264378E-2,3.7627098E-1,1.0402187E0,5.916926E-1,3.2576415E-1],"split_indices":[23,23,23,23,7,6,7,11,20,28,28,26,18,5,9,0,0,0,0,0,0,0,0,0,0,0,0,0,0,0,0],"split_type":[0,0,0,0,0,0,0,0,0,0,0,0,0,0,0,0,0,0,0,0,0,0,0,0,0,0,0,0,0,0,0],"sum_hessian":[2.353E3,1.323E3,1.03E3,5.46E2,7.77E2,8.2E2,2.1E2,1.82E2,3.64E2,1.19E2,6.58E2,1.6E2,6.6E2,4E1,1.7E2,1.1E1,1.71E2,2.72E2,9.2E1,5.3E1,6.6E1,1.58E2,5E2,8.8E1,7.2E1,1.23E2,5.37E2,2.3E1,1.7E1,4.8E1,1.22E2],"tree_param":{"num_deleted":"0","num_feature":"34","num_nodes":"31","size_leaf_vector":"1"}},{"base_weights":[-1.8208863E-1,-3.2980042E0,4.0816483E0,-7.931167E0,-2.3643527E0,3.1707983E0,7.8801265E0,-1.4084955E1,-6.8117857E0,-3.4400427E0,-4.0778E-1,1.1641542E0,4.370058E0,9.591361E0,5.1055317E0,-5.0932854E-1,-1.0191557E0,-6.4175993E-1,-2.7937427E-1,-1.8326653E-2,-2.0594993E-1,-4.8193414E-2,4.1953856E-1,9.167569E-2,-1.830686E-1,2.052902E-1,1.2743359E0,4.559988E-1,1.2232003E0,4.016422E-2,4.0592024E-1],"categories":[],"categories_nodes":[],"categories_segments":[],"categories_sizes":[],"default_left":[0,0,0,0,0,0,0,0,0,0,0,0,0,0,0,0,0,0,0,0,0,0,0,0,0,0,0,0,0,0,0],"id":9,"left_children":[1,3,5,7,9,11,13,15,17,19,21,23,25,27,29,-1,-1,-1,-1,-1,-1,-1,-1,-1,-1,-1,-1,-1,-1,-1,-1],"loss_changes":[3.1181113E4,5.8469775E3,3.4037188E3,1.4677305E3,2.3768696E3,1.9225093E3,8.578955E2,6.2715576E2,1.3589307E3,1.519751E3,1.9749816E3,9.7894696E2,2.6910176E3,5.9714746E2,9.656377E2,0E0,0E0,0E0,0E0,0E0,0E0,0E0,0E0,0E0,0E0,0E0,0E0,0E0,0E0,0E0,0E0],"parents":[2147483647,0,0,1,1,2,2,3,3,4,4,5,5,6,6,7,7,8,8,9,9,10,10,11,11,12,12,13,13,14,14],"right_children":[2,4,6,8,10,12,14,16,18,20,22,24,26,28,30,-1,-1,-1,-1,-1,-1,-1,-1,-1,-1,-1,-1,-1,-1,-1,-1],"split_conditions":[1.2E0,-9.7E0,1.06E1,5.75E-1,-1.4E0,9.925E1,1.2E0,1.192E2,2.264E2,2E0,5E0,1.164E2,2.386E2,2.3907444E3,1.176E2,-5.0932854E-1,-1.0191557E0,-6.4175993E-1,-2.7937427E-1,-1.8326653E-2,-2.0594993E-1,-4.8193414E-2,4.1953856E-1,9.167569E-2,-1.830686E-1,2.052902E-1,1.2743359E0,4.559988E-1,1.2232003E0,4.016422E-2,4.0592024E-1],"split_indices":[23,23,23,16,23,14,21,1,28,18,9,11,27,20,12,0,0,0,0,0,0,0,0,0,0,0,0,0,0,0,0],"split_type":[0,0,0,0,0,0,0,0,0,0,0,0,0,0,0,0,0,0,0,0,0,0,0,0,0,0,0,0,0,0,0],"sum_hessian":[2.345E3,1.355E3,9.9E2,2.26E2,1.129E3,8E2,1.9E2,3.3E1,1.93E2,7.28E2,4.01E2,3E2,5E2,1.16E2,7.4E1,2.2E1,1.1E1,3.1E1,1.62E2,1.32E2,5.96E2,3.78E2,2.3E1,2.64E2,3.6E1,4.95E2,5E0,1.14E2,2E0,3.1E1,4.3E1],"tree_param":{"num_deleted":"0","num_feature":"34","num_nodes":"31","size_leaf_vector":"1"}},{"base_weights":[-1.4901402E-2,-5.661366E0,1.3249456E0,-4.447586E0,-8.86829E0,5.168237E0,-3.161305E-1,-3.449294E0,-7.5902195E0,-1.5230234E1,-7.8340898E0,3.965234E0,8.625451E0,-1.382413E0,3.3917105E0,-9.914464E-2,-2.9517552E-1,-3.974087E-1,4.993062E-1,-9.541642E-1,-2.8139684E-1,-3.2425365E-1,-7.550654E-1,2.3701827E-1,-6.395507E-2,5.0961196E-1,1.7050278E-1,-4.883295E-2,-3.341373E-1,4.785758E-2,2.633283E-1],"categories":[],"categories_nodes":[],"categories_segments":[],"categories_sizes":[],"default_left":[0,0,0,0,0,0,0,0,0,0,0,0,0,0,0,0,0,0,0,0,0,0,0,0,0,0,0,0,0,0,0],"id":10,"left_children":[1,3,5,7,9,11,13,15,17,19,21,23,25,27,29,-1,-1,-1,-1,-1,-1,-1,-1,-1,-1,-1,-1,-1,-1,-1,-1],"loss_changes":[1.7672707E4,1.7043984E3,1.1909502E4,9.997041E2,6.833867E2,2.3156562E3,5.2392637E3,8.88011E2,5.7011084E2,4.8457056E2,9.5105225E2,1.7174487E3,1.1501006E3,2.2064731E3,1.3460356E3,0E0,0E0,0E0,0E0,0E0,0E0,0E0,0E0,0E0,0E0,0E0,0E0,0E0,0E0,0E0,0E0],"parents":[2147483647,0,0,1,1,2,2,3,3,4,4,5,5,6,6,7,7,8,8,9,9,10,10,11,11,12,12,13,13,14,14],"right_children":[2,4,6,8,10,12,14,16,18,20,22,24,26,28,30,-1,-1,-1,-1,-1,-1,-1,-1,-1,-1,-1,-1,-1,-1,-1,-1],"split_conditions":[3.78E-1,3.8E0,-1.7E0,2.26E2,-9.9E0,3.8E0,6.22E-1,1.0661666E3,3.3E0,4.24E1,2.287E2,1.9783689E3,4.02E-1,5.91E1,9.795E1,-9.914464E-2,-2.9517552E-1,-3.974087E-1,4.993062E-1,-9.541642E-1,-2.8139684E-1,-3.2425365E-1,-7.550654E-1,2.3701827E-1,-6.395507E-2,5.0961196E-1,1.7050278E-1,-4.883295E-2,-3.341373E-1,4.785758E-2,2.633283E-1],"split_indices":[10,21,13,27,2,2,10,20,21,31,27,20,22,31,3,0,0,0,0,0,0,0,0,0,0,0,0,0,0,0,0],"split_type":[0,0,0,0,0,0,0,0,0,0,0,0,0,0,0,0,0,0,0,0,0,0,0,0,0,0,0,0,0,0,0],"sum_hessian":[2.334E3,4.47E2,1.887E3,3.26E2,1.21E2,5.64E2,1.323E3,2.49E2,7.7E1,1.5E1,1.06E2,4.2E2,1.44E2,1.028E3,2.95E2,1.57E2,9.2E1,7.6E1,1E0,1E1,5E0,9.1E1,1.5E1,3.66E2,5.4E1,1.1E2,3.4E1,9.56E2,7.2E1,1.29E2,1.66E2],"tree_param":{"num_deleted":"0","num_feature":"34","num_nodes":"31","size_leaf_vector":"1"}},{"base_weights":[-1.19308844E-1,-3.2663867E0,3.0874038E0,-7.2545176E0,-2.3241117E0,1.609938E0,6.7343636E0,-1.11499815E1,-5.843286E0,8.849529E-1,-3.0657997E0,4.5840545E0,9.8852813E-1,5.426886E0,9.092802E0,-7.7356595E-1,-4.43773E-1,-1.5018769E-1,-4.1064796E-1,-3.39067E-2,5.826082E-1,-2.581031E-1,-1.1497513E-1,3.725235E-1,1.2410215E-1,5.6826044E-2,-7.9990315E-1,5.0222105E-1,1.7844175E-1,3.4672076E-1,6.564149E-1],"categories":[],"categories_nodes":[],"categories_segments":[],"categories_sizes":[],"default_left":[0,0,0,0,0,0,0,0,0,0,0,0,0,0,0,0,0,0,0,0,0,0,0,0,0,0,0,0,0,0,0],"id":11,"left_children":[1,3,5,7,9,11,13,15,17,19,21,23,25,27,29,-1,-1,-1,-1,-1,-1,-1,-1,-1,-1,-1,-1,-1,-1,-1,-1],"loss_changes":[2.3695479E4,4.4362695E3,6.255702E3,1.1772607E3,2.2876323E3,1.5275808E3,9.836621E2,4.4259424E2,1.1057617E3,3.0541477E3,1.2410903E3,8.4311646E2,1.7452253E3,1.8345093E3,9.367627E2,0E0,0E0,0E0,0E0,0E0,0E0,0E0,0E0,0E0,0E0,0E0,0E0,0E0,0E0,0E0,0E0],"parents":[2147483647,0,0,1,1,2,2,3,3,4,4,5,5,6,6,7,7,8,8,9,9,10,10,11,11,12,12,13,13,14,14],"right_children":[2,4,6,8,10,12,14,16,18,20,22,24,26,28,30,-1,-1,-1,-1,-1,-1,-1,-1,-1,-1,-1,-1,-1,-1,-1,-1],"split_conditions":[2E-1,-9.7E0,8E0,2.278E2,2E0,2E0,1.21E1,4.24E1,5.55E-1,5.94E-1,1.123E2,2.264E2,1.6E-1,5.44E-1,5.66E-1,-7.7356595E-1,-4.43773E-1,-1.5018769E-1,-4.1064796E-1,-3.39067E-2,5.826082E-1,-2.581031E-1,-1.1497513E-1,3.725235E-1,1.2410215E-1,5.6826044E-2,-7.9990315E-1,5.0222105E-1,1.7844175E-1,3.4672076E-1,6.564149E-1],"split_indices":[23,23,23,28,18,18,23,31,5,5,0,28,6,4,4,0,0,0,0,0,0,0,0,0,0,0,0,0,0,0,0],"split_type":[0,0,0,0,0,0,0,0,0,0,0,0,0,0,0,0,0,0,0,0,0,0,0,0,0,0,0,0,0,0,0],"sum_hessian":[2.346E3,1.184E3,1.162E3,2.25E2,9.59E2,8.28E2,3.34E2,5.8E1,1.67E2,1.8E2,7.79E2,1.42E2,6.86E2,2.17E2,1.17E2,1.8E1,4E1,7.7E1,9E1,1.58E2,2.2E1,2.07E2,5.72E2,5.9E1,8.3E1,6.81E2,5E0,6.1E1,1.56E2,7.8E1,3.9E1],"tree_param":{"num_deleted":"0","num_feature":"34","num_nodes":"31","size_leaf_vector":"1"}},{"base_weights":[-5.688554E-2,-2.8454623E0,3.607453E0,-7.4399157E0,-2.0178971E0,2.5668895E0,7.752024E0,-8.782482E0,-3.4491608E0,-2.5532231E0,6.609012E-1,2.2009685E0,8.012548E0,1.0262181E1,5.0388393E0,-8.0551857E-1,-3.8389564E-1,-4.1550398E-1,5.9386697E-2,-9.984947E-2,-2.4167554E-1,2.5428334E-1,-1.1688712E-2,5.9838366E-2,1.9225584E-1,-8.333149E-2,5.206987E-1,-2.759186E-1,5.553196E-1,9.723859E-2,5.0179386E-1],"categories":[],"categories_nodes":[],"categories_segments":[],"categories_sizes":[],"default_left":[0,0,0,0,0,0,0,0,0,0,0,0,0,0,0,0,0,0,0,0,0,0,0,0,0,0,0,0,0,0,0],"id":12,"left_children":[1,3,5,7,9,11,13,15,17,19,21,23,25,27,29,-1,-1,-1,-1,-1,-1,-1,-1,-1,-1,-1,-1,-1,-1,-1,-1],"loss_changes":[2.4094775E4,5.0761455E3,4.3747334E3,1.06271E3,1.6307461E3,1.6083931E3,1.3376357E3,1.1066191E3,1.2044672E3,1.1914966E3,7.533474E2,1.260106E3,1.2027913E3,1.4601123E3,1.5265999E3,0E0,0E0,0E0,0E0,0E0,0E0,0E0,0E0,0E0,0E0,0E0,0E0,0E0,0E0,0E0,0E0],"parents":[2147483647,0,0,1,1,2,2,3,3,4,4,5,5,6,6,7,7,8,8,9,9,10,10,11,11,12,12,13,13,14,14],"right_children":[2,4,6,8,10,12,14,16,18,20,22,24,26,28,30,-1,-1,-1,-1,-1,-1,-1,-1,-1,-1,-1,-1,-1,-1,-1,-1],"split_conditions":[1.1E0,-1.06E1,1.04E1,1.54E-1,5.95E-1,1.192E2,-6.1E-1,1.062E0,1.125E2,3E0,1.106E0,9.9775E1,3.14E1,-6.13E0,6E-1,-8.0551857E-1,-3.8389564E-1,-4.1550398E-1,5.9386697E-2,-9.984947E-2,-2.4167554E-1,2.5428334E-1,-1.1688712E-2,5.9838366E-2,1.9225584E-1,-8.333149E-2,5.206987E-1,-2.759186E-1,5.553196E-1,9.723859E-2,5.0179386E-1],"split_indices":[23,23,23,6,5,0,24,29,12,18,29,26,31,24,5,0,0,0,0,0,0,0,0,0,0,0,0,0,0,0,0],"split_type":[0,0,0,0,0,0,0,0,0,0,0,0,0,0,0,0,0,0,0,0,0,0,0,0,0,0,0,0,0,0,0],"sum_hessian":[2.356E3,1.338E3,1.018E3,2.03E2,1.135E3,8.15E2,2.03E2,1.51E2,5.2E1,9.46E2,1.89E2,7.65E2,5E1,1.04E2,9.9E1,1.8E1,1.33E2,2.5E1,2.7E1,7.62E2,1.84E2,3.1E1,1.58E2,4.76E2,2.89E2,1E1,4E1,5E0,9.9E1,6.2E1,3.7E1],"tree_param":{"num_deleted":"0","num_feature":"34","num_nodes":"31","size_leaf_vector":"1"}},{"base_weights":[-2.8923918E-2,-3.9333255E0,2.8225625E0,-5.899843E0,-2.3579965E0,1.1002347E0,5.310455E0,-6.121545E0,6.9758005E0,-3.0763667E0,3.467435E-1,-5.028469E-1,1.2097467E0,4.4181314E0,8.623008E0,-3.176135E-1,2.7910826E-1,5.98159E-1,-2.6621118E-1,-1.0877087E-1,-3.307614E-1,-4.2488597E-2,2.9569852E-1,7.818032E-2,-1.078071E-1,1.9790995E-1,5.5550236E-1,-1.3126107E-1,4.901951E-1],"categories":[],"categories_nodes":[],"categories_segments":[],"categories_sizes":[],"default_left":[0,0,0,0,0,0,0,0,0,0,0,0,0,0,0,0,0,0,0,0,0,0,0,0,0,0,0,0,0],"id":13,"left_children":[1,3,5,7,9,11,13,15,17,19,21,-1,23,25,27,-1,-1,-1,-1,-1,-1,-1,-1,-1,-1,-1,-1,-1,-1],"loss_changes":[2.643054E4,3.0901973E3,5.87313E3,1.3129785E3,1.0852639E3,1.0043039E3,1.6201455E3,1.218209E3,5.544537E2,1.3916646E3,7.910558E2,0E0,9.6216833E2,1.3225801E3,1.5931279E3,0E0,0E0,0E0,0E0,0E0,0E0,0E0,0E0,0E0,0E0,0E0,0E0,0E0,0E0],"parents":[2147483647,0,0,1,1,2,2,3,3,4,4,5,5,6,6,7,7,8,8,9,9,10,10,12,12,13,13,14,14],"right_children":[2,4,6,8,10,12,14,16,18,20,22,-1,24,26,28,-1,-1,-1,-1,-1,-1,-1,-1,-1,-1,-1,-1,-1,-1],"split_conditions":[-1.1E0,-6.3E0,4.9E0,5.66E-1,5.9E-1,2.169E2,1.21E1,2.365E2,3.3E0,5.85E-1,1.0065E2,-5.028469E-1,5.72E1,2.353E2,-4.25E0,-3.176135E-1,2.7910826E-1,5.98159E-1,-2.6621118E-1,-1.0877087E-1,-3.307614E-1,-4.2488597E-2,2.9569852E-1,7.818032E-2,-1.078071E-1,1.9790995E-1,5.5550236E-1,-1.3126107E-1,4.901951E-1],"split_indices":[23,23,23,4,5,27,23,28,9,5,26,0,30,27,24,0,0,0,0,0,0,0,0,0,0,0,0,0,0],"split_type":[0,0,0,0,0,0,0,0,0,0,0,0,0,0,0,0,0,0,0,0,0,0,0,0,0,0,0,0,0],"sum_hessian":[2.372E3,1.001E3,1.371E3,4.44E2,5.57E2,8.11E2,5.6E2,4.37E2,7E0,4.4E2,1.17E2,7E0,8.04E2,4.43E2,1.17E2,4.29E2,8E0,5E0,2E0,3.52E2,8.8E1,9.7E1,2E1,7.28E2,7.6E1,4.16E2,2.7E1,1.1E1,1.06E2],"tree_param":{"num_deleted":"0","num_feature":"34","num_nodes":"29","size_leaf_vector":"1"}},{"base_weights":[1.7740986E-1,-2.4564424E0,3.6812453E0,-4.875136E0,-1.1018186E0,2.6140413E0,6.81455E0,-4.2473497E0,-8.467084E0,-4.1777873E0,-5.7729244E-1,9.502831E-1,3.788523E0,-5.3985033E0,7.078295E0,-2.1862197E-1,7.173682E-1,-1.107448E0,-3.659837E-1,-4.6623683E-1,-1.12559214E-1,-4.3127995E-2,2.8850597E-1,-1.7340165E-2,1.7197883E-1,1.7938307E-1,1.0353323E0,1.1516524E-2,-3.285168E-1,-1.5374874E-1,3.6692178E-1],"categories":[],"categories_nodes":[],"categories_segments":[],"categories_sizes":[],"default_left":[0,0,0,0,0,0,0,0,0,0,0,0,0,0,0,0,0,0,0,0,0,0,0,0,0,0,0,0,0,0,0],"id":14,"left_children":[1,3,5,7,9,11,13,15,17,19,21,23,25,27,29,-1,-1,-1,-1,-1,-1,-1,-1,-1,-1,-1,-1,-1,-1,-1,-1],"loss_changes":[2.1806959E4,4.4145186E3,3.372877E3,1.0554463E3,1.394815E3,1.4775728E3,8.6604297E2,1.0256963E3,9.524863E2,1.2284407E3,1.346713E3,1.0182739E3,1.4345132E3,4.1089676E1,6.8816797E2,0E0,0E0,0E0,0E0,0E0,0E0,0E0,0E0,0E0,0E0,0E0,0E0,0E0,0E0,0E0,0E0],"parents":[2147483647,0,0,1,1,2,2,3,3,4,4,5,5,6,6,7,7,8,8,9,9,10,10,11,11,12,12,13,13,14,14],"right_children":[2,4,6,8,10,12,14,16,18,20,22,24,26,28,30,-1,-1,-1,-1,-1,-1,-1,-1,-1,-1,-1,-1,-1,-1,-1,-1],"split_conditions":[1.1E0,-5.8E0,9.3E0,3.42E0,2E0,9.937E1,-6.13E0,1.144E0,5.3E-1,1.118E2,6.34E-1,5.1E0,2.94E0,1.2E0,9.676E1,-2.1862197E-1,7.173682E-1,-1.107448E0,-3.659837E-1,-4.6623683E-1,-1.12559214E-1,-4.3127995E-2,2.8850597E-1,-1.7340165E-2,1.7197883E-1,1.7938307E-1,1.0353323E0,1.1516524E-2,-3.285168E-1,-1.5374874E-1,3.6692178E-1],"split_indices":[23,23,23,24,7,14,24,29,15,12,10,23,24,9,14,0,0,0,0,0,0,0,0,0,0,0,0,0,0,0,0],"split_type":[0,0,0,0,0,0,0,0,0,0,0,0,0,0,0,0,0,0,0,0,0,0,0,0,0,0,0,0,0,0,0],"sum_hessian":[2.361E3,1.348E3,1.013E3,4.83E2,8.65E2,7.57E2,2.56E2,4.13E2,7E1,1.25E2,7.4E2,3.14E2,4.43E2,5E0,2.51E2,4.11E2,2E0,4E0,6.6E1,3.3E1,9.2E1,7.09E2,3.1E1,2.07E2,1.07E2,4.39E2,4E0,1E0,4E0,6E0,2.45E2],"tree_param":{"num_deleted":"0","num_feature":"34","num_nodes":"31","size_leaf_vector":"1"}},{"base_weights":[1.1701523E-1,-3.4718866E0,2.575049E0,-4.033332E0,1.6406802E0,1.2980441E0,5.519623E0,-3.1521432E0,-5.9321423E0,4.9846478E0,-6.361373E-1,-1.4991304E0,1.7380009E0,4.1851134E0,7.9890404E0,-6.1723304E-1,-1.4546947E-1,-2.3755717E-1,-5.5014795E-1,1.0920894E-1,7.7817214E-1,8.950887E-2,-3.063701E-1,-3.6245304E-1,1.1460292E-2,8.207964E-2,8.841695E-1,2.7891752E-1,6.064081E-2,2.3222303E-1,4.6352178E-1],"categories":[],"categories_nodes":[],"categories_segments":[],"categories_sizes":[],"default_left":[0,0,0,0,0,0,0,0,0,0,0,0,0,0,0,0,0,0,0,0,0,0,0,0,0,0,0,0,0,0,0],"id":15,"left_children":[1,3,5,7,9,11,13,15,17,19,21,23,25,27,29,-1,-1,-1,-1,-1,-1,-1,-1,-1,-1,-1,-1,-1,-1,-1,-1],"loss_changes":[2.0898588E4,2.7708389E3,5.2797256E3,1.4336475E3,7.340769E2,1.2110902E3,1.3671348E3,1.2918379E3,1.5886064E3,1.1214044E3,7.837342E2,1.3333285E3,1.2761106E3,1.1444644E3,5.9123145E2,0E0,0E0,0E0,0E0,0E0,0E0,0E0,0E0,0E0,0E0,0E0,0E0,0E0,0E0,0E0,0E0],"parents":[2147483647,0,0,1,1,2,2,3,3,4,4,5,5,6,6,7,7,8,8,9,9,10,10,11,11,12,12,13,13,14,14],"right_children":[2,4,6,8,10,12,14,16,18,20,22,24,26,28,30,-1,-1,-1,-1,-1,-1,-1,-1,-1,-1,-1,-1,-1,-1,-1,-1],"split_conditions":[-1.4E0,5.62E-1,6.9E0,3.8E0,5.59E-1,2E0,1.186E2,2.223E2,1.52E-1,1.122E0,3.3E0,9.8325E1,9E0,1.131E2,9.788E1,-6.1723304E-1,-1.4546947E-1,-2.3755717E-1,-5.5014795E-1,1.0920894E-1,7.7817214E-1,8.950887E-2,-3.063701E-1,-3.6245304E-1,1.1460292E-2,8.207964E-2,8.841695E-1,2.7891752E-1,6.064081E-2,2.3222303E-1,4.6352178E-1],"split_indices":[23,4,23,21,15,7,12,28,6,29,9,26,18,1,3,0,0,0,0,0,0,0,0,0,0,0,0,0,0,0,0],"split_type":[0,0,0,0,0,0,0,0,0,0,0,0,0,0,0,0,0,0,0,0,0,0,0,0,0,0,0,0,0,0,0],"sum_hessian":[2.367E3,9.62E2,1.405E3,8.67E2,9.5E1,9.81E2,4.24E2,5.94E2,2.73E2,3.8E1,5.7E1,1.33E2,8.48E2,2.77E2,1.47E2,1.4E1,5.8E2,2.23E2,5E1,3.1E1,7E0,4E1,1.7E1,3E1,1.03E2,8.44E2,4E0,1.88E2,8.9E1,4.2E1,1.05E2],"tree_param":{"num_deleted":"0","num_feature":"34","num_nodes":"31","size_leaf_vector":"1"}},{"base_weights":[-1.8826084E-1,-3.3814442E0,1.2070305E0,-2.5694433E-1,-4.7289968E0,4.929654E0,1.8498878E-1,-1.9960891E0,3.2984493E0,-5.08955E0,2.907144E0,8.4025E0,3.8862689E0,1.2233974E0,-1.1280792E0,-3.2755896E-2,-3.095926E-1,2.5035366E-1,-2.3549007E-1,-2.343183E-1,-5.167771E-1,-1.0825688E-1,5.518965E-1,2.289639E-1,5.49473E-1,-6.5158956E-2,2.2932716E-1,5.5529058E-2,8.4880275E-1,1.00267135E-1,-9.204322E-2],"categories":[],"categories_nodes":[],"categories_segments":[],"categories_sizes":[],"default_left":[0,0,0,0,0,0,0,0,0,0,0,0,0,0,0,0,0,0,0,0,0,0,0,0,0,0,0,0,0,0,0],"id":16,"left_children":[1,3,5,7,9,11,13,15,17,19,21,23,25,27,29,-1,-1,-1,-1,-1,-1,-1,-1,-1,-1,-1,-1,-1,-1,-1,-1],"loss_changes":[1.0403034E4,2.9881885E3,6.1816875E3,1.3360029E3,1.3804004E3,1.2355762E3,1.7412075E3,8.1177124E2,9.950815E2,9.541211E2,9.724563E2,7.4091797E2,9.9080054E2,1.248258E3,1.2633613E3,0E0,0E0,0E0,0E0,0E0,0E0,0E0,0E0,0E0,0E0,0E0,0E0,0E0,0E0,0E0,0E0],"parents":[2147483647,0,0,1,1,2,2,3,3,4,4,5,5,6,6,7,7,8,8,9,9,10,10,11,11,12,12,13,13,14,14],"right_children":[2,4,6,8,10,12,14,16,18,20,22,24,26,28,30,-1,-1,-1,-1,-1,-1,-1,-1,-1,-1,-1,-1,-1,-1,-1,-1],"split_conditions":[-1.3E0,-1.3E0,4.02E-1,1.123E2,1.161E2,1.115E2,2.4E0,1.325657E3,1.00675E2,7.07E-1,8.029587E2,2.245E2,4E-1,9E0,3.12E1,-3.2755896E-2,-3.095926E-1,2.5035366E-1,-2.3549007E-1,-2.343183E-1,-5.167771E-1,-1.0825688E-1,5.518965E-1,2.289639E-1,5.49473E-1,-6.5158956E-2,2.2932716E-1,5.5529058E-2,8.4880275E-1,1.00267135E-1,-9.204322E-2],"split_indices":[2,13,22,0,12,1,13,20,26,22,20,27,2,18,31,0,0,0,0,0,0,0,0,0,0,0,0,0,0,0,0],"split_type":[0,0,0,0,0,0,0,0,0,0,0,0,0,0,0,0,0,0,0,0,0,0,0,0,0,0,0,0,0,0,0],"sum_hessian":[2.333E3,7.09E2,1.624E3,2.14E2,4.95E2,3.49E2,1.275E3,1.44E2,7E1,4.73E2,2.2E1,7.9E1,2.7E2,7.12E2,5.63E2,1.1E2,3.4E1,5.8E1,1.2E1,4.41E2,3.2E1,1.4E1,8E0,3.3E1,4.6E1,3.2E1,2.38E2,7.08E2,4E0,1.04E2,4.59E2],"tree_param":{"num_deleted":"0","num_feature":"34","num_nodes":"31","size_leaf_vector":"1"}},{"base_weights":[9.130113E-2,-3.0855994E0,2.3069785E0,-3.3794916E0,1.8063608E0,1.2505656E0,4.8698106E0,-3.0292218E0,-6.858061E0,-5.3011484E0,3.703719E0,7.3924595E-1,3.6001506E0,5.159239E0,-5.8607535E0,-1.2560561E-1,-2.923719E-1,2.8461218E-1,-3.7873217E-1,-5.002184E-1,-2.5625521E-2,6.5373725E-1,6.290407E-2,4.150709E-2,-6.9577914E-1,3.325966E-1,6.6427365E-2,3.242063E-1,1.5279615E-1,2.4757612E-1,-4.4068256E-1],"categories":[],"categories_nodes":[],"categories_segments":[],"categories_sizes":[],"default_left":[0,0,0,0,0,0,0,0,0,0,0,0,0,0,0,0,0,0,0,0,0,0,0,0,0,0,0,0,0,0,0],"id":17,"left_children":[1,3,5,7,9,11,13,15,17,19,21,23,25,27,29,-1,-1,-1,-1,-1,-1,-1,-1,-1,-1,-1,-1,-1,-1,-1,-1],"loss_changes":[1.6429076E4,1.3848672E3,3.7165972E3,1.0819111E3,7.613359E2,1.1686929E3,1.2756338E3,1.1861475E3,7.8057007E2,2.6513684E2,9.9194867E2,1.0798666E3,1.1974065E3,1.0697666E3,3.948439E2,0E0,0E0,0E0,0E0,0E0,0E0,0E0,0E0,0E0,0E0,0E0,0E0,0E0,0E0,0E0,0E0],"parents":[2147483647,0,0,1,1,2,2,3,3,4,4,5,5,6,6,7,7,8,8,9,9,10,10,11,11,12,12,13,13,14,14],"right_children":[2,4,6,8,10,12,14,16,18,20,22,24,26,28,30,-1,-1,-1,-1,-1,-1,-1,-1,-1,-1,-1,-1,-1,-1,-1,-1],"split_conditions":[-1.4E0,6E-1,7.2E0,5.91E1,5.88973E2,1E0,5.95E-1,1.6300603E3,9.674E1,1.17E2,2.51E1,1.6E-1,3.69E1,1.131E2,2.244E2,-1.2560561E-1,-2.923719E-1,2.8461218E-1,-3.7873217E-1,-5.002184E-1,-2.5625521E-2,6.5373725E-1,6.290407E-2,4.150709E-2,-6.9577914E-1,3.325966E-1,6.6427365E-2,3.242063E-1,1.5279615E-1,2.4757612E-1,-4.4068256E-1],"split_indices":[23,5,23,31,20,19,16,20,26,11,30,6,30,1,28,0,0,0,0,0,0,0,0,0,0,0,0,0,0,0,0],"split_type":[0,0,0,0,0,0,0,0,0,0,0,0,0,0,0,0,0,0,0,0,0,0,0,0,0,0,0,0,0,0,0],"sum_hessian":[2.332E3,9.58E2,1.374E3,9.04E2,5.4E1,9.74E2,4E2,8.23E2,8.1E1,1.1E1,4.3E1,8.01E2,1.73E2,3.9E2,1E1,6.97E2,1.26E2,4E0,7.7E1,5E0,6E0,8E0,3.5E1,7.97E2,4E0,7.3E1,1E2,2.38E2,1.52E2,2E0,8E0],"tree_param":{"num_deleted":"0","num_feature":"34","num_nodes":"31","size_leaf_vector":"1"}},{"base_weights":[-1.1696064E-2,-1.853298E0,3.4502614E0,-4.1863084E0,-6.8725663E-1,2.5344439E0,6.29494E0,-3.397032E0,-6.790894E0,1.4752664E1,-7.615405E-1,2.1079056E0,7.7351074E0,4.8407764E0,8.868833E0,-2.6853195E-1,-1.071307E-1,-7.459165E-1,-2.8699914E-1,2.1853785E-1,8.127726E-1,-4.8290286E-2,2.3733E-1,1.1896956E-1,-2.2792064E-1,-4.1494854E-2,5.5171853E-1,4.1391397E-1,4.083721E-2,-2.0683001E-1,4.958384E-1],"categories":[],"categories_nodes":[],"categories_segments":[],"categories_sizes":[],"default_left":[0,0,0,0,0,0,0,0,0,0,0,0,0,0,0,0,0,0,0,0,0,0,0,0,0,0,0,0,0,0,0],"id":18,"left_children":[1,3,5,7,9,11,13,15,17,19,21,23,25,27,29,-1,-1,-1,-1,-1,-1,-1,-1,-1,-1,-1,-1,-1,-1,-1,-1],"loss_changes":[1.5129193E4,4.211002E3,2.1307363E3,1.0376914E3,1.197167E3,1.3701216E3,7.0564014E2,9.73833E2,9.3077344E2,6.960449E0,1.1634597E3,1.0587256E3,1.337293E3,1.79148E3,1.0086709E3,0E0,0E0,0E0,0E0,0E0,0E0,0E0,0E0,0E0,0E0,0E0,0E0,0E0,0E0,0E0,0E0],"parents":[2147483647,0,0,1,1,2,2,3,3,4,4,5,5,6,6,7,7,8,8,9,9,10,10,11,11,12,12,13,13,14,14],"right_children":[2,4,6,8,10,12,14,16,18,20,22,24,26,28,30,-1,-1,-1,-1,-1,-1,-1,-1,-1,-1,-1,-1,-1,-1,-1,-1],"split_conditions":[2.5E0,-5.3E0,1.06E1,1.3542684E3,9.674E1,2.348E2,6E-1,-1.04E1,1.22E-1,2.5E0,1.57E-1,6.29E1,9.8345E1,-6.1E-1,-3.39E0,-2.6853195E-1,-1.071307E-1,-7.459165E-1,-2.8699914E-1,2.1853785E-1,8.127726E-1,-4.8290286E-2,2.3733E-1,1.1896956E-1,-2.2792064E-1,-4.1494854E-2,5.5171853E-1,4.1391397E-1,4.083721E-2,-2.0683001E-1,4.958384E-1],"split_indices":[23,23,23,20,26,27,5,23,17,9,17,30,26,24,24,0,0,0,0,0,0,0,0,0,0,0,0,0,0,0,0],"split_type":[0,0,0,0,0,0,0,0,0,0,0,0,0,0,0,0,0,0,0,0,0,0,0,0,0,0,0,0,0,0,0],"sum_hessian":[2.371E3,1.548E3,8.23E2,5.15E2,1.033E3,6.24E2,1.99E2,3.97E2,1.18E2,4E0,1.029E3,5.78E2,4.6E1,1.29E2,7E1,1.53E2,2.44E2,1.2E1,1.06E2,1E0,3E0,9.93E2,3.6E1,5.56E2,2.2E1,1.3E1,3.3E1,6.9E1,6E1,5E0,6.5E1],"tree_param":{"num_deleted":"0","num_feature":"34","num_nodes":"31","size_leaf_vector":"1"}},{"base_weights":[6.140914E-2,-2.3880036E0,2.3503203E0,-5.3801427E0,-1.6398095E0,1.6084299E0,6.333887E0,-9.942866E0,-4.1520524E0,6.2091947E-1,-2.1725953E0,-1.1854818E0,2.0552785E0,1.040062E1,4.8362403E0,-4.090776E-1,-1.0307462E0,-2.8344086E-1,-6.2711723E-3,-4.5879778E-2,2.798284E-1,-1.8904965E-1,-6.966506E-2,-5.927809E-1,-1.8407864E-2,8.669519E-2,3.28448E-1,4.230257E-1,8.6574954E-1,3.2630333E-1,-2.8145117E-1],"categories":[],"categories_nodes":[],"categories_segments":[],"categories_sizes":[],"default_left":[0,0,0,0,0,0,0,0,0,0,0,0,0,0,0,0,0,0,0,0,0,0,0,0,0,0,0,0,0,0,0],"id":19,"left_children":[1,3,5,7,9,11,13,15,17,19,21,23,25,27,29,-1,-1,-1,-1,-1,-1,-1,-1,-1,-1,-1,-1,-1,-1,-1,-1],"loss_changes":[1.3079943E4,2.5141938E3,3.5539878E3,1.2194897E3,1.088998E3,1.273364E3,1.1008105E3,7.1479004E2,1.0925222E3,1.3294692E3,9.10978E2,1.2252911E3,1.2622231E3,5.242368E2,2.5125627E3,0E0,0E0,0E0,0E0,0E0,0E0,0E0,0E0,0E0,0E0,0E0,0E0,0E0,0E0,0E0,0E0],"parents":[2147483647,0,0,1,1,2,2,3,3,4,4,5,5,6,6,7,7,8,8,9,9,10,10,11,11,12,12,13,13,14,14],"right_children":[2,4,6,8,10,12,14,16,18,20,22,24,26,28,30,-1,-1,-1,-1,-1,-1,-1,-1,-1,-1,-1,-1,-1,-1,-1,-1],"split_conditions":[-2E-1,-9.7E0,1.06E1,1.25E-1,2E0,2E0,3E0,2.32E2,1.006E2,1.153E2,6.302438E2,2.68E-1,2.35E2,2.281E2,1.138E2,-4.090776E-1,-1.0307462E0,-2.8344086E-1,-6.2711723E-3,-4.5879778E-2,2.798284E-1,-1.8904965E-1,-6.966506E-2,-5.927809E-1,-1.8407864E-2,8.669519E-2,3.28448E-1,4.230257E-1,8.6574954E-1,3.2630333E-1,-2.8145117E-1],"split_indices":[23,23,23,17,18,7,9,28,14,0,20,22,27,27,1,0,0,0,0,0,0,0,0,0,0,0,0,0,0,0,0],"split_type":[0,0,0,0,0,0,0,0,0,0,0,0,0,0,0,0,0,0,0,0,0,0,0,0,0,0,0,0,0,0,0],"sum_hessian":[2.331E3,1.126E3,1.205E3,2.24E2,9.02E2,1.017E3,1.88E2,4.6E1,1.78E2,1.72E2,7.3E2,1.4E2,8.77E2,4.9E1,1.39E2,4.1E1,5E0,1.29E2,4.9E1,1.32E2,4E1,2.37E2,4.93E2,9E0,1.31E2,8.2E2,5.7E1,4E1,9E0,1.2E2,1.9E1],"tree_param":{"num_deleted":"0","num_feature":"34","num_nodes":"31","size_leaf_vector":"1"}},{"base_weights":[1.4502852E-1,-3.5797372E0,1.169764E0,-2.5338056E0,-5.9743605E0,4.0624423E0,9.8328866E-2,-1.5231559E0,-5.4173746E0,-1.0022124E1,-3.8125386E0,3.6129885E0,8.755175E0,-7.0981055E-1,2.7918117E0,-2.0609874E-2,-2.6158676E-1,-5.892641E-1,-2.0119087E-1,-5.3124064E-1,1.7821465E-1,-6.406173E-1,-1.2919274E-1,1.3512938E-1,3.234299E-1,6.341093E-1,2.3944913E-1,-8.143174E-2,6.4483784E-2,7.4227266E-2,2.9038823E-1],"categories":[],"categories_nodes":[],"categories_segments":[],"categories_sizes":[],"default_left":[0,0,0,0,0,0,0,0,0,0,0,0,0,0,0,0,0,0,0,0,0,0,0,0,0,0,0,0,0,0,0],"id":20,"left_children":[1,3,5,7,9,11,13,15,17,19,21,23,25,27,29,-1,-1,-1,-1,-1,-1,-1,-1,-1,-1,-1,-1,-1,-1,-1,-1],"loss_changes":[9.0044375E3,1.2597104E3,5.7333384E3,1.0292314E3,1.309374E3,1.0229512E3,2.9427166E3,1.089664E3,7.6899023E2,4.718545E2,1.0948022E3,1.1732036E3,6.0900244E2,1.912764E3,1.2214863E3,0E0,0E0,0E0,0E0,0E0,0E0,0E0,0E0,0E0,0E0,0E0,0E0,0E0,0E0,0E0,0E0],"parents":[2147483647,0,0,1,1,2,2,3,3,4,4,5,5,6,6,7,7,8,8,9,9,10,10,11,11,12,12,13,13,14,14],"right_children":[2,4,6,8,10,12,14,16,18,20,22,24,26,28,30,-1,-1,-1,-1,-1,-1,-1,-1,-1,-1,-1,-1,-1,-1,-1,-1],"split_conditions":[1.123E2,3.1E0,-2.3E0,1.325657E3,6.2384503E2,6.7E0,6.22E-1,3E0,1.4927758E3,6.29E1,2.237E2,1.54E-1,1.2E0,1.00145E2,1.42E-1,-2.0609874E-2,-2.6158676E-1,-5.892641E-1,-2.0119087E-1,-5.3124064E-1,1.7821465E-1,-6.406173E-1,-1.2919274E-1,1.3512938E-1,3.234299E-1,6.341093E-1,2.3944913E-1,-8.143174E-2,6.4483784E-2,7.4227266E-2,2.9038823E-1],"split_indices":[0,13,13,20,20,2,10,18,20,31,27,17,21,26,17,0,0,0,0,0,0,0,0,0,0,0,0,0,0,0,0],"split_type":[0,0,0,0,0,0,0,0,0,0,0,0,0,0,0,0,0,0,0,0,0,0,0,0,0,0,0,0,0,0,0],"sum_hessian":[2.357E3,5.08E2,1.849E3,3.55E2,1.53E2,4.99E2,1.35E3,2.64E2,9.1E1,5.2E1,1.01E2,4.57E2,4.2E1,1.039E3,3.11E2,2.04E2,6E1,1.5E1,7.6E1,5E1,2E0,1.1E1,9E1,3.48E2,1.09E2,2E1,2.2E1,7.12E2,3.27E2,2.18E2,9.3E1],"tree_param":{"num_deleted":"0","num_feature":"34","num_nodes":"31","size_leaf_vector":"1"}},{"base_weights":[3.0574557E-1,-2.3651898E0,2.0590398E0,-5.919292E0,-1.5067626E0,1.1412638E0,4.124578E0,-2.0067404E1,-5.4837246E0,-1.8436409E0,3.6743736E0,-2.924583E0,1.4240946E0,-3.2265468E0,4.4136796E0,-1.3314109E-1,-1.1876422E0,-3.0919284E-1,1.4324836E-2,-1.1963592E-1,7.26384E-2,2.8121603E-1,-1.1595847E-1,-4.4045936E-2,-4.2614475E-1,5.4024287E-2,3.8771072E-1,2.6935179E-2,-3.7648958E-1,2.285501E-1,-3.5754716E-1],"categories":[],"categories_nodes":[],"categories_segments":[],"categories_sizes":[],"default_left":[0,0,0,0,0,0,0,0,0,0,0,0,0,0,0,0,0,0,0,0,0,0,0,0,0,0,0,0,0,0,0],"id":21,"left_children":[1,3,5,7,9,11,13,15,17,19,21,23,25,27,29,-1,-1,-1,-1,-1,-1,-1,-1,-1,-1,-1,-1,-1,-1,-1,-1],"loss_changes":[1.0953574E4,2.8193008E3,2.672023E3,9.9919727E2,1.3123429E3,1.1299625E3,9.365874E2,2.5746814E2,7.1279736E2,1.2758945E3,5.5064996E2,7.247205E2,1.9839996E3,2.7950378E2,7.9318506E2,0E0,0E0,0E0,0E0,0E0,0E0,0E0,0E0,0E0,0E0,0E0,0E0,0E0,0E0,0E0,0E0],"parents":[2147483647,0,0,1,1,2,2,3,3,4,4,5,5,6,6,7,7,8,8,9,9,10,10,11,11,12,12,13,13,14,14],"right_children":[2,4,6,8,10,12,14,16,18,20,22,24,26,28,30,-1,-1,-1,-1,-1,-1,-1,-1,-1,-1,-1,-1,-1,-1,-1,-1],"split_conditions":[-1.4E0,-1.06E1,6.7E0,5.7E-1,5.66E-1,1.123E2,9.694E1,1.067E2,1.194E2,2.331E2,1.4E-1,3E0,1.52E-1,2.246E2,3.2E0,-1.3314109E-1,-1.1876422E0,-3.0919284E-1,1.4324836E-2,-1.1963592E-1,7.26384E-2,2.8121603E-1,-1.1595847E-1,-4.4045936E-2,-4.2614475E-1,5.4024287E-2,3.8771072E-1,2.6935179E-2,-3.7648958E-1,2.285501E-1,-3.5754716E-1],"split_indices":[23,23,23,16,4,0,14,0,1,28,17,7,17,28,13,0,0,0,0,0,0,0,0,0,0,0,0,0,0,0,0],"split_type":[0,0,0,0,0,0,0,0,0,0,0,0,0,0,0,0,0,0,0,0,0,0,0,0,0,0,0,0,0,0,0],"sum_hessian":[2.337E3,9.26E2,1.411E3,1.79E2,7.47E2,9.78E2,4.33E2,4E0,1.75E2,7.02E2,4.5E1,6.3E1,9.15E2,1.6E1,4.17E2,1E0,3E0,1.56E2,1.9E1,6.02E2,1E2,3.4E1,1.1E1,4.7E1,1.6E1,8.69E2,4.6E1,9E0,7E0,4.12E2,5E0],"tree_param":{"num_deleted":"0","num_feature":"34","num_nodes":"31","size_leaf_vector":"1"}},{"base_weights":[-4.0881064E-2,-2.271258E0,1.2887949E0,-7.150153E-3,-3.2608564E0,3.729167E0,3.7042198E-1,6.3915676E-1,-6.2372627E0,-3.8169718E0,5.9485507E-1,5.942293E0,1.5305196E0,-2.363081E-1,2.685344E0,7.544943E-2,-2.6509652E-1,-2.1083832E-1,-7.895338E-1,3.8902204E-2,-2.1129847E-1,-8.611892E-2,1.8683466E-1,1.728714E-2,3.3931366E-1,-1.4600912E-1,1.398225E-1,-6.380961E-2,1.0638082E-1,1.2542628E-1,1.0352142E0],"categories":[],"categories_nodes":[],"categories_segments":[],"categories_sizes":[],"default_left":[0,0,0,0,0,0,0,0,0,0,0,0,0,0,0,0,0,0,0,0,0,0,0,0,0,0,0,0,0,0,0],"id":22,"left_children":[1,3,5,7,9,11,13,15,17,19,21,23,25,27,29,-1,-1,-1,-1,-1,-1,-1,-1,-1,-1,-1,-1,-1,-1,-1,-1],"loss_changes":[6.892199E3,1.9447808E3,3.2617646E3,1.0710262E3,1.2973794E3,1.9275273E3,1.4880347E3,1.2534276E3,4.1598016E2,9.955845E2,5.670247E2,9.328823E2,1.1406562E3,2.0676094E3,6.4900024E2,0E0,0E0,0E0,0E0,0E0,0E0,0E0,0E0,0E0,0E0,0E0,0E0,0E0,0E0,0E0,0E0],"parents":[2147483647,0,0,1,1,2,2,3,3,4,4,5,5,6,6,7,7,8,8,9,9,10,10,11,11,12,12,13,13,14,14],"right_children":[2,4,6,8,10,12,14,16,18,20,22,24,26,28,30,-1,-1,-1,-1,-1,-1,-1,-1,-1,-1,-1,-1,-1,-1,-1,-1],"split_conditions":[-2E-1,1.137E2,-2.3E0,1.56E-1,1.142E2,-6.1E-1,6.34E-1,1.0127E2,1.192E2,-2.97E0,5.98E-1,1.7E0,2.237E2,1.0012E2,2.427E2,7.544943E-2,-2.6509652E-1,-2.1083832E-1,-7.895338E-1,3.8902204E-2,-2.1129847E-1,-8.611892E-2,1.8683466E-1,1.728714E-2,3.3931366E-1,-1.4600912E-1,1.398225E-1,-6.380961E-2,1.0638082E-1,1.2542628E-1,1.0352142E0],"split_indices":[2,11,13,6,0,24,10,26,12,24,22,9,27,26,27,0,0,0,0,0,0,0,0,0,0,0,0,0,0,0,0],"split_type":[0,0,0,0,0,0,0,0,0,0,0,0,0,0,0,0,0,0,0,0,0,0,0,0,0,0,0,0,0,0,0],"sum_hessian":[2.322E3,8.67E2,1.455E3,2.64E2,6.03E2,3.97E2,1.058E3,2.4E2,2.4E1,5.27E2,7.6E1,1.97E2,2E2,8.39E2,2.19E2,2.1E2,3E1,2.1E1,3E0,4.3E1,4.84E2,4.4E1,3.2E1,2.6E1,1.71E2,4.4E1,1.56E2,5.83E2,2.56E2,2.18E2,1E0],"tree_param":{"num_deleted":"0","num_feature":"34","num_nodes":"31","size_leaf_vector":"1"}},{"base_weights":[-5.1067166E-2,-1.49612E0,1.9569691E0,-2.9241183E0,-5.0446826E-1,1.4223828E0,5.9610634E0,-4.567491E0,-1.5273615E0,-6.705872E-1,6.9158506E0,1.0851566E0,6.9986362E0,-3.4141893E0,7.065037E0,-1.9358295E-1,-9.983317E-1,1.2182803E-2,-1.7862736E-1,-8.569183E-3,-1.4639354E-1,7.278873E-1,-3.267196E-2,1.565839E-1,2.0931747E-2,1.37421E-1,5.408103E-1,-5.0299885E-3,-3.631639E-1,9.345521E-2,4.209876E-1],"categories":[],"categories_nodes":[],"categories_segments":[],"categories_sizes":[],"default_left":[0,0,0,0,0,0,0,0,0,0,0,0,0,0,0,0,0,0,0,0,0,0,0,0,0,0,0,0,0,0,0],"id":23,"left_children":[1,3,5,7,9,11,13,15,17,19,21,23,25,27,29,-1,-1,-1,-1,-1,-1,-1,-1,-1,-1,-1,-1,-1,-1,-1,-1],"loss_changes":[6.906116E3,1.9583755E3,2.123493E3,1.2945112E3,1.0129498E3,1.6472098E3,1.2350752E3,2.7086538E3,1.116465E3,9.021003E2,1.0506992E3,1.1322152E3,7.815469E2,1.650752E2,7.233584E2,0E0,0E0,0E0,0E0,0E0,0E0,0E0,0E0,0E0,0E0,0E0,0E0,0E0,0E0,0E0,0E0],"parents":[2147483647,0,0,1,1,2,2,3,3,4,4,5,5,6,6,7,7,8,8,9,9,10,10,11,11,12,12,13,13,14,14],"right_children":[2,4,6,8,10,12,14,16,18,20,22,24,26,28,30,-1,-1,-1,-1,-1,-1,-1,-1,-1,-1,-1,-1,-1,-1,-1,-1],"split_conditions":[1.2E0,-4.8E0,1.21E1,1.2E0,5E0,1.196E2,-4.25E0,4.45E1,2.5E0,3E0,2.1E0,1.11E2,1.135E2,1E0,5.98E-1,-1.9358295E-1,-9.983317E-1,1.2182803E-2,-1.7862736E-1,-8.569183E-3,-1.4639354E-1,7.278873E-1,-3.267196E-2,1.565839E-1,2.0931747E-2,1.37421E-1,5.408103E-1,-5.0299885E-3,-3.631639E-1,9.345521E-2,4.209876E-1],"split_indices":[23,23,23,9,7,12,24,30,9,18,13,1,1,21,10,0,0,0,0,0,0,0,0,0,0,0,0,0,0,0,0],"split_type":[0,0,0,0,0,0,0,0,0,0,0,0,0,0,0,0,0,0,0,0,0,0,0,0,0,0,0,0,0,0,0],"sum_hessian":[2.378E3,1.383E3,9.95E2,5.66E2,8.17E2,8.79E2,1.16E2,2.59E2,3.07E2,8E2,1.7E1,8.3E2,4.9E1,1.2E1,1.04E2,2.49E2,1E1,1.65E2,1.42E2,6.56E2,1.44E2,8E0,9E0,2.03E2,6.27E2,2.4E1,2.5E1,7E0,5E0,2.2E1,8.2E1],"tree_param":{"num_deleted":"0","num_feature":"34","num_nodes":"31","size_leaf_vector":"1"}},{"base_weights":[1.47391595E-2,-2.0334768E0,1.8026185E0,-3.7980433E0,-1.3196033E0,1.2297957E0,4.994909E0,-4.1779037E0,2.6806583E0,1.3554641E0,-1.9491842E0,9.055141E0,1.1241859E0,-5.989073E-1,5.730997E0,-2.1526615E-1,4.8721457E-1,2.7827665E-1,-4.403893E-1,1.5993105E-1,-1.0721221E-1,-1.2887947E-1,2.4038365E-3,5.361698E-1,-3.1580436E-1,2.0149624E-2,1.0587853E-1,-6.0694104E-1,1.2347168E-1,2.3414154E-1,5.106079E-1],"categories":[],"categories_nodes":[],"categories_segments":[],"categories_sizes":[],"default_left":[0,0,0,0,0,0,0,0,0,0,0,0,0,0,0,0,0,0,0,0,0,0,0,0,0,0,0,0,0,0,0],"id":24,"left_children":[1,3,5,7,9,11,13,15,17,19,21,23,25,27,29,-1,-1,-1,-1,-1,-1,-1,-1,-1,-1,-1,-1,-1,-1,-1,-1],"loss_changes":[8.579982E3,1.3705557E3,2.2814563E3,7.839541E2,1.3146113E3,8.6749207E2,7.857661E2,5.688169E2,6.455889E2,9.6798486E2,7.920852E2,4.2673376E2,7.506738E2,8.443689E2,7.412739E2,0E0,0E0,0E0,0E0,0E0,0E0,0E0,0E0,0E0,0E0,0E0,0E0,0E0,0E0,0E0,0E0],"parents":[2147483647,0,0,1,1,2,2,3,3,4,4,5,5,6,6,7,7,8,8,9,9,10,10,11,11,12,12,13,13,14,14],"right_children":[2,4,6,8,10,12,14,16,18,20,22,24,26,28,30,-1,-1,-1,-1,-1,-1,-1,-1,-1,-1,-1,-1,-1,-1,-1,-1],"split_conditions":[-4E-1,-8.1E0,1.06E1,1.01745E2,2E0,1.43E1,1.83E-1,1.177E2,1E0,1.137E2,2.33E0,1.155E2,9.9775E1,1.12E1,1E0,-2.1526615E-1,4.8721457E-1,2.7827665E-1,-4.403893E-1,1.5993105E-1,-1.0721221E-1,-1.2887947E-1,2.4038365E-3,5.361698E-1,-3.1580436E-1,2.0149624E-2,1.0587853E-1,-6.0694104E-1,1.2347168E-1,2.3414154E-1,5.106079E-1],"split_indices":[23,23,23,26,18,30,22,12,8,12,24,11,26,23,8,0,0,0,0,0,0,0,0,0,0,0,0,0,0,0,0],"split_type":[0,0,0,0,0,0,0,0,0,0,0,0,0,0,0,0,0,0,0,0,0,0,0,0,0,0,0,0,0,0,0],"sum_hessian":[2.341E3,1.091E3,1.25E3,3.13E2,7.78E2,1.061E3,1.89E2,2.96E2,1.7E1,1.48E2,6.3E2,1.3E1,1.048E3,2.2E1,1.67E2,2.94E2,2E0,1.4E1,3E0,9.7E1,5.1E1,4.79E2,1.51E2,1.2E1,1E0,6.08E2,4.4E2,4E0,1.8E1,1.37E2,3E1],"tree_param":{"num_deleted":"0","num_feature":"34","num_nodes":"31","size_leaf_vector":"1"}},{"base_weights":[2.3399249E-2,-2.6512012E0,7.5360423E-1,-1.7333262E0,-5.4347787E0,2.8667815E0,-1.4532766E-2,-1.5318146E-1,-4.6583853E0,-4.881049E0,-8.929408E-1,2.6893587E0,1.220793E1,2.38023E0,-5.8243906E-1,-2.706171E-2,3.810319E-1,-3.2665488E-1,-1.7584404E-2,-3.2213482E-1,-8.193526E-2,2.1881144E-1,8.774795E-2,3.3852464E-1,8.6560506E-1,3.1479207E-1,2.3752285E-2,-7.388853E-2,5.1667076E-2],"categories":[],"categories_nodes":[],"categories_segments":[],"categories_sizes":[],"default_left":[0,0,0,0,0,0,0,0,0,0,0,0,0,0,0,0,0,0,0,0,0,0,0,0,0,0,0,0,0],"id":25,"left_children":[1,3,5,7,9,11,13,15,17,19,-1,21,23,25,27,-1,-1,-1,-1,-1,-1,-1,-1,-1,-1,-1,-1,-1,-1],"loss_changes":[4.6442954E3,1.2936177E3,3.032197E3,1.778763E3,7.7965405E2,7.9251953E2,1.8659475E3,7.613041E2,1.0876677E3,6.07177E2,0E0,7.646636E2,1.3257117E2,1.9589788E3,1.6058722E3,0E0,0E0,0E0,0E0,0E0,0E0,0E0,0E0,0E0,0E0,0E0,0E0,0E0,0E0],"parents":[2147483647,0,0,1,1,2,2,3,3,4,4,5,5,6,6,7,7,8,8,9,9,11,11,12,12,13,13,14,14],"right_children":[2,4,6,8,10,12,14,16,18,20,-1,22,24,26,28,-1,-1,-1,-1,-1,-1,-1,-1,-1,-1,-1,-1,-1,-1],"split_conditions":[1.123E2,1.3542684E3,-2.3E0,2.5E0,7.3E0,2.329E2,2E0,1.118E2,5.66E-1,2.6E0,-8.929408E-1,1.071E0,3.3E0,5.44E-1,9.9875E1,-2.706171E-2,3.810319E-1,-3.2665488E-1,-1.7584404E-2,-3.2213482E-1,-8.193526E-2,2.1881144E-1,8.774795E-2,3.3852464E-1,8.6560506E-1,3.1479207E-1,2.3752285E-2,-7.388853E-2,5.1667076E-2],"split_indices":[0,20,13,13,13,27,18,0,15,13,0,29,9,15,26,0,0,0,0,0,0,0,0,0,0,0,0,0,0],"split_type":[0,0,0,0,0,0,0,0,0,0,0,0,0,0,0,0,0,0,0,0,0,0,0,0,0,0,0,0,0],"sum_hessian":[2.376E3,5.09E2,1.867E3,3.84E2,1.25E2,4.97E2,1.37E3,2.5E2,1.34E2,1.21E2,4E0,4.89E2,8E0,2.62E2,1.108E3,2.39E2,1.1E1,9.3E1,4.1E1,8.1E1,4E1,1.73E2,3.16E2,5E0,3E0,8.5E1,1.77E2,7.13E2,3.95E2],"tree_param":{"num_deleted":"0","num_feature":"34","num_nodes":"29","size_leaf_vector":"1"}},{"base_weights":[-1.966095E-1,-2.4876344E0,1.3544042E0,4.6646395E0,-2.727233E0,3.2263854E-1,2.4623446E0,-1.5365361E0,8.152113E0,-3.0160117E0,2.922844E0,2.8898198E-2,5.93554E0,2.2143357E0,9.076653E0,1.3651453E-1,-5.376381E-1,1.0682002E0,2.7486178E-1,-1.8031964E-2,-1.7773286E-1,4.2508832E-1,6.4540054E-3,-5.7881917E-3,4.9315134E-1,-3.6843893E-1,3.9144272E-1,4.1971877E-2,1.6197784E-1,8.278435E-1,1.2755041E-1],"categories":[],"categories_nodes":[],"categories_segments":[],"categories_sizes":[],"default_left":[0,0,0,0,0,0,0,0,0,0,0,0,0,0,0,0,0,0,0,0,0,0,0,0,0,0,0,0,0,0,0],"id":26,"left_children":[1,3,5,7,9,11,13,15,17,19,21,23,25,27,29,-1,-1,-1,-1,-1,-1,-1,-1,-1,-1,-1,-1,-1,-1,-1,-1],"loss_changes":[8.318351E3,1.632145E3,1.5950217E3,6.829455E2,1.50175E3,1.1935132E3,1.083895E3,5.012466E2,5.840759E2,1.2445122E3,7.002811E2,9.813303E2,9.645022E2,9.135039E2,1.1292809E3,0E0,0E0,0E0,0E0,0E0,0E0,0E0,0E0,0E0,0E0,0E0,0E0,0E0,0E0,0E0,0E0],"parents":[2147483647,0,0,1,1,2,2,3,3,4,4,5,5,6,6,7,7,8,8,9,9,10,10,11,11,12,12,13,13,14,14],"right_children":[2,4,6,8,10,12,14,16,18,20,22,24,26,28,30,-1,-1,-1,-1,-1,-1,-1,-1,-1,-1,-1,-1,-1,-1,-1,-1],"split_conditions":[-1.4E0,-4.18E0,3.7E0,2.5E0,5.66E-1,1.55E-1,6.1E-1,2.8E0,4.2052606E2,5E-1,1.127E0,1.0361E2,5.21E-1,1.43E-1,5.4E0,1.3651453E-1,-5.376381E-1,1.0682002E0,2.7486178E-1,-1.8031964E-2,-1.7773286E-1,4.2508832E-1,6.4540054E-3,-5.7881917E-3,4.9315134E-1,-3.6843893E-1,3.9144272E-1,4.1971877E-2,1.6197784E-1,8.278435E-1,1.2755041E-1],"split_indices":[23,24,23,21,4,17,22,13,20,13,29,3,4,17,23,0,0,0,0,0,0,0,0,0,0,0,0,0,0,0,0],"split_type":[0,0,0,0,0,0,0,0,0,0,0,0,0,0,0,0,0,0,0,0,0,0,0,0,0,0,0,0,0,0,0],"sum_hessian":[2.339E3,9.44E2,1.395E3,3E1,9.14E2,7.23E2,6.72E2,1.1E1,1.9E1,8.7E2,4.4E1,6.88E2,3.5E1,6.49E2,2.3E1,8E0,3E0,2E0,1.7E1,1.47E2,7.23E2,1.4E1,3E1,6.79E2,9E0,4E0,3.1E1,2.78E2,3.71E2,1E1,1.3E1],"tree_param":{"num_deleted":"0","num_feature":"34","num_nodes":"31","size_leaf_vector":"1"}},{"base_weights":[1.5863769E-1,-1.761628E0,1.573602E0,-1.9527906E0,4.5735955E0,1.0149717E0,3.9118025E0,-2.4172127E0,2.7210352E-1,6.5848446E0,-6.7996197E0,9.569494E-1,1.6847916E1,3.1828213E0,7.932752E0,-1.3944817E-1,3.627919E-2,-3.574417E-2,3.173593E-1,7.796662E-1,1.222615E-1,-6.076361E-1,-1.21158205E-1,3.9680883E-2,3.1292534E-1,1.1023749E0,3.1229133E-2,4.7827798E-1,1.2583517E-1,9.194355E-1,2.3720577E-1],"categories":[],"categories_nodes":[],"categories_segments":[],"categories_sizes":[],"default_left":[0,0,0,0,0,0,0,0,0,0,0,0,0,0,0,0,0,0,0,0,0,0,0,0,0,0,0,0,0,0,0],"id":27,"left_children":[1,3,5,7,9,11,13,15,17,19,21,23,25,27,29,-1,-1,-1,-1,-1,-1,-1,-1,-1,-1,-1,-1,-1,-1,-1,-1],"loss_changes":[6.4939414E3,1.2369436E3,1.7933464E3,1.018449E3,7.3100555E2,1.0054319E3,7.5151855E2,9.542173E2,1.029858E3,9.3145325E2,8.769005E1,9.5533057E2,3.2364783E2,9.36801E2,1.2463718E3,0E0,0E0,0E0,0E0,0E0,0E0,0E0,0E0,0E0,0E0,0E0,0E0,0E0,0E0,0E0,0E0],"parents":[2147483647,0,0,1,1,2,2,3,3,4,4,5,5,6,6,7,7,8,8,9,9,10,10,11,11,12,12,13,13,14,14],"right_children":[2,4,6,8,10,12,14,16,18,20,22,24,26,28,30,-1,-1,-1,-1,-1,-1,-1,-1,-1,-1,-1,-1,-1,-1,-1,-1],"split_conditions":[-1.1E0,5.68E-1,9.2E0,1.46E-1,1.4E-1,2.405E2,6.08E-1,1.015E2,5.72E-1,3.12E1,1.2E0,5.79E1,1.107E2,2.71E1,2E0,-1.3944817E-1,3.627919E-2,-3.574417E-2,3.173593E-1,7.796662E-1,1.222615E-1,-6.076361E-1,-1.21158205E-1,3.9680883E-2,3.1292534E-1,1.1023749E0,3.1229133E-2,4.7827798E-1,1.2583517E-1,9.194355E-1,2.3720577E-1],"split_indices":[23,4,23,17,17,27,5,14,15,30,9,31,1,30,7,0,0,0,0,0,0,0,0,0,0,0,0,0,0,0,0],"split_type":[0,0,0,0,0,0,0,0,0,0,0,0,0,0,0,0,0,0,0,0,0,0,0,0,0,0,0,0,0,0,0],"sum_hessian":[2.388E3,1.013E3,1.375E3,9.84E2,2.9E1,1.111E3,2.64E2,8.14E2,1.7E2,2.5E1,4E0,1.108E3,3E0,2.25E2,3.9E1,7.28E2,8.6E1,1.47E2,2.3E1,7E0,1.8E1,1E0,3E0,1.076E3,3.2E1,2E0,1E0,2E1,2.05E2,8E0,3.1E1],"tree_param":{"num_deleted":"0","num_feature":"34","num_nodes":"31","size_leaf_vector":"1"}},{"base_weights":[-1.8229982E-1,-2.0455537E0,1.1001567E0,-2.3174715E0,3.27433E0,7.428449E-1,4.2158184E0,-1.1626909E0,-3.5866475E0,-4.9455595E0,5.351292E0,2.6131384E0,1.17957115E-1,-1.2606734E0,5.8702264E0,-6.597987E-2,6.987981E-1,-2.0060442E-1,1.4875376E-1,-4.315357E-1,1.3699244E-1,7.0137453E-1,1.08748615E-1,-9.100436E-3,2.0857695E-1,-1.9004E-2,1.00266136E-1,-4.0636778E-1,1.1883775E-1,4.0647975E-1,1.2750141E-1],"categories":[],"categories_nodes":[],"categories_segments":[],"categories_sizes":[],"default_left":[0,0,0,0,0,0,0,0,0,0,0,0,0,0,0,0,0,0,0,0,0,0,0,0,0,0,0,0,0,0,0],"id":28,"left_children":[1,3,5,7,9,11,13,15,17,19,21,23,25,27,29,-1,-1,-1,-1,-1,-1,-1,-1,-1,-1,-1,-1,-1,-1,-1,-1],"loss_changes":[5.6152847E3,1.3934023E3,1.5465302E3,1.3324756E3,8.288679E2,1.4605964E3,1.303031E3,1.1562368E3,1.2235015E3,3.0686597E2,1.016709E3,1.3641741E3,8.824617E2,8.6853687E2,8.0443945E2,0E0,0E0,0E0,0E0,0E0,0E0,0E0,0E0,0E0,0E0,0E0,0E0,0E0,0E0,0E0,0E0],"parents":[2147483647,0,0,1,1,2,2,3,3,4,4,5,5,6,6,7,7,8,8,9,9,10,10,11,11,12,12,13,13,14,14],"right_children":[2,4,6,8,10,12,14,16,18,20,22,24,26,28,30,-1,-1,-1,-1,-1,-1,-1,-1,-1,-1,-1,-1,-1,-1,-1,-1],"split_conditions":[-1.4E0,5.66E-1,5.73E-1,1.162E2,5.2003467E2,2.68E1,9.779E1,6E0,1.194E2,5E0,3.12E1,9.891E1,1.6014001E3,1.9E0,1.0022E2,-6.597987E-2,6.987981E-1,-2.0060442E-1,1.4875376E-1,-4.315357E-1,1.3699244E-1,7.0137453E-1,1.08748615E-1,-9.100436E-3,2.0857695E-1,-1.9004E-2,1.00266136E-1,-4.0636778E-1,1.1883775E-1,4.0647975E-1,1.2750141E-1],"split_indices":[23,4,4,11,20,31,14,7,1,21,30,26,20,23,26,0,0,0,0,0,0,0,0,0,0,0,0,0,0,0,0],"split_type":[0,0,0,0,0,0,0,0,0,0,0,0,0,0,0,0,0,0,0,0,0,0,0,0,0,0,0,0,0,0,0],"sum_hessian":[2.348E3,9.57E2,1.391E3,9.11E2,4.6E1,1.249E3,1.42E2,4.78E2,4.33E2,9E0,3.7E1,3.12E2,9.37E2,3.3E1,1.09E2,4.74E2,4E0,4.07E2,2.6E1,6E0,3E0,9E0,2.8E1,1.12E2,2E2,7.42E2,1.95E2,1.1E1,2.2E1,6.4E1,4.5E1],"tree_param":{"num_deleted":"0","num_feature":"34","num_nodes":"31","size_leaf_vector":"1"}},{"base_weights":[-1.3413605E-1,-1.4234924E0,1.5750247E0,5.598482E-1,-2.1909583E0,4.065176E0,9.282839E-1,2.7206624E-1,8.618952E0,-2.0683684E0,-1.38140545E1,2.6324952E0,8.054869E0,4.745604E0,5.4994464E-1,5.0831014E-1,1.1285499E-3,6.0211295E-1,-3.4030777E-1,-1.4254484E-1,-2.5087683E-2,-1.3316406E-1,-8.134419E-1,3.490435E-1,5.6168567E-2,-2.540966E-1,5.199523E-1,3.5552976E-1,-1.17509596E-1,3.195728E-2,-8.0002594E-1],"categories":[],"categories_nodes":[],"categories_segments":[],"categories_sizes":[],"default_left":[0,0,0,0,0,0,0,0,0,0,0,0,0,0,0,0,0,0,0,0,0,0,0,0,0,0,0,0,0,0,0],"id":29,"left_children":[1,3,5,7,9,11,13,15,17,19,21,23,25,27,29,-1,-1,-1,-1,-1,-1,-1,-1,-1,-1,-1,-1,-1,-1,-1,-1],"loss_changes":[5.227256E3,2.059169E3,1.638919E3,8.743371E2,1.3606802E3,1.179146E3,1.1686702E3,9.032562E2,7.684246E2,1.1828086E3,2.3039893E2,1.0158667E3,1.7465718E3,1.2417604E3,1.1012251E3,0E0,0E0,0E0,0E0,0E0,0E0,0E0,0E0,0E0,0E0,0E0,0E0,0E0,0E0,0E0,0E0],"parents":[2147483647,0,0,1,1,2,2,3,3,4,4,5,5,6,6,7,7,8,8,9,9,10,10,11,11,12,12,13,13,14,14],"right_children":[2,4,6,8,10,12,14,16,18,20,22,24,26,28,30,-1,-1,-1,-1,-1,-1,-1,-1,-1,-1,-1,-1,-1,-1,-1,-1],"split_conditions":[1.1E0,1.136E2,1.28E-1,1.0254E2,2.5477405E3,1.0043E2,-9.2E0,9.674E1,1.46E-1,1.142E2,9.7955E1,1.2E0,1.96E1,4.4E1,1.6E-1,5.0831014E-1,1.1285499E-3,6.0211295E-1,-3.4030777E-1,-1.4254484E-1,-2.5087683E-2,-1.3316406E-1,-8.134419E-1,3.490435E-1,5.6168567E-2,-2.540966E-1,5.199523E-1,3.5552976E-1,-1.17509596E-1,3.195728E-2,-8.0002594E-1],"split_indices":[23,1,6,14,20,26,13,26,6,0,26,21,31,30,6,0,0,0,0,0,0,0,0,0,0,0,0,0,0,0,0],"split_type":[0,0,0,0,0,0,0,0,0,0,0,0,0,0,0,0,0,0,0,0,0,0,0,0,0,0,0,0,0,0,0],"sum_hessian":[2.37E3,1.351E3,1.019E3,3.77E2,9.74E2,2.09E2,8.1E2,3.65E2,1.2E1,9.65E2,9E0,1.55E2,5.4E1,7.2E1,7.38E2,8E0,3.57E2,1E1,2E0,6.43E2,3.22E2,2E0,7E0,3.9E1,1.16E2,8E0,4.6E1,5.4E1,1.8E1,7.35E2,3E0],"tree_param":{"num_deleted":"0","num_feature":"34","num_nodes":"31","size_leaf_vector":"1"}},{"base_weights":[-7.15579E-4,-1.6303139E0,1.1283637E0,7.713865E-1,-2.1785133E0,9.174985E-1,5.8223953E0,3.779337E0,-1.4919935E0,-4.9758224E0,-1.7090819E0,1.9969162E0,1.4096744E-1,1.5296375E0,8.641745E0,4.3649092E-1,7.2872723E-3,-1.0791159E-1,6.065585E-1,1.4173619E-2,-3.3151466E-1,-1.6091678E-1,-1.913607E-2,7.5729266E-2,2.795725E-1,-1.5522355E-3,2.671928E-1,2.5034106E-1,-5.157957E-1,5.8354396E-1,3.481783E-2],"categories":[],"categories_nodes":[],"categories_segments":[],"categories_sizes":[],"default_left":[0,0,0,0,0,0,0,0,0,0,0,0,0,0,0,0,0,0,0,0,0,0,0,0,0,0,0,0,0,0,0],"id":30,"left_children":[1,3,5,7,9,11,13,15,17,19,21,23,25,27,29,-1,-1,-1,-1,-1,-1,-1,-1,-1,-1,-1,-1,-1,-1,-1,-1],"loss_changes":[4.360672E3,1.2787925E3,1.3803892E3,1.2379111E3,1.0288806E3,1.1237466E3,7.1294824E2,1.4017937E3,9.7011414E2,9.851316E2,1.3559983E3,9.641675E2,6.9912976E2,1.0813789E3,8.583086E2,0E0,0E0,0E0,0E0,0E0,0E0,0E0,0E0,0E0,0E0,0E0,0E0,0E0,0E0,0E0,0E0],"parents":[2147483647,0,0,1,1,2,2,3,3,4,4,5,5,6,6,7,7,8,8,9,9,10,10,11,11,12,12,13,13,14,14],"right_children":[2,4,6,8,10,12,14,16,18,20,22,24,26,28,30,-1,-1,-1,-1,-1,-1,-1,-1,-1,-1,-1,-1,-1,-1,-1,-1],"split_conditions":[-1.4E0,2E0,1.196E2,1.39E-1,2E0,1.125E2,1.075E0,5.57E-1,5.78E-1,9.762E1,-6.3E0,5E0,1.21E1,2.5E0,1.176E2,4.3649092E-1,7.2872723E-3,-1.0791159E-1,6.065585E-1,1.4173619E-2,-3.3151466E-1,-1.6091678E-1,-1.913607E-2,7.5729266E-2,2.795725E-1,-1.5522355E-3,2.671928E-1,2.5034106E-1,-5.157957E-1,5.8354396E-1,3.481783E-2],"split_indices":[23,18,12,6,7,1,29,15,15,14,23,9,23,21,0,0,0,0,0,0,0,0,0,0,0,0,0,0,0,0,0],"split_type":[0,0,0,0,0,0,0,0,0,0,0,0,0,0,0,0,0,0,0,0,0,0,0,0,0,0,0,0,0,0,0],"sum_hessian":[2.368E3,9.69E2,1.399E3,1.8E2,7.89E2,1.34E3,5.9E1,7.7E1,1.03E2,1.12E2,6.77E2,5.6E2,7.8E2,2.4E1,3.5E1,3.2E1,4.5E1,9.9E1,4E0,2.7E1,8.5E1,3.16E2,3.61E2,4.95E2,6.5E1,7.56E2,2.4E1,1.9E1,5E0,2.5E1,1E1],"tree_param":{"num_deleted":"0","num_feature":"34","num_nodes":"31","size_leaf_vector":"1"}},{"base_weights":[-2.6183326E-2,-1.2625208E0,1.62755E0,-2.6267703E0,-5.6464535E-1,1.0744374E0,3.8593252E0,-6.267662E0,-2.2372346E0,4.8978286E0,-8.434642E-1,8.888684E-1,1.597952E1,1.5397589E1,3.4883153E0,-2.0089667E-1,-7.285085E-1,-5.66681E-2,-2.0908049E-1,-1.03193976E-1,3.373475E-1,-7.859981E-2,3.5601925E-2,4.0671464E-2,1.0442859E0,1.7283295E-1,8.493438E-1,9.056304E-1,4.556222E-2,2.0884721E-1,-1.24097705E-1],"categories":[],"categories_nodes":[],"categories_segments":[],"categories_sizes":[],"default_left":[0,0,0,0,0,0,0,0,0,0,0,0,0,0,0,0,0,0,0,0,0,0,0,0,0,0,0,0,0,0,0],"id":31,"left_children":[1,3,5,7,9,11,13,15,17,19,21,23,25,27,29,-1,-1,-1,-1,-1,-1,-1,-1,-1,-1,-1,-1,-1,-1,-1,-1],"loss_changes":[4.870182E3,1.296197E3,1.2537305E3,6.3979443E2,1.3794369E3,2.2483188E3,8.110115E2,7.633074E2,8.924319E2,5.8033875E2,9.757002E2,1.2034246E3,6.7431885E1,2.1947925E2,8.202932E2,0E0,0E0,0E0,0E0,0E0,0E0,0E0,0E0,0E0,0E0,0E0,0E0,0E0,0E0,0E0,0E0],"parents":[2147483647,0,0,1,1,2,2,3,3,4,4,5,5,6,6,7,7,8,8,9,9,10,10,11,11,12,12,13,13,14,14],"right_children":[2,4,6,8,10,12,14,16,18,20,22,24,26,28,30,-1,-1,-1,-1,-1,-1,-1,-1,-1,-1,-1,-1,-1,-1,-1,-1],"split_conditions":[1.1E0,1.123E2,1.06E1,2.196E2,2.267E2,1.0361E2,1.044E0,2.192E2,3.1E0,9.688E1,1.0011E2,2.405E2,1.068E2,9.822E1,1.7708461E3,-2.0089667E-1,-7.285085E-1,-5.66681E-2,-2.0908049E-1,-1.03193976E-1,3.373475E-1,-7.859981E-2,3.5601925E-2,4.0671464E-2,1.0442859E0,1.7283295E-1,8.493438E-1,9.056304E-1,4.556222E-2,2.0884721E-1,-1.24097705E-1],"split_indices":[23,0,23,27,27,3,29,27,13,14,26,27,11,3,20,0,0,0,0,0,0,0,0,0,0,0,0,0,0,0,0],"split_type":[0,0,0,0,0,0,0,0,0,0,0,0,0,0,0,0,0,0,0,0,0,0,0,0,0,0,0,0,0,0,0],"sum_hessian":[2.38E3,1.362E3,1.018E3,4.6E2,9.02E2,8.17E2,2.01E2,4.3E1,4.17E2,4.3E1,8.59E2,8.08E2,9E0,5E0,1.96E2,3.5E1,8E0,2.67E2,1.5E2,9E0,3.4E1,5.85E2,2.74E2,8.06E2,2E0,1E0,8E0,4E0,1E0,1.76E2,2E1],"tree_param":{"num_deleted":"0","num_feature":"34","num_nodes":"31","size_leaf_vector":"1"}},{"base_weights":[-7.377028E-2,-2.3692436E0,6.508198E-1,-2.1869967E0,-1.1349035E1,2.1593382E0,1.0427561E-1,1.2448297E0,-2.5899963E0,-1.7044984E0,-1.3302877E1,5.6388745E0,1.4315374E0,-1.2642683E-1,4.148223E0,1.0365925E-1,-7.4544317E-1,-7.8936525E-2,-2.0545684E-1,-1.3110344E-1,3.2660605E-3,-1.2932657E-1,-7.159552E-1,7.546594E-2,3.9349827E-1,6.595666E-2,1.1429691E0,1.1005687E-1,-3.294207E-2,-9.2259794E-2,3.5292554E-1],"categories":[],"categories_nodes":[],"categories_segments":[],"categories_sizes":[],"default_left":[0,0,0,0,0,0,0,0,0,0,0,0,0,0,0,0,0,0,0,0,0,0,0,0,0,0,0,0,0,0,0],"id":32,"left_children":[1,3,5,7,9,11,13,15,17,19,21,23,25,27,29,-1,-1,-1,-1,-1,-1,-1,-1,-1,-1,-1,-1,-1,-1,-1,-1],"loss_changes":[3.9168962E3,8.998237E2,1.4755796E3,7.7080273E2,1.8460803E2,1.1973545E3,1.2273517E3,8.203876E2,7.5703125E2,5.0430784E0,6.097534E1,7.436216E2,9.212338E2,1.5442905E3,1.251447E3,0E0,0E0,0E0,0E0,0E0,0E0,0E0,0E0,0E0,0E0,0E0,0E0,0E0,0E0,0E0,0E0],"parents":[2147483647,0,0,1,1,2,2,3,3,4,4,5,5,6,6,7,7,8,8,9,9,10,10,11,11,12,12,13,13,14,14],"right_children":[2,4,6,8,10,12,14,16,18,20,22,24,26,28,30,-1,-1,-1,-1,-1,-1,-1,-1,-1,-1,-1,-1,-1,-1,-1,-1],"split_conditions":[-4.8E0,-4.9E0,5.66E-1,1.135E2,1.118E2,1.115E2,4E0,3.3E0,3.8E0,1.076E2,1E0,9.824E1,2.5157292E3,2E0,9.798E1,1.0365925E-1,-7.4544317E-1,-7.8936525E-2,-2.0545684E-1,-1.3110344E-1,3.2660605E-3,-1.2932657E-1,-7.159552E-1,7.546594E-2,3.9349827E-1,6.595666E-2,1.1429691E0,1.1005687E-1,-3.294207E-2,-9.2259794E-2,3.5292554E-1],"split_indices":[23,23,16,11,0,1,7,9,21,0,9,14,20,18,3,0,0,0,0,0,0,0,0,0,0,0,0,0,0,0,0],"split_type":[0,0,0,0,0,0,0,0,0,0,0,0,0,0,0,0,0,0,0,0,0,0,0,0,0,0,0,0,0,0,0],"sum_hessian":[2.353E3,5.64E2,1.789E3,5.54E2,1E1,4.75E2,1.314E3,5.8E1,4.96E2,2E0,8E0,8.1E1,3.94E2,1.244E3,7E1,5.6E1,2E0,2.99E2,1.97E2,1E0,1E0,1E0,7E0,2.9E1,5.2E1,3.93E2,1E0,2.31E2,1.013E3,2.3E1,4.7E1],"tree_param":{"num_deleted":"0","num_feature":"34","num_nodes":"31","size_leaf_vector":"1"}},{"base_weights":[-5.68541E-2,-1.2920669E0,1.2226725E0,-2.5810814E0,-4.4850355E-1,2.388796E0,5.9679914E-1,-3.366342E0,-6.882334E-1,2.1136293E0,-1.2832739E0,1.7634374E0,8.113646E0,1.2837414E-1,3.894146E0,-1.404554E-1,-4.1412207E-1,-1.5695324E-2,-8.963706E-1,3.7408364E-1,3.4119222E-2,-4.8174962E-2,-3.1561658E-1,1.4765774E-1,-3.0730786E-3,1.5815333E-1,8.540822E-1,-2.7921552E-2,8.960853E-2,2.7929936E-2,2.7125177E-1],"categories":[],"categories_nodes":[],"categories_segments":[],"categories_sizes":[],"default_left":[0,0,0,0,0,0,0,0,0,0,0,0,0,0,0,0,0,0,0,0,0,0,0,0,0,0,0,0,0,0,0],"id":33,"left_children":[1,3,5,7,9,11,13,15,17,19,21,23,25,27,29,-1,-1,-1,-1,-1,-1,-1,-1,-1,-1,-1,-1,-1,-1,-1,-1],"loss_changes":[3.7710427E3,1.318904E3,8.539536E2,7.1114526E2,1.5747251E3,1.4499468E3,1.1795436E3,9.053965E2,9.1071106E2,1.3855149E3,8.864498E2,8.0349365E2,1.7218408E3,7.666125E2,4.8207312E2,0E0,0E0,0E0,0E0,0E0,0E0,0E0,0E0,0E0,0E0,0E0,0E0,0E0,0E0,0E0,0E0],"parents":[2147483647,0,0,1,1,2,2,3,3,4,4,5,5,6,6,7,7,8,8,9,9,10,10,11,11,12,12,13,13,14,14],"right_children":[2,4,6,8,10,12,14,16,18,20,22,24,26,28,30,-1,-1,-1,-1,-1,-1,-1,-1,-1,-1,-1,-1,-1,-1,-1,-1],"split_conditions":[2E-1,-3.3E0,2.267E2,2.331E2,5.78E-1,1.00865E2,6.34E-1,2.325E2,2.325E2,2E0,1.178E2,3.8E0,9E-1,1.181E2,6.908551E2,-1.404554E-1,-4.1412207E-1,-1.5695324E-2,-8.963706E-1,3.7408364E-1,3.4119222E-2,-4.8174962E-2,-3.1561658E-1,1.4765774E-1,-3.0730786E-3,1.5815333E-1,8.540822E-1,-2.7921552E-2,8.960853E-2,2.7929936E-2,2.7125177E-1],"split_indices":[23,2,28,28,16,26,10,28,27,18,0,9,13,12,20,0,0,0,0,0,0,0,0,0,0,0,0,0,0,0,0],"split_type":[0,0,0,0,0,0,0,0,0,0,0,0,0,0,0,0,0,0,0,0,0,0,0,0,0,0,0,0,0,0,0],"sum_hessian":[2.384E3,1.213E3,1.171E3,4.79E2,7.34E2,4.08E2,7.63E2,3.38E2,1.41E2,1.8E2,5.54E2,3.69E2,3.9E1,6.69E2,9.4E1,3.05E2,3.3E1,1.39E2,2E0,3.7E1,1.43E2,5.22E2,3.2E1,2.23E2,1.46E2,2.6E1,1.3E1,4.74E2,1.95E2,3E1,6.4E1],"tree_param":{"num_deleted":"0","num_feature":"34","num_nodes":"31","size_leaf_vector":"1"}},{"base_weights":[1.2627196E-1,-5.00649E-1,2.2617784E0,1.2824074E0,-9.05063E-1,2.0800006E0,8.890923E0,-7.871428E0,1.9757713E0,-1.0698433E0,3.1789122E0,2.2839062E0,-5.4965606E0,-3.0179036E-1,2.119817E1,-5.810403E-1,-1.9024844E-1,1.9350992E-1,-6.694977E-3,-2.0760122E-1,-4.2263072E-2,2.6869968E-1,-1.2156125E-1,1.672266E-1,6.050823E-2,-5.509579E-1,-6.0204983E-2,2.6578203E-1,-4.3262443E-1,-8.021221E-2,1.3039751E0],"categories":[],"categories_nodes":[],"categories_segments":[],"categories_sizes":[],"default_left":[0,0,0,0,0,0,0,0,0,0,0,0,0,0,0,0,0,0,0,0,0,0,0,0,0,0,0,0,0,0,0],"id":34,"left_children":[1,3,5,7,9,11,13,15,17,19,21,23,25,27,29,-1,-1,-1,-1,-1,-1,-1,-1,-1,-1,-1,-1,-1,-1,-1,-1],"loss_changes":[3.1620242E3,1.3178765E3,6.274038E2,2.1608176E3,1.00543677E3,8.205376E2,1.5903152E3,3.2170398E2,1.2594525E3,9.8772375E2,7.273183E2,5.7676025E2,3.1860928E2,4.6817877E2,7.0967505E2,0E0,0E0,0E0,0E0,0E0,0E0,0E0,0E0,0E0,0E0,0E0,0E0,0E0,0E0,0E0,0E0],"parents":[2147483647,0,0,1,1,2,2,3,3,4,4,5,5,6,6,7,7,8,8,9,9,10,10,11,11,12,12,13,13,14,14],"right_children":[2,4,6,8,10,12,14,16,18,20,22,24,26,28,30,-1,-1,-1,-1,-1,-1,-1,-1,-1,-1,-1,-1,-1,-1,-1,-1],"split_conditions":[5.1E0,2E0,1.168E2,-1.19E1,1.0177E2,1.157E2,3.3E0,1.32E-1,2.281E2,2.32E-1,3E0,-6.1E-1,1.101E0,3.3E0,3.3E0,-5.810403E-1,-1.9024844E-1,1.9350992E-1,-6.694977E-3,-2.0760122E-1,-4.2263072E-2,2.6869968E-1,-1.2156125E-1,1.672266E-1,6.050823E-2,-5.509579E-1,-6.0204983E-2,2.6578203E-1,-4.3262443E-1,-8.021221E-2,1.3039751E0],"split_indices":[23,18,11,23,26,11,21,17,28,10,18,24,29,9,9,0,0,0,0,0,0,0,0,0,0,0,0,0,0,0,0],"split_type":[0,0,0,0,0,0,0,0,0,0,0,0,0,0,0,0,0,0,0,0,0,0,0,0,0,0,0,0,0,0,0],"sum_hessian":[2.36E3,1.825E3,5.35E2,3.37E2,1.488E3,5.22E2,1.3E1,2.3E1,3.14E2,1.431E3,5.7E1,5.09E2,1.3E1,8E0,5E0,1.1E1,1.2E1,1.65E2,1.49E2,9.6E1,1.335E3,4.1E1,1.6E1,2.55E2,2.54E2,5E0,8E0,5E0,3E0,1E0,4E0],"tree_param":{"num_deleted":"0","num_feature":"34","num_nodes":"31","size_leaf_vector":"1"}},{"base_weights":[-6.6241056E-2,-9.731811E-1,1.1669053E0,-3.6952481E0,-5.92816E-1,5.6869555E-1,3.617008E0,-4.448773E0,4.3250343E-1,8.0694044E-1,-1.2454317E0,1.6633272E0,-8.464133E-1,2.0854268E0,8.020705E0,-1.6093045E-1,-5.721086E-1,1.8332052E-1,-2.3023358E-1,1.8119598E-2,2.2694074E-1,-4.528343E-2,-2.8673038E-1,2.1593037E-1,2.2175992E-2,-1.481589E-1,4.2456213E-2,1.6661894E-1,-1.7111005E-1,4.643735E-1,-2.745509E-1],"categories":[],"categories_nodes":[],"categories_segments":[],"categories_sizes":[],"default_left":[0,0,0,0,0,0,0,0,0,0,0,0,0,0,0,0,0,0,0,0,0,0,0,0,0,0,0,0,0,0,0],"id":35,"left_children":[1,3,5,7,9,11,13,15,17,19,21,23,25,27,29,-1,-1,-1,-1,-1,-1,-1,-1,-1,-1,-1,-1,-1,-1,-1,-1],"loss_changes":[2.6785608E3,1.4266328E3,1.4856034E3,5.2757544E2,1.1081707E3,1.2669596E3,1.3254526E3,1.193405E3,4.5670602E2,6.3872876E2,1.2561934E3,1.4912314E3,1.2838082E3,1.0346985E3,9.239219E2,0E0,0E0,0E0,0E0,0E0,0E0,0E0,0E0,0E0,0E0,0E0,0E0,0E0,0E0,0E0,0E0],"parents":[2147483647,0,0,1,1,2,2,3,3,4,4,5,5,6,6,7,7,8,8,9,9,10,10,11,11,12,12,13,13,14,14],"right_children":[2,4,6,8,10,12,14,16,18,20,22,24,26,28,30,-1,-1,-1,-1,-1,-1,-1,-1,-1,-1,-1,-1,-1,-1,-1,-1],"split_conditions":[1.1E0,2E0,1.184E2,1E0,5.48E-1,-9E-2,3.2E-1,1.0155E2,1.135E2,5.63E-1,2.1404849E3,3E0,4.39E-1,2.5E0,1.0307E2,-1.6093045E-1,-5.721086E-1,1.8332052E-1,-2.3023358E-1,1.8119598E-2,2.2694074E-1,-4.528343E-2,-2.8673038E-1,2.1593037E-1,2.2175992E-2,-1.481589E-1,4.2456213E-2,1.6661894E-1,-1.7111005E-1,4.643735E-1,-2.745509E-1],"split_indices":[23,21,12,19,15,24,24,14,0,4,20,9,22,21,3,0,0,0,0,0,0,0,0,0,0,0,0,0,0,0,0],"split_type":[0,0,0,0,0,0,0,0,0,0,0,0,0,0,0,0,0,0,0,0,0,0,0,0,0,0,0,0,0,0,0],"sum_hessian":[2.393E3,1.379E3,1.014E3,1.68E2,1.211E3,8.16E2,1.98E2,1.42E2,2.6E1,3.85E2,8.26E2,4.6E2,3.56E2,1.48E2,5E1,1.22E2,2E1,1.6E1,1E1,3.45E2,4E1,7.69E2,5.7E1,1.44E2,3.16E2,1.58E2,1.98E2,1.21E2,2.7E1,4.6E1,4E0],"tree_param":{"num_deleted":"0","num_feature":"34","num_nodes":"31","size_leaf_vector":"1"}},{"base_weights":[3.359355E-2,1.1504511E0,-8.249055E-1,-1.7158401E0,1.6699618E0,-2.9948847E0,-4.280483E-1,-1.1738819E0,-1.5159474E1,3.9965928E0,1.1150395E0,-2.371996E0,-8.339626E0,1.6960256E0,-9.8302156E-1,-2.9165953E-2,-4.007586E-1,-1.0837454E0,-7.095371E-2,9.3297206E-2,4.451189E-1,2.9896414E-2,2.499347E-1,-1.431467E-1,3.252857E-1,-6.27559E-1,-1.6849622E-1,2.2649501E-1,7.803337E-3,-5.364693E-2,6.2292844E-1],"categories":[],"categories_nodes":[],"categories_segments":[],"categories_sizes":[],"default_left":[0,0,0,0,0,0,0,0,0,0,0,0,0,0,0,0,0,0,0,0,0,0,0,0,0,0,0,0,0,0,0],"id":36,"left_children":[1,3,5,7,9,11,13,15,17,19,21,23,25,27,29,-1,-1,-1,-1,-1,-1,-1,-1,-1,-1,-1,-1,-1,-1,-1,-1],"loss_changes":[2.2503435E3,1.5217157E3,1.1414932E3,1.126089E3,1.1110535E3,6.6270044E2,1.3254642E3,6.0943677E2,5.0638953E2,1.7185044E3,1.4007997E3,8.2493054E2,3.9723706E2,1.0161168E3,1.0902551E3,0E0,0E0,0E0,0E0,0E0,0E0,0E0,0E0,0E0,0E0,0E0,0E0,0E0,0E0,0E0,0E0],"parents":[2147483647,0,0,1,1,2,2,3,3,4,4,5,5,6,6,7,7,8,8,9,9,10,10,11,11,12,12,13,13,14,14],"right_children":[2,4,6,8,10,12,14,16,18,20,22,24,26,28,30,-1,-1,-1,-1,-1,-1,-1,-1,-1,-1,-1,-1,-1,-1,-1,-1],"split_conditions":[5.42E-1,1.105E2,2E0,5E0,2E0,1.018E2,2.249E2,1.073E0,1.2E0,1.092E0,1.191E2,1.189E2,9.379631E2,5.78E-1,6E0,-2.9165953E-2,-4.007586E-1,-1.0837454E0,-7.095371E-2,9.3297206E-2,4.451189E-1,2.9896414E-2,2.499347E-1,-1.431467E-1,3.252857E-1,-6.27559E-1,-1.6849622E-1,2.2649501E-1,7.803337E-3,-5.364693E-2,6.2292844E-1],"split_indices":[15,0,7,21,18,3,28,29,9,29,12,0,20,5,18,0,0,0,0,0,0,0,0,0,0,0,0,0,0,0,0],"split_type":[0,0,0,0,0,0,0,0,0,0,0,0,0,0,0,0,0,0,0,0,0,0,0,0,0,0,0,0,0,0,0],"sum_hessian":[2.345E3,1.019E3,1.326E3,1.56E2,8.63E2,2.04E2,1.122E3,1.51E2,5E0,1.65E2,6.98E2,1.84E2,2E1,2.32E2,8.9E2,1.4E2,1.1E1,3E0,2E0,1.16E2,4.9E1,6.17E2,8.1E1,1.75E2,9E0,1E1,1E1,8.1E1,1.51E2,8.85E2,5E0],"tree_param":{"num_deleted":"0","num_feature":"34","num_nodes":"31","size_leaf_vector":"1"}},{"base_weights":[-1.755023E-1,-2.276836E0,3.8419804E-1,5.0978866E0,-2.48502E0,3.837781E-2,3.3042638E0,-1.7983863E0,1.2251072E1,-2.3059247E0,-1.0761458E1,-1.8469213E0,3.771466E-1,-5.2422453E-2,4.983004E0,6.684293E-1,-2.9374474E-1,7.5988096E-1,1.6282342E-1,-7.339371E-2,-1.9168065E-1,-1.7845994E-1,-7.480716E-1,-1.2835677E-1,2.1649829E-1,3.1721212E-2,-9.888999E-2,-3.6138613E-2,1.1047666E0,-7.46334E-1,2.702064E-1],"categories":[],"categories_nodes":[],"categories_segments":[],"categories_sizes":[],"default_left":[0,0,0,0,0,0,0,0,0,0,0,0,0,0,0,0,0,0,0,0,0,0,0,0,0,0,0,0,0,0,0],"id":37,"left_children":[1,3,5,7,9,11,13,15,17,19,21,23,25,27,29,-1,-1,-1,-1,-1,-1,-1,-1,-1,-1,-1,-1,-1,-1,-1,-1],"loss_changes":[2.7847441E3,7.772473E2,1.8882325E3,7.126566E2,6.940869E2,1.069209E3,1.1159922E3,5.7316534E2,1.3603052E2,6.0378613E2,2.4867273E2,1.1455293E3,8.6099146E2,1.0107016E3,1.1874109E3,0E0,0E0,0E0,0E0,0E0,0E0,0E0,0E0,0E0,0E0,0E0,0E0,0E0,0E0,0E0,0E0],"parents":[2147483647,0,0,1,1,2,2,3,3,4,4,5,5,6,6,7,7,8,8,9,9,10,10,11,11,12,12,13,13,14,14],"right_children":[2,4,6,8,10,12,14,16,18,20,22,24,26,28,30,-1,-1,-1,-1,-1,-1,-1,-1,-1,-1,-1,-1,-1,-1,-1,-1],"split_conditions":[1.123E2,-9.2E0,1.52E-1,3.8E0,1.58E-1,2E0,2.245E2,2E0,1.118E2,1.162E2,5.21E-1,5.72E1,6.03E-1,2.5922083E3,-5.6E0,6.684293E-1,-2.9374474E-1,7.5988096E-1,1.6282342E-1,-7.339371E-2,-1.9168065E-1,-1.7845994E-1,-7.480716E-1,-1.2835677E-1,2.1649829E-1,3.1721212E-2,-9.888999E-2,-3.6138613E-2,1.1047666E0,-7.46334E-1,2.702064E-1],"split_indices":[0,13,17,23,17,7,27,18,0,11,4,31,16,20,23,0,0,0,0,0,0,0,0,0,0,0,0,0,0,0,0],"split_type":[0,0,0,0,0,0,0,0,0,0,0,0,0,0,0,0,0,0,0,0,0,0,0,0,0,0,0,0,0,0,0],"sum_hessian":[2.366E3,4.97E2,1.869E3,1.3E1,4.84E2,1.672E3,1.97E2,7E0,6E0,4.75E2,9E0,2.54E2,1.418E3,6.6E1,1.31E2,1E0,6E0,4E0,2E0,3.08E2,1.67E2,4E0,5E0,2.28E2,2.6E1,1.279E3,1.39E2,6.5E1,1E0,2E0,1.29E2],"tree_param":{"num_deleted":"0","num_feature":"34","num_nodes":"31","size_leaf_vector":"1"}},{"base_weights":[5.234456E-2,-2.6799884E-1,3.605424E0,-1.62431E0,1.8985894E-1,1.5452533E0,5.5075107E0,-3.335345E0,-2.814023E-1,-1.1869098E-2,3.424003E0,2.0577955E0,-8.092065E0,7.2968187E0,-5.372208E-1,-1.318364E-1,-8.1946707E-1,-4.211068E-1,3.914788E-3,1.0033163E-1,-2.4494128E-2,5.4543283E-2,4.1028067E-1,2.0119146E-1,-6.78275E-2,-5.1656008E-2,-4.7992608E-1,5.9663117E-1,2.1548286E-1,1.0915972E-1,-4.5311663E-1],"categories":[],"categories_nodes":[],"categories_segments":[],"categories_sizes":[],"default_left":[0,0,0,0,0,0,0,0,0,0,0,0,0,0,0,0,0,0,0,0,0,0,0,0,0,0,0,0,0,0,0],"id":38,"left_children":[1,3,5,7,9,11,13,15,17,19,21,23,25,27,29,-1,-1,-1,-1,-1,-1,-1,-1,-1,-1,-1,-1,-1,-1,-1,-1],"loss_changes":[2.6837168E3,1.3435264E3,7.5562085E2,1.2536395E3,1.0556522E3,4.859074E2,1.0963254E3,2.145524E3,8.996186E2,1.4714463E3,1.0508834E3,6.163159E2,4.325351E1,1.02871E3,5.76389E2,0E0,0E0,0E0,0E0,0E0,0E0,0E0,0E0,0E0,0E0,0E0,0E0,0E0,0E0,0E0,0E0],"parents":[2147483647,0,0,1,1,2,2,3,3,4,4,5,5,6,6,7,7,8,8,9,9,10,10,11,11,12,12,13,13,14,14],"right_children":[2,4,6,8,10,12,14,16,18,20,22,24,26,28,30,-1,-1,-1,-1,-1,-1,-1,-1,-1,-1,-1,-1,-1,-1,-1,-1],"split_conditions":[1.06E1,-4.8E0,1.17E2,1.2E0,4E0,3.17E-1,5.35E-1,4.45E1,5.25E-1,2E0,1.165E2,9.946E1,1E0,1.3E-1,1.222E2,-1.318364E-1,-8.1946707E-1,-4.211068E-1,3.914788E-3,1.0033163E-1,-2.4494128E-2,5.4543283E-2,4.1028067E-1,2.0119146E-1,-6.78275E-2,-5.1656008E-2,-4.7992608E-1,5.9663117E-1,2.1548286E-1,1.0915972E-1,-4.5311663E-1],"split_indices":[23,23,0,9,7,22,15,30,15,18,0,3,9,6,0,0,0,0,0,0,0,0,0,0,0,0,0,0,0,0,0],"split_type":[0,0,0,0,0,0,0,0,0,0,0,0,0,0,0,0,0,0,0,0,0,0,0,0,0,0,0,0,0,0,0],"sum_hessian":[2.356E3,2.162E3,1.94E2,5.45E2,1.617E3,9.4E1,1E2,2.39E2,3.06E2,1.523E3,9.4E1,9E1,4E0,7.7E1,2.3E1,2.28E2,1.1E1,1.2E1,2.94E2,2.91E2,1.232E3,6.4E1,3E1,5.7E1,3.3E1,1E0,3E0,2.9E1,4.8E1,1.8E1,5E0],"tree_param":{"num_deleted":"0","num_feature":"34","num_nodes":"31","size_leaf_vector":"1"}},{"base_weights":[1.3383913E-1,-1.555346E0,6.7321485E-1,-1.1935627E0,-6.5978312E0,9.68227E0,5.998352E-1,-9.848346E-1,-9.947649E0,-1.5638163E1,-2.1716082E0,1.4731892E1,4.9412513E-1,7.8873247E-1,-2.3879976E0,-8.84947E-2,6.1268408E-2,-6.642577E-2,-5.769312E-1,-2.5532576E-1,-1.1215633E0,-1.913095E-1,5.894457E-1,2.8564915E-1,8.246291E-1,1.7446318E-1,-1.8320505E-1,2.9362723E-2,1.945223E-1,5.861506E-1,-1.9318824E-1],"categories":[],"categories_nodes":[],"categories_segments":[],"categories_sizes":[],"default_left":[0,0,0,0,0,0,0,0,0,0,0,0,0,0,0,0,0,0,0,0,0,0,0,0,0,0,0,0,0,0,0],"id":39,"left_children":[1,3,5,7,9,11,13,15,17,19,21,23,25,27,29,-1,-1,-1,-1,-1,-1,-1,-1,-1,-1,-1,-1,-1,-1,-1,-1],"loss_changes":[2.0929453E3,1.0064287E3,1.1451343E3,9.4035956E2,1.4465771E3,6.422738E2,9.7715546E2,8.853552E2,1.4922461E2,7.4396533E2,6.45676E2,4.8693726E1,8.751179E1,1.0138467E3,2.1902246E3,0E0,0E0,0E0,0E0,0E0,0E0,0E0,0E0,0E0,0E0,0E0,0E0,0E0,0E0,0E0,0E0],"parents":[2147483647,0,0,1,1,2,2,3,3,4,4,5,5,6,6,7,7,8,8,9,9,10,10,11,11,12,12,13,13,14,14],"right_children":[2,4,6,8,10,12,14,16,18,20,22,24,26,28,30,-1,-1,-1,-1,-1,-1,-1,-1,-1,-1,-1,-1,-1,-1,-1,-1],"split_conditions":[-4.8E0,4.54E1,9.674E1,-4.9E0,1.2E0,1.13E2,2.2401733E3,5.66E-1,1.118E2,4.26E1,1.46E-1,1.31E-1,2.5E0,4E0,9.7715E1,-8.84947E-2,6.1268408E-2,-6.642577E-2,-5.769312E-1,-2.5532576E-1,-1.1215633E0,-1.913095E-1,5.894457E-1,2.8564915E-1,8.246291E-1,1.7446318E-1,-1.8320505E-1,2.9362723E-2,1.945223E-1,5.861506E-1,-1.9318824E-1],"split_indices":[23,30,26,23,9,12,20,15,0,31,17,6,21,7,26,0,0,0,0,0,0,0,0,0,0,0,0,0,0,0,0],"split_type":[0,0,0,0,0,0,0,0,0,0,0,0,0,0,0,0,0,0,0,0,0,0,0,0,0,0,0,0,0,0,0],"sum_hessian":[2.295E3,5.55E2,1.74E3,5.19E2,3.6E1,1.3E1,1.727E3,5.08E2,1.1E1,1.1E1,2.5E1,8E0,5E0,1.625E3,1.02E2,3.75E2,1.33E2,2E0,9E0,5E0,6E0,2.3E1,2E0,2E0,6E0,3E0,2E0,1.527E3,9.8E1,9E0,9.3E1],"tree_param":{"num_deleted":"0","num_feature":"34","num_nodes":"31","size_leaf_vector":"1"}},{"base_weights":[8.1336595E-2,-8.731577E-1,1.0464668E0,-2.984057E0,-4.846039E-1,8.123366E-1,4.5699005E0,-3.9773402E0,4.2158666E-1,-2.806239E0,-2.7533825E-2,9.062027E-1,-9.397042E0,1.2849707E1,2.165571E0,-2.3010314E-2,-2.6828542E-1,1.7073251E-1,-1.520758E-1,-6.959174E-1,-8.343681E-2,1.15109086E-1,-2.4806716E-2,2.6101261E-2,1.5080169E-1,-8.053115E-2,-1.0337008E0,9.5159495E-1,2.1442638E-1,3.0979615E-1,-2.724098E-2],"categories":[],"categories_nodes":[],"categories_segments":[],"categories_sizes":[],"default_left":[0,0,0,0,0,0,0,0,0,0,0,0,0,0,0,0,0,0,0,0,0,0,0,0,0,0,0,0,0,0,0],"id":40,"left_children":[1,3,5,7,9,11,13,15,17,19,21,23,25,27,29,-1,-1,-1,-1,-1,-1,-1,-1,-1,-1,-1,-1,-1,-1,-1,-1],"loss_changes":[2.147336E3,9.5982587E2,9.5239575E2,6.173407E2,1.0515221E3,1.0511611E3,1.4055045E3,6.860442E2,4.4572775E2,2.0371028E3,9.061663E2,8.7300824E2,8.447742E2,7.6521094E2,6.260339E2,0E0,0E0,0E0,0E0,0E0,0E0,0E0,0E0,0E0,0E0,0E0,0E0,0E0,0E0,0E0,0E0],"parents":[2147483647,0,0,1,1,2,2,3,3,4,4,5,5,6,6,7,7,8,8,9,9,10,10,11,11,12,12,13,13,14,14],"right_children":[2,4,6,8,10,12,14,16,18,20,22,24,26,28,30,-1,-1,-1,-1,-1,-1,-1,-1,-1,-1,-1,-1,-1,-1,-1,-1],"split_conditions":[2E-1,-1.06E1,5.66E-1,1.0062E2,2E0,1.176E2,5.85E-1,2.242E2,1.096E0,1.118E2,1.109E2,6.95E-1,9.7865E1,5.78E-1,3.65E1,-2.3010314E-2,-2.6828542E-1,1.7073251E-1,-1.520758E-1,-6.959174E-1,-8.343681E-2,1.15109086E-1,-2.4806716E-2,2.6101261E-2,1.5080169E-1,-8.053115E-2,-1.0337008E0,9.5159495E-1,2.1442638E-1,3.0979615E-1,-2.724098E-2],"split_indices":[23,23,15,14,7,11,10,27,29,1,12,10,26,5,30,0,0,0,0,0,0,0,0,0,0,0,0,0,0,0,0],"split_type":[0,0,0,0,0,0,0,0,0,0,0,0,0,0,0,0,0,0,0,0,0,0,0,0,0,0,0,0,0,0,0],"sum_hessian":[2.329E3,1.171E3,1.158E3,1.81E2,9.9E2,1.087E3,7.1E1,1.4E2,4.1E1,1.62E2,8.28E2,1.078E3,9E0,1.5E1,5.6E1,4E1,1E2,2.2E1,1.9E1,1.4E1,1.48E2,1.38E2,6.9E2,9.13E2,1.65E2,6E0,3E0,8E0,7E0,2.2E1,3.4E1],"tree_param":{"num_deleted":"0","num_feature":"34","num_nodes":"31","size_leaf_vector":"1"}},{"base_weights":[-3.45297E-2,-1.0483667E0,1.021654E0,-6.023947E0,-9.022567E-1,-1.4553765E0,1.3415228E0,-9.227333E0,6.178733E-1,-6.4848727E-1,-3.926187E0,4.0951166E0,-2.2019792E0,1.1204151E0,4.795635E0,-9.164127E-2,-6.173939E-1,1.8393622E-1,-2.2015317E-1,-1.626932E-1,-9.324934E-3,1.2613815E-1,-2.731278E-1,2.6496825E-1,-3.4921518E-1,-6.4411126E-2,-3.7506205E-1,3.37899E-2,1.4641212E-1,7.619876E-2,5.7131696E-1],"categories":[],"categories_nodes":[],"categories_segments":[],"categories_sizes":[],"default_left":[0,0,0,0,0,0,0,0,0,0,0,0,0,0,0,0,0,0,0,0,0,0,0,0,0,0,0,0,0,0,0],"id":41,"left_children":[1,3,5,7,9,11,13,15,17,19,21,23,25,27,29,-1,-1,-1,-1,-1,-1,-1,-1,-1,-1,-1,-1,-1,-1,-1,-1],"loss_changes":[2.5142341E3,8.654889E2,9.131261E2,7.2909607E2,8.914531E2,5.560271E2,7.72869E2,5.080912E2,2.0061774E2,1.294525E3,9.054978E2,2.5049033E2,5.568783E2,7.688563E2,1.3058844E3,0E0,0E0,0E0,0E0,0E0,0E0,0E0,0E0,0E0,0E0,0E0,0E0,0E0,0E0,0E0,0E0],"parents":[2147483647,0,0,1,1,2,2,3,3,4,4,5,5,6,6,7,7,8,8,9,9,10,10,11,11,12,12,13,13,14,14],"right_children":[2,4,6,8,10,12,14,16,18,20,22,24,26,28,30,-1,-1,-1,-1,-1,-1,-1,-1,-1,-1,-1,-1,-1,-1,-1,-1],"split_conditions":[2E-1,1E0,9.744E1,3.63E1,5.91E1,2.222E2,6.1E-1,5.3E-1,6E-1,2E0,2E0,4E0,6.06E-1,1.06E1,3E0,-9.164127E-2,-6.173939E-1,1.8393622E-1,-2.2015317E-1,-1.626932E-1,-9.324934E-3,1.2613815E-1,-2.731278E-1,2.6496825E-1,-3.4921518E-1,-6.4411126E-2,-3.7506205E-1,3.37899E-2,1.4641212E-1,7.619876E-2,5.7131696E-1],"split_indices":[23,21,14,30,31,28,22,15,5,7,7,7,5,23,23,0,0,0,0,0,0,0,0,0,0,0,0,0,0,0,0],"split_type":[0,0,0,0,0,0,0,0,0,0,0,0,0,0,0,0,0,0,0,0,0,0,0,0,0,0,0,0,0,0,0],"sum_hessian":[2.346E3,1.197E3,1.149E3,3.3E1,1.164E3,1.31E2,1.018E3,2.2E1,1.1E1,1.075E3,8.9E1,1.5E1,1.16E2,9.58E2,6E1,7E0,1.5E1,7E0,4E0,1.61E2,9.14E2,1.7E1,7.2E1,1.4E1,1E0,1E2,1.6E1,7.7E2,1.88E2,4.1E1,1.9E1],"tree_param":{"num_deleted":"0","num_feature":"34","num_nodes":"31","size_leaf_vector":"1"}},{"base_weights":[-6.9834195E-2,-7.7601284E-1,9.0676016E-1,-1.1658499E0,6.9774854E-1,1.6372733E0,-6.208117E-1,5.693215E-1,-1.5239524E0,1.547329E0,-5.888335E0,1.2134813E0,5.6310935E0,6.7372184E0,-1.3194649E0,-2.035462E-1,7.261832E-2,-9.577657E-2,1.9763796E-2,-1.5393813E-1,1.2766476E-1,-6.451852E-1,-6.325459E-2,1.3891743E-1,-2.5901392E-2,4.0450773E-1,2.8439373E-2,4.3069616E-2,6.275758E-1,5.7901394E-2,-1.517368E-1],"categories":[],"categories_nodes":[],"categories_segments":[],"categories_sizes":[],"default_left":[0,0,0,0,0,0,0,0,0,0,0,0,0,0,0,0,0,0,0,0,0,0,0,0,0,0,0,0,0,0,0],"id":42,"left_children":[1,3,5,7,9,11,13,15,17,19,21,23,25,27,29,-1,-1,-1,-1,-1,-1,-1,-1,-1,-1,-1,-1,-1,-1,-1,-1],"loss_changes":[1.6268987E3,7.873406E2,1.1057686E3,6.7381055E2,1.6149934E3,1.1271747E3,1.6590577E3,7.680558E2,6.756306E2,1.1945522E3,1.0539894E3,1.6461553E3,7.9210376E2,9.4577466E2,1.2528882E3,0E0,0E0,0E0,0E0,0E0,0E0,0E0,0E0,0E0,0E0,0E0,0E0,0E0,0E0,0E0,0E0],"parents":[2147483647,0,0,1,1,2,2,3,3,4,4,5,5,6,6,7,7,8,8,9,9,10,10,11,11,12,12,13,13,14,14],"right_children":[2,4,6,8,10,12,14,16,18,20,22,24,26,28,30,-1,-1,-1,-1,-1,-1,-1,-1,-1,-1,-1,-1,-1,-1,-1,-1],"split_conditions":[1.2E0,1.45E-1,3.3E0,3.09E1,1.01515E2,1.018E2,1.8E0,9.8895E1,5.94E-1,1.2E0,1.0177E2,-6.1E-1,1.2382239E3,9.9215E1,4.02E-1,-2.035462E-1,7.261832E-2,-9.577657E-2,1.9763796E-2,-1.5393813E-1,1.2766476E-1,-6.451852E-1,-6.325459E-2,1.3891743E-1,-2.5901392E-2,4.0450773E-1,2.8439373E-2,4.3069616E-2,6.275758E-1,5.7901394E-2,-1.517368E-1],"split_indices":[23,17,9,31,26,3,23,26,5,21,26,24,20,26,22,0,0,0,0,0,0,0,0,0,0,0,0,0,0,0,0],"split_type":[0,0,0,0,0,0,0,0,0,0,0,0,0,0,0,0,0,0,0,0,0,0,0,0,0,0,0,0,0,0,0],"sum_hessian":[2.357E3,1.368E3,9.89E2,1.082E3,2.86E2,6.69E2,3.2E2,1.85E2,8.97E2,2.54E2,3.2E1,6.06E2,6.3E1,2.7E1,2.93E2,2.9E1,1.56E2,7.45E2,1.52E2,4.5E1,2.09E2,1.2E1,2E1,3.18E2,2.88E2,4.2E1,2.1E1,1.4E1,1.3E1,1.2E2,1.73E2],"tree_param":{"num_deleted":"0","num_feature":"34","num_nodes":"31","size_leaf_vector":"1"}},{"base_weights":[8.347221E-2,-7.165111E-1,8.854119E-1,-9.88945E-1,2.7827764E0,-3.5130817E-1,1.3379974E0,4.1507086E-1,-1.5146555E0,-4.9683743E0,3.7532792E0,-1.2679479E0,2.534122E0,1.0804392E0,6.1309505E0,-8.809692E-2,1.448966E-1,-1.13909975E-1,3.387817E-3,5.5960443E-2,-5.6399E-1,3.998729E-1,7.1638376E-2,-2.1702826E-2,-3.093709E-1,7.0489144E-1,7.6764174E-2,1.471104E-1,2.6652744E-2,9.439945E-2,6.7190665E-1],"categories":[],"categories_nodes":[],"categories_segments":[],"categories_sizes":[],"default_left":[0,0,0,0,0,0,0,0,0,0,0,0,0,0,0,0,0,0,0,0,0,0,0,0,0,0,0,0,0,0,0],"id":43,"left_children":[1,3,5,7,9,11,13,15,17,19,21,23,25,27,29,-1,-1,-1,-1,-1,-1,-1,-1,-1,-1,-1,-1,-1,-1,-1,-1],"loss_changes":[1.5210803E3,1.1343484E3,6.6318036E2,8.1402136E2,6.6558386E2,8.442912E2,1.0636565E3,1.6320747E3,9.691638E2,3.9683768E2,7.468888E2,9.9007166E2,8.6772705E2,8.381727E2,1.338809E3,0E0,0E0,0E0,0E0,0E0,0E0,0E0,0E0,0E0,0E0,0E0,0E0,0E0,0E0,0E0,0E0],"parents":[2147483647,0,0,1,1,2,2,3,3,4,4,5,5,6,6,7,7,8,8,9,9,10,10,11,11,12,12,13,13,14,14],"right_children":[2,4,6,8,10,12,14,16,18,20,22,24,26,28,30,-1,-1,-1,-1,-1,-1,-1,-1,-1,-1,-1,-1,-1,-1,-1,-1],"split_conditions":[2E-1,5.66E-1,9.864E1,5.78E-1,5.73E-1,8.8E0,6.1E-1,-3E0,5.65E-1,5.61E-1,1.168E2,2.301E2,2.21E2,1.071E0,3.3E0,-8.809692E-2,1.448966E-1,-1.13909975E-1,3.387817E-3,5.5960443E-2,-5.6399E-1,3.998729E-1,7.1638376E-2,-2.1702826E-2,-3.093709E-1,7.0489144E-1,7.6764174E-2,1.471104E-1,2.6652744E-2,9.439945E-2,6.7190665E-1],"split_indices":[23,4,26,16,22,23,22,2,15,22,11,28,27,29,21,0,0,0,0,0,0,0,0,0,0,0,0,0,0,0,0],"split_type":[0,0,0,0,0,0,0,0,0,0,0,0,0,0,0,0,0,0,0,0,0,0,0,0,0,0,0,0,0,0,0],"sum_hessian":[2.369E3,1.186E3,1.183E3,1.101E3,8.5E1,3.17E2,8.66E2,3E2,8.01E2,9E0,7.6E1,2.41E2,7.6E1,8.23E2,4.3E1,1.6E2,1.4E2,5.4E2,2.61E2,5E0,4E0,2.6E1,5E1,2.07E2,3.4E1,5E0,7.1E1,1.86E2,6.37E2,2.8E1,1.5E1],"tree_param":{"num_deleted":"0","num_feature":"34","num_nodes":"31","size_leaf_vector":"1"}},{"base_weights":[-1.7731887E-1,-3.5452402E-1,3.3780618E0,-2.0986834E0,-5.313916E-2,5.016861E0,-1.3722693E0,-3.284005E0,1.9661785E0,7.522048E-1,-8.3565855E-1,6.6018596E0,-9.8545974E-1,4.1872396E0,-4.5187078E0,-1.365957E-1,-4.9553013E-1,6.157417E-2,7.2577375E-1,-1.5766176E-3,1.10321775E-1,1.1470393E-1,-5.7997745E-2,-2.8350586E-1,3.859513E-1,-2.0441638E-1,5.448329E-1,5.132529E-1,-3.7611824E-2,2.2141738E-2,-5.0403684E-1],"categories":[],"categories_nodes":[],"categories_segments":[],"categories_sizes":[],"default_left":[0,0,0,0,0,0,0,0,0,0,0,0,0,0,0,0,0,0,0,0,0,0,0,0,0,0,0,0,0,0,0],"id":44,"left_children":[1,3,5,7,9,11,13,15,17,19,21,23,25,27,29,-1,-1,-1,-1,-1,-1,-1,-1,-1,-1,-1,-1,-1,-1,-1,-1],"loss_changes":[1.459721E3,1.1595013E3,8.632169E2,1.5723618E3,1.1866598E3,7.866267E2,5.262079E2,8.948638E2,6.643977E2,1.0577434E3,9.7195026E2,9.349075E2,7.0818463E2,3.3795538E2,5.287927E2,0E0,0E0,0E0,0E0,0E0,0E0,0E0,0E0,0E0,0E0,0E0,0E0,0E0,0E0,0E0,0E0],"parents":[2147483647,0,0,1,1,2,2,3,3,4,4,5,5,6,6,7,7,8,8,9,9,10,10,11,11,12,12,13,13,14,14],"right_children":[2,4,6,8,10,12,14,16,18,20,22,24,26,28,30,-1,-1,-1,-1,-1,-1,-1,-1,-1,-1,-1,-1,-1,-1,-1,-1],"split_conditions":[1.21E1,2E0,2.311E2,1.5E-1,1.39E-1,2.5E0,3.46E1,1.0216E2,2.346E2,9.986E1,-2.81E0,-4.35E0,3.8E0,1.35E1,1.2E0,-1.365957E-1,-4.9553013E-1,6.157417E-2,7.2577375E-1,-1.5766176E-3,1.10321775E-1,1.1470393E-1,-5.7997745E-2,-2.8350586E-1,3.859513E-1,-2.0441638E-1,5.448329E-1,5.132529E-1,-3.7611824E-2,2.2141738E-2,-5.0403684E-1],"split_indices":[23,7,28,6,6,21,30,3,28,26,24,24,21,23,21,0,0,0,0,0,0,0,0,0,0,0,0,0,0,0,0],"split_type":[0,0,0,0,0,0,0,0,0,0,0,0,0,0,0,0,0,0,0,0,0,0,0,0,0,0,0,0,0,0,0],"sum_hessian":[2.314E3,2.205E3,1.09E2,3.24E2,1.881E3,8.1E1,2.8E1,2.51E2,7.3E1,9.27E2,9.54E2,6.4E1,1.7E1,1E1,1.8E1,2.33E2,1.8E1,7E1,3E0,6.03E2,3.24E2,8.9E1,8.65E2,5E0,5.9E1,1.4E1,3E0,4E0,6E0,1E1,8E0],"tree_param":{"num_deleted":"0","num_feature":"34","num_nodes":"31","size_leaf_vector":"1"}},{"base_weights":[1.1791146E-2,-2.4802866E0,2.2964078E-1,8.9190745E-1,-3.479576E0,5.408562E-1,-1.0071636E0,-3.2283633E0,6.48323E0,-8.129768E-1,-3.0050735E0,1.2924968E-1,1.4760808E0,-1.1509925E0,1.0043935E0,3.715079E-2,-5.4062074E-1,7.808649E-1,1.503163E-1,-9.7458296E-2,-3.934377E-1,-5.8727902E-3,2.0584917E-1,9.318383E-2,-1.2193517E-1,-2.1649908E-1,-1.637847E-2],"categories":[],"categories_nodes":[],"categories_segments":[],"categories_sizes":[],"default_left":[0,0,0,0,0,0,0,0,0,0,0,0,0,0,0,0,0,0,0,0,0,0,0,0,0,0,0],"id":45,"left_children":[1,3,5,7,9,11,13,15,17,-1,19,21,23,25,-1,-1,-1,-1,-1,-1,-1,-1,-1,-1,-1,-1,-1],"loss_changes":[1.2763804E3,6.3999524E2,8.327258E2,1.0345918E3,8.3650134E2,6.649933E2,1.3429443E3,7.911315E2,5.564566E2,0E0,7.139171E2,1.1820222E3,8.0570776E2,1.1320254E3,0E0,0E0,0E0,0E0,0E0,0E0,0E0,0E0,0E0,0E0,0E0,0E0,0E0],"parents":[2147483647,0,0,1,1,2,2,3,3,4,4,5,5,6,6,7,7,8,8,10,10,11,11,12,12,13,13],"right_children":[2,4,6,8,10,12,14,16,18,-1,20,22,24,26,-1,-1,-1,-1,-1,-1,-1,-1,-1,-1,-1,-1,-1],"split_conditions":[-1.06E1,2.241E2,3E0,2.232E2,5.61E-1,1.46E-1,1.0369E2,5.48E-1,5.84E-1,-8.129768E-1,-1.12E1,1.55E-1,1.119E0,1.121E2,1.0043935E0,3.715079E-2,-5.4062074E-1,7.808649E-1,1.503163E-1,-9.7458296E-2,-3.934377E-1,-5.8727902E-3,2.0584917E-1,9.318383E-2,-1.2193517E-1,-2.1649908E-1,-1.637847E-2],"split_indices":[23,27,18,27,22,17,3,15,16,0,23,6,29,12,0,0,0,0,0,0,0,0,0,0,0,0,0],"split_type":[0,0,0,0,0,0,0,0,0,0,0,0,0,0,0,0,0,0,0,0,0,0,0,0,0,0,0],"sum_hessian":[2.349E3,1.88E2,2.161E3,4.3E1,1.45E2,1.727E3,4.34E2,2.5E1,1.8E1,4E0,1.41E2,1.2E3,5.27E2,4.32E2,2E0,1.7E1,8E0,4E0,1.4E1,1.17E2,2.4E1,1.131E3,6.9E1,4.8E2,4.7E1,8.8E1,3.44E2],"tree_param":{"num_deleted":"0","num_feature":"34","num_nodes":"27","size_leaf_vector":"1"}},{"base_weights":[2.5064626E-1,5.237525E-2,3.6544042E0,-2.6579106E-1,1.4719379E0,4.9579234E0,-2.018694E0,-3.510377E0,-9.742784E-2,8.9466876E-1,5.417907E0,7.887117E0,2.0983603E0,3.0440006E0,-1.1357262E1,-3.8967278E-2,-3.5308713E-1,-3.934117E-2,3.6743805E-2,1.24335615E-2,2.0179294E-1,-6.8123627E-1,3.029222E-1,2.9900065E-1,6.872898E-1,1.6246988E-1,-2.5350785E-1,-1.6495119E-1,6.2883765E-1,-6.534972E-1,-1.7876244E-1],"categories":[],"categories_nodes":[],"categories_segments":[],"categories_sizes":[],"default_left":[0,0,0,0,0,0,0,0,0,0,0,0,0,0,0,0,0,0,0,0,0,0,0,0,0,0,0,0,0,0,0],"id":46,"left_children":[1,3,5,7,9,11,13,15,17,19,21,23,25,27,29,-1,-1,-1,-1,-1,-1,-1,-1,-1,-1,-1,-1,-1,-1,-1,-1],"loss_changes":[1.5938433E3,1.0089413E3,9.713578E2,9.9659875E2,9.268083E2,8.7132837E2,1.2165293E3,8.673967E2,9.966718E2,7.2545044E2,7.168146E2,4.9880176E2,4.702926E2,1.069421E3,7.322473E1,0E0,0E0,0E0,0E0,0E0,0E0,0E0,0E0,0E0,0E0,0E0,0E0,0E0,0E0,0E0,0E0],"parents":[2147483647,0,0,1,1,2,2,3,3,4,4,5,5,6,6,7,7,8,8,9,9,10,10,11,11,12,12,13,13,14,14],"right_children":[2,4,6,8,10,12,14,16,18,20,22,24,26,28,30,-1,-1,-1,-1,-1,-1,-1,-1,-1,-1,-1,-1,-1,-1,-1,-1],"split_conditions":[1.191E2,6.22E-1,2.5E0,2.231E2,1.0054E2,3E0,2.346E2,1.05833E3,3.69E1,1E0,1.108E2,2.255E2,2.346E2,2.328E2,1E0,-3.8967278E-2,-3.5308713E-1,-3.934117E-2,3.6743805E-2,1.24335615E-2,2.0179294E-1,-6.8123627E-1,3.029222E-1,2.9900065E-1,6.872898E-1,1.6246988E-1,-2.5350785E-1,-1.6495119E-1,6.2883765E-1,-6.534972E-1,-1.7876244E-1],"split_indices":[12,10,21,28,26,9,28,20,30,19,12,27,28,28,8,0,0,0,0,0,0,0,0,0,0,0,0,0,0,0,0],"split_type":[0,0,0,0,0,0,0,0,0,0,0,0,0,0,0,0,0,0,0,0,0,0,0,0,0,0,0,0,0,0,0],"sum_hessian":[2.361E3,2.232E3,1.29E2,1.824E3,4.08E2,1.05E2,2.4E1,8.9E1,1.735E3,3.57E2,5.1E1,5.1E1,5.4E1,1.6E1,8E0,5.1E1,3.8E1,9.49E2,7.86E2,2.97E2,6E1,1E0,5E1,4E1,1.1E1,4.7E1,7E0,1E1,6E0,6E0,2E0],"tree_param":{"num_deleted":"0","num_feature":"34","num_nodes":"31","size_leaf_vector":"1"}},{"base_weights":[-4.637292E-3,-1.0173994E0,7.014312E-1,-3.7222347E-1,-2.8987408E0,2.1044538E0,2.3398326E-1,7.192571E-1,-1.5950013E0,-2.4143538E0,-1.6946909E1,2.68441E0,-2.6363637E0,6.2046576E-1,-1.9127202E0,6.3152224E-2,-2.0269194E-1,-8.0266136E-1,-6.648515E-2,-2.1041635E-1,1.8931476E-2,-1.286118E0,-3.2685834E-1,1.2793465E-1,1.0288471E0,3.0944595E-1,-2.2422539E-1,2.2879941E-2,2.6835707E-1,-4.4248864E-1,1.788806E-2],"categories":[],"categories_nodes":[],"categories_segments":[],"categories_sizes":[],"default_left":[0,0,0,0,0,0,0,0,0,0,0,0,0,0,0,0,0,0,0,0,0,0,0,0,0,0,0,0,0,0,0],"id":47,"left_children":[1,3,5,7,9,11,13,15,17,19,21,23,25,27,29,-1,-1,-1,-1,-1,-1,-1,-1,-1,-1,-1,-1,-1,-1,-1,-1],"loss_changes":[1.6711392E3,1.1641653E3,9.0259924E2,9.567483E2,1.6262478E3,9.528937E2,8.590586E2,9.8883325E2,1.2751351E3,1.1941012E3,5.6265015E2,6.379155E2,6.475492E2,6.755323E2,2.4917368E3,0E0,0E0,0E0,0E0,0E0,0E0,0E0,0E0,0E0,0E0,0E0,0E0,0E0,0E0,0E0,0E0],"parents":[2147483647,0,0,1,1,2,2,3,3,4,4,5,5,6,6,7,7,8,8,9,9,10,10,11,11,12,12,13,13,14,14],"right_children":[2,4,6,8,10,12,14,16,18,20,22,24,26,28,30,-1,-1,-1,-1,-1,-1,-1,-1,-1,-1,-1,-1,-1,-1,-1,-1],"split_conditions":[4E-1,3.8E0,2.91E1,1.076E0,1.0254E2,2.323E2,1E0,1.0133E2,1.099E2,1.093E0,-2.3E0,2.70436E3,9.917E1,1.58E-1,1.31E-1,6.3152224E-2,-2.0269194E-1,-8.0266136E-1,-6.648515E-2,-2.1041635E-1,1.8931476E-2,-1.286118E0,-3.2685834E-1,1.2793465E-1,1.0288471E0,3.0944595E-1,-2.2422539E-1,2.2879941E-2,2.6835707E-1,-4.4248864E-1,1.788806E-2],"split_indices":[2,21,31,29,14,28,8,26,11,29,2,20,26,17,17,0,0,0,0,0,0,0,0,0,0,0,0,0,0,0,0],"split_type":[0,0,0,0,0,0,0,0,0,0,0,0,0,0,0,0,0,0,0,0,0,0,0,0,0,0,0,0,0,0,0],"sum_hessian":[2.335E3,9.59E2,1.376E3,7.15E2,2.44E2,3.43E2,1.033E3,3.78E2,3.37E2,2.37E2,7E0,3.06E2,3.7E1,8.76E2,1.57E2,3.4E2,3.8E1,5E0,3.32E2,1.44E2,9.3E1,3E0,4E0,3.05E2,1E0,6E0,3.1E1,8.48E2,2.8E1,3.8E1,1.19E2],"tree_param":{"num_deleted":"0","num_feature":"34","num_nodes":"31","size_leaf_vector":"1"}},{"base_weights":[5.0280597E-2,-9.705554E-1,7.2678024E-1,-3.085887E0,-5.526413E-1,2.1581664E0,3.4913084E-1,-2.0165858E0,-8.927572E0,4.2546954E0,-7.989304E-1,-1.4673276E-1,3.5517511E0,2.1722488E-1,6.218171E0,-2.47485E-1,5.4020274E-2,-4.87857E-1,2.5381216E-1,1.3311101E-1,5.577132E-1,-3.453542E-2,-5.435968E-1,-2.5156004E-2,1.0031259E0,2.1447924E-1,-1.5990081E-1,1.01866625E-1,-9.6293865E-3,4.988625E-1,-2.0908592E-2],"categories":[],"categories_nodes":[],"categories_segments":[],"categories_sizes":[],"default_left":[0,0,0,0,0,0,0,0,0,0,0,0,0,0,0,0,0,0,0,0,0,0,0,0,0,0,0,0,0,0,0],"id":48,"left_children":[1,3,5,7,9,11,13,15,17,19,21,23,25,27,29,-1,-1,-1,-1,-1,-1,-1,-1,-1,-1,-1,-1,-1,-1,-1,-1],"loss_changes":[1.651228E3,8.407724E2,7.765748E2,9.627003E2,9.470431E2,9.6414294E2,8.8041895E2,1.2225806E3,3.283402E2,3.9881317E2,8.198926E2,8.3115845E2,9.450161E2,8.320742E2,6.278356E2,0E0,0E0,0E0,0E0,0E0,0E0,0E0,0E0,0E0,0E0,0E0,0E0,0E0,0E0,0E0,0E0],"parents":[2147483647,0,0,1,1,2,2,3,3,4,4,5,5,6,6,7,7,8,8,9,9,10,10,11,11,12,12,13,13,14,14],"right_children":[2,4,6,8,10,12,14,16,18,20,22,24,26,28,30,-1,-1,-1,-1,-1,-1,-1,-1,-1,-1,-1,-1,-1,-1,-1,-1],"split_conditions":[-1.4E0,9.82E1,1.071E0,1.98E0,9.8405E1,9.8835E1,5E0,1.6E-1,6.1E-1,-2E0,1.0361E2,2.5922083E3,1.0138E2,2E0,2.2E0,-2.47485E-1,5.4020274E-2,-4.87857E-1,2.5381216E-1,1.3311101E-1,5.577132E-1,-3.453542E-2,-5.435968E-1,-2.5156004E-2,1.0031259E0,2.1447924E-1,-1.5990081E-1,1.01866625E-1,-9.6293865E-3,4.988625E-1,-2.0908592E-2],"split_indices":[23,26,29,24,26,26,7,24,10,23,3,20,26,18,13,0,0,0,0,0,0,0,0,0,0,0,0,0,0,0,0],"split_type":[0,0,0,0,0,0,0,0,0,0,0,0,0,0,0,0,0,0,0,0,0,0,0,0,0,0,0,0,0,0,0],"sum_hessian":[2.389E3,9.52E2,1.437E3,1.56E2,7.96E2,2.99E2,1.138E3,1.33E2,2.3E1,3.8E1,7.58E2,1.13E2,1.86E2,1.114E3,2.4E1,6.8E1,6.5E1,2.2E1,1E0,3.2E1,6E0,7.51E2,7E0,1.12E2,1E0,1.68E2,1.8E1,2.04E2,9.1E2,1.5E1,9E0],"tree_param":{"num_deleted":"0","num_feature":"34","num_nodes":"31","size_leaf_vector":"1"}},{"base_weights":[2.0324841E-1,3.8091218E-1,-2.0857508E0,-1.0914343E-1,1.1786985E0,-3.273576E0,7.0460076E0,4.9165338E-1,-1.6849495E0,3.5567505E0,6.592697E-1,-1.7148868E0,-7.745806E0,1.2431381E0,1.559492E1,1.7473617E-1,4.625703E-3,-6.1220765E-2,-3.3928046E-1,5.8301514E-1,9.986824E-2,1.117112E-1,-6.7395284E-3,-1.4967088E-1,1.1594685E-1,-6.4349234E-1,-2.4958971E-1,-3.7093845E-1,2.9585913E-1,-8.714555E-2,9.16037E-1],"categories":[],"categories_nodes":[],"categories_segments":[],"categories_sizes":[],"default_left":[0,0,0,0,0,0,0,0,0,0,0,0,0,0,0,0,0,0,0,0,0,0,0,0,0,0,0,0,0,0,0],"id":49,"left_children":[1,3,5,7,9,11,13,15,17,19,21,23,25,27,29,-1,-1,-1,-1,-1,-1,-1,-1,-1,-1,-1,-1,-1,-1,-1,-1],"loss_changes":[9.6542096E2,8.6102185E2,1.8778911E3,1.2931276E3,1.0327769E3,1.046281E3,9.727778E2,1.185135E3,8.7727515E2,1.8721943E3,8.6197046E2,5.948816E2,4.8611133E2,5.70218E2,4.100099E2,0E0,0E0,0E0,0E0,0E0,0E0,0E0,0E0,0E0,0E0,0E0,0E0,0E0,0E0,0E0,0E0],"parents":[2147483647,0,0,1,1,2,2,3,3,4,4,5,5,6,6,7,7,8,8,9,9,10,10,11,11,12,12,13,13,14,14],"right_children":[2,4,6,8,10,12,14,16,18,20,22,24,26,28,30,-1,-1,-1,-1,-1,-1,-1,-1,-1,-1,-1,-1,-1,-1,-1,-1],"split_conditions":[6.3E0,1.098E0,1.0054E2,1.088E0,2E0,1.3380419E3,-8.8E0,1.11E2,5.32E1,5.77E-1,3.42E1,1.0661666E3,9.868E1,5.060349E2,2E0,1.7473617E-1,4.625703E-3,-6.1220765E-2,-3.3928046E-1,5.8301514E-1,9.986824E-2,1.117112E-1,-6.7395284E-3,-1.4967088E-1,1.1594685E-1,-6.4349234E-1,-2.4958971E-1,-3.7093845E-1,2.9585913E-1,-8.714555E-2,9.16037E-1],"split_indices":[13,29,26,29,18,20,23,1,31,16,31,20,3,20,7,0,0,0,0,0,0,0,0,0,0,0,0,0,0,0,0],"split_type":[0,0,0,0,0,0,0,0,0,0,0,0,0,0,0,0,0,0,0,0,0,0,0,0,0,0,0,0,0,0,0],"sum_hessian":[2.371E3,2.201E3,1.7E2,1.364E3,8.37E2,1.51E2,1.9E1,9.88E2,3.76E2,1.49E2,6.88E2,1.13E2,3.8E1,1.2E1,7E0,1.15E2,8.73E2,3.46E2,3E1,2.3E1,1.26E2,2.3E2,4.58E2,8.6E1,2.7E1,1.2E1,2.6E1,4E0,8E0,1E0,6E0],"tree_param":{"num_deleted":"0","num_feature":"34","num_nodes":"31","size_leaf_vector":"1"}},{"base_weights":[-5.7664108E-2,9.9875945E-1,-4.4178474E-1,1.8079214E0,-1.9417965E0,-2.4160941E-1,-3.271971E0,2.1234505E0,-3.313764E0,-6.636243E0,4.5255867E-1,5.188413E-1,-9.223398E-1,-1.3420506E0,-8.175452E0,1.2095896E-1,-8.482497E-2,-3.2327852E-1,3.757783E-1,-1.0008619E-1,-5.062134E-1,1.458523E-1,-3.274506E-1,1.379768E-1,-1.6977169E-3,-3.8174212E-2,-3.7462777E-1,-1.7887771E-2,-8.3127517E-1,-9.3469694E-2,-5.2808815E-1],"categories":[],"categories_nodes":[],"categories_segments":[],"categories_sizes":[],"default_left":[0,0,0,0,0,0,0,0,0,0,0,0,0,0,0,0,0,0,0,0,0,0,0,0,0,0,0,0,0,0,0],"id":50,"left_children":[1,3,5,7,9,11,13,15,17,19,21,23,25,27,29,-1,-1,-1,-1,-1,-1,-1,-1,-1,-1,-1,-1,-1,-1,-1,-1],"loss_changes":[9.5568054E2,1.4977651E3,9.776128E2,8.0374426E2,1.5316667E3,8.3598486E2,1.0678477E3,5.2940015E2,1.038419E3,7.233386E2,1.5893342E3,9.451806E2,8.835246E2,1.2426567E3,4.6179858E2,0E0,0E0,0E0,0E0,0E0,0E0,0E0,0E0,0E0,0E0,0E0,0E0,0E0,0E0,0E0,0E0],"parents":[2147483647,0,0,1,1,2,2,3,3,4,4,5,5,6,6,7,7,8,8,9,9,10,10,11,11,12,12,13,13,14,14],"right_children":[2,4,6,8,10,12,14,16,18,20,22,24,26,28,30,-1,-1,-1,-1,-1,-1,-1,-1,-1,-1,-1,-1,-1,-1,-1,-1],"split_conditions":[-1.76E0,1.165E2,2.172973E3,9.991E1,1.104E0,1.39E-1,2.301E2,6.03E-1,1.0067E2,1.091E0,3E0,2E0,6.29E1,1.138E0,1.105E2,1.2095896E-1,-8.482497E-2,-3.2327852E-1,3.757783E-1,-1.0008619E-1,-5.062134E-1,1.458523E-1,-3.274506E-1,1.379768E-1,-1.6977169E-3,-3.8174212E-2,-3.7462777E-1,-1.7887771E-2,-8.3127517E-1,-9.3469694E-2,-5.2808815E-1],"split_indices":[24,11,20,3,29,6,28,5,3,29,7,18,31,29,0,0,0,0,0,0,0,0,0,0,0,0,0,0,0,0,0],"split_type":[0,0,0,0,0,0,0,0,0,0,0,0,0,0,0,0,0,0,0,0,0,0,0,0,0,0,0,0,0,0,0],