{"learner":{"attributes":{"scikit_learn":"{\"_estimator_type\": \"regressor\"}"},"feature_names":[],"feature_types":[],"gradient_booster":{"model":{"cats":{"enc":[],"feature_segments":[],"sorted_idx":[]},"gbtree_model_param":{"num_parallel_tree":"1","num_trees":"150"},"iteration_indptr":[0,1,2,3,4,5,6,7,8,9,10,11,12,13,14,15,16,17,18,19,20,21,22,23,24,25,26,27,28,29,30,31,32,33,34,35,36,37,38,39,40,41,42,43,44,45,46,47,48,49,50,51,52,53,54,55,56,57,58,59,60,61,62,63,64,65,66,67,68,69,70,71,72,73,74,75,76,77,78,79,80,81,82,83,84,85,86,87,88,89,90,91,92,93,94,95,96,97,98,99,100,101,102,103,104,105,106,107,108,109,110,111,112,113,114,115,116,117,118,119,120,121,122,123,124,125,126,127,128,129,130,131,132,133,134,135,136,137,138,139,140,141,142,143,144,145,146,147,148,149,150],"tree_info":[0,0,0,0,0,0,0,0,0,0,0,0,0,0,0,0,0,0,0,0,0,0,0,0,0,0,0,0,0,0,0,0,0,0,0,0,0,0,0,0,0,0,0,0,0,0,0,0,0,0,0,0,0,0,0,0,0,0,0,0,0,0,0,0,0,0,0,0,0,0,0,0,0,0,0,0,0,0,0,0,0,0,0,0,0,0,0,0,0,0,0,0,0,0,0,0,0,0,0,0,0,0,0,0,0,0,0,0,0,0,0,0,0,0,0,0,0,0,0,0,0,0,0,0,0,0,0,0,0,0,0,0,0,0,0,0,0,0,0,0,0,0,0,0,0,0,0,0,0,0],"trees":[{"base_weights":[-4.971804E-2,-4.772356E1,1.8439271E0,-5.3410316E0,-3.628326E1,1.6964822E-1,2.7727592E1,-3.767308E1,-5.608596E-1,-3.6643796E0,5.814322E0,1.8494354E1,5.696386E1,-2.2078702E0,-1.401733E0,-5.118342E-1,-1.0292687E-1,1.9066314E-1,4.3447217E-1,7.7782685E-1,1.069199E0,1.8888949E0,3.4926755E0],"categories":[],"categories_nodes":[],"categories_segments":[],"categories_sizes":[],"default_left":[0,0,0,0,0,0,0,0,0,0,0,0,0,0,0,0,0,0,0,0,0,0,0],"id":0,"left_children":[1,3,5,-1,7,9,11,13,-1,15,17,19,21,-1,-1,-1,-1,-1,-1,-1,-1,-1,-1],"loss_changes":[8.034456E4,1.9111188E4,3.709132E4,0E0,6.2253516E2,1.7442986E4,1.2983656E4,5.1202344E2,0E0,5.044887E3,1.8424375E3,1.5396484E1,3.286836E2,0E0,0E0,0E0,0E0,0E0,0E0,0E0,0E0,0E0,0E0],"parents":[2147483647,0,0,1,1,2,2,4,4,5,5,6,6,7,7,9,9,10,10,11,11,12,12],"right_children":[2,4,6,-1,8,10,12,14,-1,16,18,20,22,-1,-1,-1,-1,-1,-1,-1,-1,-1,-1],"split_conditions":[-2.52E1,-8.48E1,1.2E1,-5.3410316E0,8.1E-2,5E-1,3.67E1,-3.47E1,-5.608596E-1,-1.11E1,5E0,1.77E1,5.37E1,-2.2078702E0,-1.401733E0,-5.118342E-1,-1.0292687E-1,1.9066314E-1,4.3447217E-1,7.7782685E-1,1.069199E0,1.8888949E0,3.4926755E0],"split_indices":[5,5,5,0,1,5,5,5,0,5,5,5,5,0,0,0,0,0,0,0,0,0,0],"split_type":[0,0,0,0,0,0,0,0,0,0,0,0,0,0,0,0,0,0,0,0,0,0,0],"sum_hessian":[8.88E2,3.3E1,8.55E2,4E0,2.9E1,8.04E2,5.1E1,2.7E1,2E0,4.79E2,3.25E2,4E1,1.1E1,1.4E1,1.3E1,9.3E1,3.86E2,1.93E2,1.32E2,2.3E1,1.7E1,6E0,5E0],"tree_param":{"num_deleted":"0","num_feature":"9","num_nodes":"23","size_leaf_vector":"1"}},{"base_weights":[5.197046E-1,-4.015595E1,1.9666202E0,-6.3392563E1,-1.3589352E0,6.3501745E-1,3.5694584E1,-3.4278371E0,-4.2287323E-1,-2.9326937E0,6.4218683E0,2.6316826E1,3.2713516E0,-4.748837E-1,-7.200259E-2,1.852376E-1,4.5751077E-1,1.087869E0,1.6927952E0],"categories":[],"categories_nodes":[],"categories_segments":[],"categories_sizes":[],"default_left":[0,0,0,0,0,0,0,0,0,0,0,0,0,0,0,0,0,0,0],"id":1,"left_children":[1,3,5,7,-1,9,11,-1,-1,13,15,17,-1,-1,-1,-1,-1,-1,-1],"loss_changes":[5.1399867E4,7.3234883E3,3.783836E4,2.2571328E3,0E0,1.6783232E4,7.2005234E3,0E0,0E0,4.9153037E3,2.264204E3,1.5710938E2,0E0,0E0,0E0,0E0,0E0,0E0,0E0],"parents":[2147483647,0,0,1,1,2,2,3,3,5,5,6,6,9,9,10,10,11,11],"right_children":[2,4,6,8,-1,10,12,-1,-1,14,16,18,-1,-1,-1,-1,-1,-1,-1],"split_conditions":[-2.21E1,-4.56E1,1.77E1,1.11E0,-1.3589352E0,1.4E0,5.37E1,-3.4278371E0,-4.2287323E-1,-1.11E1,5.1E0,3.67E1,3.2713516E0,-4.748837E-1,-7.200259E-2,1.852376E-1,4.5751077E-1,1.087869E0,1.6927952E0],"split_indices":[5,5,5,2,0,5,5,0,0,5,5,5,0,0,0,0,0,0,0],"split_type":[0,0,0,0,0,0,0,0,0,0,0,0,0,0,0,0,0,0,0],"sum_hessian":[8.71E2,2.9E1,8.42E2,9E0,2E1,8.11E2,3.1E1,8E0,1E0,5.02E2,3.09E2,2.5E1,6E0,9.2E1,4.1E2,1.56E2,1.53E2,1.8E1,7E0],"tree_param":{"num_deleted":"0","num_feature":"9","num_nodes":"19","size_leaf_vector":"1"}},{"base_weights":[-2.3731348E-1,-5.29678E1,1.2413887E0,-4.8652883E0,-3.6178562E1,-1.893065E0,1.089258E1,-1.9457363E0,-8.0946285E-1,-1.0675184E1,-2.106505E-1,9.423601E0,2.3403165E0,-6.367102E-1,-1.6405958E-1,-1.124649E-1,1.045807E-1,3.8695613E-1,8.047187E-1],"categories":[],"categories_nodes":[],"categories_segments":[],"categories_sizes":[],"default_left":[0,0,0,0,0,0,0,0,0,0,0,0,0,0,0,0,0,0,0],"id":2,"left_children":[1,3,5,-1,7,9,11,-1,-1,13,15,17,-1,-1,-1,-1,-1,-1,-1],"loss_changes":[6.860374E4,1.4345234E4,2.5915656E4,0E0,4.091875E2,9.557284E3,1.0637785E4,0E0,0E0,1.5415518E3,2.5579717E3,2.1565078E3,0E0,0E0,0E0,0E0,0E0,0E0,0E0],"parents":[2147483647,0,0,1,1,2,2,4,4,5,5,6,6,9,9,10,10,11,11],"right_children":[2,4,6,-1,8,10,12,-1,-1,14,16,18,-1,-1,-1,-1,-1,-1,-1],"split_conditions":[-2.88E1,-8.48E1,4E0,-4.8652883E0,4.1E-2,-1.11E1,3.67E1,-1.9457363E0,-8.0946285E-1,5.97E2,-9E-1,1.2E1,2.3403165E0,-6.367102E-1,-1.6405958E-1,-1.124649E-1,1.045807E-1,3.8695613E-1,8.047187E-1],"split_indices":[5,5,5,0,4,5,5,0,0,6,5,5,0,0,0,0,0,0,0],"split_type":[0,0,0,0,0,0,0,0,0,0,0,0,0,0,0,0,0,0,0],"sum_hessian":[8.78E2,2.3E1,8.55E2,5E0,1.8E1,6.46E2,2.09E2,1.5E1,3E0,1.03E2,5.43E2,2.02E2,7E0,8E1,2.3E1,2.88E2,2.55E2,1.63E2,3.9E1],"tree_param":{"num_deleted":"0","num_feature":"9","num_nodes":"19","size_leaf_vector":"1"}},{"base_weights":[-1.7692356E-1,-6.0161793E1,1.1140045E0,-4.234951E0,-1.7308314E0,-2.8874278E0,7.3622885E0,-1.2154742E1,-1.501046E0,5.78855E0,2.4311005E1,-6.45565E-1,1.001191E0,-2.2965162E-1,-3.981854E-3,2.219613E-1,5.079725E-1,9.182107E-1,1.7742814E0],"categories":[],"categories_nodes":[],"categories_segments":[],"categories_sizes":[],"default_left":[0,0,0,0,0,0,0,0,0,0,0,0,0,0,0,0,0,0,0],"id":3,"left_children":[1,3,5,-1,-1,7,9,11,13,15,17,-1,-1,-1,-1,-1,-1,-1,-1],"loss_changes":[6.983699E4,8.977352E3,2.20981E4,0E0,0E0,6.906847E3,9.061406E3,1.9626768E3,2.0652734E3,1.8244912E3,1.2754746E3,0E0,0E0,0E0,0E0,0E0,0E0,0E0,0E0],"parents":[2147483647,0,0,1,1,2,2,5,5,6,6,7,7,8,8,9,9,10,10],"right_children":[2,4,6,-1,-1,8,10,12,14,16,18,-1,-1,-1,-1,-1,-1,-1,-1],"split_conditions":[-3.47E1,-6.16E1,1.6E0,-4.234951E0,-1.7308314E0,-1.29E1,1.77E1,1E0,4.33E2,8E0,3.67E1,-6.45565E-1,1.001191E0,-2.2965162E-1,-3.981854E-3,2.219613E-1,5.079725E-1,9.182107E-1,1.7742814E0],"split_indices":[5,5,5,0,0,5,5,1,6,5,5,0,0,0,0,0,0,0,0],"split_type":[0,0,0,0,0,0,0,0,0,0,0,0,0,0,0,0,0,0,0],"sum_hessian":[9E2,1.8E1,8.82E2,8E0,1E1,5.38E2,3.44E2,6.9E1,4.69E2,3.16E2,2.8E1,6.8E1,1E0,1.47E2,3.22E2,2.43E2,7.3E1,2E1,8E0],"tree_param":{"num_deleted":"0","num_feature":"9","num_nodes":"19","size_leaf_vector":"1"}},{"base_weights":[7.678283E-2,-8.666348E0,1.2900621E0,-4.2188713E1,-6.9549103E0,2.9036396E0,1.1408991E0,-3.4336145E0,1.5936396E0,6.570266E0,-8.1630335E0,-2.92145E-1,4.3067555E0,1.3593874E0,-7.680635E-1,-4.82743E-1,7.7874327E-1,-5.5928964E-2,1.6853796E-1,1.6913347E-1,3.7913153E-1],"categories":[],"categories_nodes":[],"categories_segments":[],"categories_sizes":[],"default_left":[0,0,0,0,0,0,0,0,0,0,0,0,0,0,0,0,0,0,0,0,0],"id":4,"left_children":[1,3,5,7,9,-1,11,-1,-1,13,15,17,19,-1,-1,-1,-1,-1,-1,-1,-1],"loss_changes":[9.314272E3,5.845328E3,6.464025E3,1.1995845E4,1.7366611E3,0E0,3.4946035E3,0E0,0E0,4.4871953E3,3.5145913E3,1.6111866E3,7.0087646E2,0E0,0E0,0E0,0E0,0E0,0E0,0E0,0E0],"parents":[2147483647,0,0,1,1,2,2,3,3,4,4,6,6,9,9,10,10,11,11,12,12],"right_children":[2,4,6,8,10,-1,12,-1,-1,14,16,18,20,-1,-1,-1,-1,-1,-1,-1,-1],"split_conditions":[3.13E1,3E0,4E0,1E-2,1.22E1,2.9036396E0,1.117E2,-3.4336145E0,1.5936396E0,1E-3,1.12E-1,2.6E-2,1.421E2,1.3593874E0,-7.680635E-1,-4.82743E-1,7.7874327E-1,-5.5928964E-2,1.6853796E-1,1.6913347E-1,3.7913153E-1],"split_indices":[7,6,6,0,7,0,7,0,0,4,4,4,7,0,0,0,0,0,0,0,0],"split_type":[0,0,0,0,0,0,0,0,0,0,0,0,0,0,0,0,0,0,0,0,0],"sum_hessian":[8.76E2,1.06E2,7.7E2,4E0,1.02E2,1E0,7.69E2,3E0,1E0,8E0,9.4E1,5.3E2,2.39E2,4E0,4E0,8.9E1,5E0,4.33E2,9.7E1,1.88E2,5.1E1],"tree_param":{"num_deleted":"0","num_feature":"9","num_nodes":"21","size_leaf_vector":"1"}},{"base_weights":[2.8806832E-1,-4.146152E1,1.5170618E0,-4.897762E0,-2.9833855E1,3.9852047E-1,3.03159E1,-1.834286E0,-1.1404338E0,-2.9489188E0,5.0838127E0,2.200975E1,5.8023067E1,-5.0889397E-1,-8.700038E-2,1.8783318E-1,4.874366E-1,9.184411E-1,1.4180425E0,3.1057887E0,8.3667105E-1],"categories":[],"categories_nodes":[],"categories_segments":[],"categories_sizes":[],"default_left":[0,0,0,0,0,0,0,0,0,0,0,0,0,0,0,0,0,0,0,0,0],"id":5,"left_children":[1,3,5,-1,7,9,11,-1,-1,13,15,17,19,-1,-1,-1,-1,-1,-1,-1,-1],"loss_changes":[4.665236E4,1.4156762E4,2.8431727E4,0E0,2.7036523E2,1.3361848E4,6.317545E3,0E0,0E0,4.325659E3,2.1611982E3,1.0338965E2,1.4349414E2,0E0,0E0,0E0,0E0,0E0,0E0,0E0,0E0],"parents":[2147483647,0,0,1,1,2,2,4,4,5,5,6,6,9,9,10,10,11,11,12,12],"right_children":[2,4,6,-1,8,10,12,-1,-1,14,16,18,20,-1,-1,-1,-1,-1,-1,-1,-1],"split_conditions":[-2.52E1,-8.48E1,1.77E1,-4.897762E0,-4.04E1,5E-1,5.37E1,-1.834286E0,-1.1404338E0,-1.21E1,8E0,3.67E1,1.95E-1,-5.0889397E-1,-8.700038E-2,1.8783318E-1,4.874366E-1,9.184411E-1,1.4180425E0,3.1057887E0,8.3667105E-1],"split_indices":[5,5,5,0,5,5,5,0,0,5,5,5,1,0,0,0,0,0,0,0,0],"split_type":[0,0,0,0,0,0,0,0,0,0,0,0,0,0,0,0,0,0,0,0,0],"sum_hessian":[9.07E2,2.5E1,8.82E2,3E0,2.2E1,8.5E2,3.2E1,9E0,1.3E1,4.96E2,3.54E2,2.6E1,6E0,7E1,4.26E2,2.77E2,7.7E1,1.9E1,7E0,5E0,1E0],"tree_param":{"num_deleted":"0","num_feature":"9","num_nodes":"21","size_leaf_vector":"1"}},{"base_weights":[3.6693192E-1,-2.8889114E1,1.6143854E0,-4.163037E1,-2.0783886E1,6.1918783E-1,2.6848173E1,-2.2142208E0,-2.4454732E-1,-1.1545283E0,-1.1883299E1,-2.1999955E0,5.272956E0,2.0667635E1,2.5092952E0,-6.426388E-1,-1.5166098E-1,-2.838109E-1,-2.0697663E-2,1.5732636E-1,3.668964E-1,8.4818697E-1,1.367196E0],"categories":[],"categories_nodes":[],"categories_segments":[],"categories_sizes":[],"default_left":[0,0,0,0,0,0,0,0,0,0,0,0,0,0,0,0,0,0,0,0,0,0,0],"id":6,"left_children":[1,3,5,7,9,11,13,-1,-1,-1,15,17,19,21,-1,-1,-1,-1,-1,-1,-1,-1,-1],"loss_changes":[3.2126232E4,2.8525078E3,2.1178416E4,1.0510098E3,2.1834668E2,1.0678019E4,3.5784492E3,0E0,0E0,0E0,2.107428E1,3.145451E3,1.3249531E3,2.0380664E2,0E0,0E0,0E0,0E0,0E0,0E0,0E0,0E0,0E0],"parents":[2147483647,0,0,1,1,2,2,3,3,4,4,5,5,6,6,10,10,11,11,12,12,13,13],"right_children":[2,4,6,8,10,12,14,-1,-1,-1,16,18,20,22,-1,-1,-1,-1,-1,-1,-1,-1,-1],"split_conditions":[-2.04E1,-4.04E1,1.77E1,8.1E-2,5.9E-2,1.4E0,5.37E1,-2.2142208E0,-2.4454732E-1,-1.1545283E0,1.22E2,5.55E1,5.1E0,3.67E1,2.5092952E0,-6.426388E-1,-1.5166098E-1,-2.838109E-1,-2.0697663E-2,1.5732636E-1,3.668964E-1,8.4818697E-1,1.367196E0],"split_indices":[5,5,5,1,1,5,5,0,0,0,6,7,5,5,0,0,0,0,0,0,0,0,0],"split_type":[0,0,0,0,0,0,0,0,0,0,0,0,0,0,0,0,0,0,0,0,0,0,0],"sum_hessian":[8.78E2,3.5E1,8.43E2,1.2E1,2.3E1,8.12E2,3.1E1,1.1E1,1E0,1.7E1,6E0,5.06E2,3.06E2,2.6E1,5E0,5E0,1E0,1.71E2,3.35E2,1.52E2,1.54E2,1.9E1,7E0],"tree_param":{"num_deleted":"0","num_feature":"9","num_nodes":"23","size_leaf_vector":"1"}},{"base_weights":[-2.3206739E-1,-5.242593E1,8.43129E-1,-4.1181064E0,-3.4576466E1,-2.1282146E0,8.351956E0,-1.833153E0,-2.3843364E-1,-8.628822E0,-3.9392346E-1,6.9280286E0,1.7889267E0,-9.757528E-1,-3.369379E-1,-1.1233883E-1,6.759515E-2,2.774466E-1,6.692723E-1],"categories":[],"categories_nodes":[],"categories_segments":[],"categories_sizes":[],"default_left":[0,0,0,0,0,0,0,0,0,0,0,0,0,0,0,0,0,0,0],"id":7,"left_children":[1,3,5,-1,7,9,11,-1,-1,13,15,17,-1,-1,-1,-1,-1,-1,-1],"loss_changes":[5.004592E4,6.770414E3,1.9517857E4,0E0,6.3372363E2,7.0653643E3,9.437385E3,0E0,0E0,2.5844814E3,1.6074783E3,2.0363066E3,0E0,0E0,0E0,0E0,0E0,0E0,0E0],"parents":[2147483647,0,0,1,1,2,2,4,4,5,5,6,6,9,9,10,10,11,11],"right_children":[2,4,6,-1,8,10,12,-1,-1,14,16,18,-1,-1,-1,-1,-1,-1,-1],"split_conditions":[-3.47E1,-8.48E1,3.4E0,-4.1181064E0,2E0,-1.03E1,3.67E1,-1.833153E0,-2.3843364E-1,-2.21E1,-1.9E0,1.2E1,1.7889267E0,-9.757528E-1,-3.369379E-1,-1.1233883E-1,6.759515E-2,2.774466E-1,6.692723E-1],"split_indices":[5,5,5,0,1,5,5,0,0,5,5,5,0,0,0,0,0,0,0],"split_type":[0,0,0,0,0,0,0,0,0,0,0,0,0,0,0,0,0,0,0],"sum_hessian":[8.9E2,1.7E1,8.73E2,5E0,1.2E1,6.26E2,2.47E2,1.1E1,1E0,1.31E2,4.95E2,2.36E2,1.1E1,1.8E1,1.13E2,2.4E2,2.55E2,1.96E2,4E1],"tree_param":{"num_deleted":"0","num_feature":"9","num_nodes":"19","size_leaf_vector":"1"}},{"base_weights":[-2.8769648E-1,-3.57384E1,1.0905849E0,-4.163067E0,-2.8210726E1,-1.6018006E0,7.9690657E0,-3.9626392E1,-2.2258375E1,-4.423642E0,7.828904E-1,6.7961707E0,1.8593956E0,-2.1708663E0,-2.324728E-1,-1.135842E0,-3.157667E-1,-3.5036045E-1,1.8531445E-2,5.6260056E-3,1.2270518E-1,2.657195E-1,6.869407E-1],"categories":[],"categories_nodes":[],"categories_segments":[],"categories_sizes":[],"default_left":[0,0,0,0,0,0,0,0,0,0,0,0,0,0,0,0,0,0,0,0,0,0,0],"id":8,"left_children":[1,3,5,-1,7,9,11,13,15,17,19,21,-1,-1,-1,-1,-1,-1,-1,-1,-1,-1,-1],"loss_changes":[4.308555E4,9.456461E3,1.5735838E4,0E0,1.1564844E3,4.1150166E3,7.9379434E3,9.914912E2,1.7338867E1,3.470767E3,3.716739E2,2.3033936E3,0E0,0E0,0E0,0E0,0E0,0E0,0E0,0E0,0E0,0E0,0E0],"parents":[2147483647,0,0,1,1,2,2,4,4,5,5,6,6,7,7,8,8,9,9,10,10,11,11],"right_children":[2,4,6,-1,8,10,12,14,16,18,20,22,-1,-1,-1,-1,-1,-1,-1,-1,-1,-1,-1],"split_conditions":[-2.52E1,-8.48E1,3.4E0,-4.163067E0,-4.56E1,-4E0,3.67E1,2E0,2E-2,8.03E1,1.4E0,1.2E1,1.8593956E0,-2.1708663E0,-2.324728E-1,-1.135842E0,-3.157667E-1,-3.5036045E-1,1.8531445E-2,5.6260056E-3,1.2270518E-1,2.657195E-1,6.869407E-1],"split_indices":[5,5,5,0,5,5,5,1,3,7,5,5,0,0,0,0,0,0,0,0,0,0,0],"split_type":[0,0,0,0,0,0,0,0,0,0,0,0,0,0,0,0,0,0,0,0,0,0,0],"sum_hessian":[8.8E2,3.2E1,8.48E2,3E0,2.9E1,6.1E2,2.38E2,8E0,2.1E1,2.79E2,3.31E2,2.3E2,8E0,7E0,1E0,2E1,1E0,1.81E2,9.8E1,2.37E2,9.4E1,1.91E2,3.9E1],"tree_param":{"num_deleted":"0","num_feature":"9","num_nodes":"23","size_leaf_vector":"1"}},{"base_weights":[1.2117101E-1,-3.0455492E1,1.2002048E0,-4.0943303E0,-2.385732E1,4.090316E-1,2.3584488E1,-1.7178129E0,-1.8721663E1,-2.9068131E0,3.32271E0,1.8128271E1,2.0739303E0,-1.017071E0,-4.7350785E-1,-3.1166938E-1,-7.245664E-2,8.1474654E-2,3.070843E-1,2.5398487E-1,9.5418054E-1],"categories":[],"categories_nodes":[],"categories_segments":[],"categories_sizes":[],"default_left":[0,0,0,0,0,0,0,0,0,0,0,0,0,0,0,0,0,0,0,0,0],"id":9,"left_children":[1,3,5,-1,7,9,11,-1,13,15,17,19,-1,-1,-1,-1,-1,-1,-1,-1,-1],"loss_changes":[2.9037623E4,8.226943E3,1.5043722E4,0E0,8.665244E2,7.9512515E3,2.079455E3,0E0,1.22052734E2,1.8578633E3,2.080626E3,2.0224072E2,0E0,0E0,0E0,0E0,0E0,0E0,0E0,0E0,0E0],"parents":[2147483647,0,0,1,1,2,2,4,4,5,5,6,6,8,8,9,9,10,10,11,11],"right_children":[2,4,6,-1,8,10,12,-1,14,16,18,20,-1,-1,-1,-1,-1,-1,-1,-1,-1],"split_conditions":[-2.21E1,3E0,1.77E1,-4.0943303E0,1.8E1,-1E0,5.37E1,-1.7178129E0,8.1E-2,-1.03E1,4.6E0,4E0,2.0739303E0,-1.017071E0,-4.7350785E-1,-3.1166938E-1,-7.245664E-2,8.1474654E-2,3.070843E-1,2.5398487E-1,9.5418054E-1],"split_indices":[5,6,5,0,6,5,5,0,1,5,5,6,0,0,0,0,0,0,0,0,0],"split_type":[0,0,0,0,0,0,0,0,0,0,0,0,0,0,0,0,0,0,0,0,0],"sum_hessian":[8.78E2,2.9E1,8.49E2,2E0,2.7E1,8.21E2,2.8E1,7E0,2E1,3.84E2,4.37E2,2.3E1,5E0,1.6E1,4E0,1.16E2,2.68E2,2.74E2,1.63E2,2E0,2.1E1],"tree_param":{"num_deleted":"0","num_feature":"9","num_nodes":"21","size_leaf_vector":"1"}},{"base_weights":[5.4315753E-2,-2.7964016E1,1.0824492E0,-4.5253036E1,-1.8048414E1,4.6695182E-1,3.6216732E1,-2.4459524E0,-2.1482329E-1,-9.759771E-1,-4.5713368E-1,-2.0362713E0,4.5989194E0,2.253827E1,4.862951E1,-2.6219413E-1,-3.4506842E-2,1.5327716E-1,4.6577612E-1,2.6307803E-1,1.2020082E0,2.6333995E0,6.099656E-1],"categories":[],"categories_nodes":[],"categories_segments":[],"categories_sizes":[],"default_left":[0,0,0,0,0,0,0,0,0,0,0,0,0,0,0,0,0,0,0,0,0,0,0],"id":10,"left_children":[1,3,5,7,9,11,13,-1,-1,-1,-1,15,17,19,21,-1,-1,-1,-1,-1,-1,-1,-1],"loss_changes":[2.6042613E4,4.669049E3,1.884014E4,1.4414395E3,1.09770996E2,8.883861E3,1.4507891E3,0E0,0E0,0E0,0E0,2.306445E3,2.3147163E3,1.07041504E2,3.873457E2,0E0,0E0,0E0,0E0,0E0,0E0,0E0,0E0],"parents":[2147483647,0,0,1,1,2,2,3,3,4,4,5,5,6,6,11,11,12,12,13,13,14,14],"right_children":[2,4,6,8,10,12,14,-1,-1,-1,-1,16,18,20,22,-1,-1,-1,-1,-1,-1,-1,-1],"split_conditions":[-2.21E1,-4.56E1,3.67E1,3.2E-1,2.6E-2,1.7E0,5.37E1,-2.4459524E0,-2.1482329E-1,-9.759771E-1,-4.5713368E-1,-8.1E0,8.4E0,4E0,1.12E-1,-2.6219413E-1,-3.4506842E-2,1.5327716E-1,4.6577612E-1,2.6307803E-1,1.2020082E0,2.6333995E0,6.099656E-1],"split_indices":[5,5,5,4,4,5,5,0,0,0,0,5,5,6,4,0,0,0,0,0,0,0,0],"split_type":[0,0,0,0,0,0,0,0,0,0,0,0,0,0,0,0,0,0,0,0,0,0,0],"sum_hessian":[9.02E2,3.1E1,8.71E2,1E1,2.1E1,8.57E2,1.4E1,9E0,1E0,1.7E1,4E0,5.34E2,3.23E2,8E0,6E0,1.57E2,3.77E2,2.45E2,7.8E1,1E0,7E0,5E0,1E0],"tree_param":{"num_deleted":"0","num_feature":"9","num_nodes":"23","size_leaf_vector":"1"}},{"base_weights":[-1.423339E-1,-3.5356155E1,1.075E0,-7.537107E1,-2.5938927E1,2.1491842E-1,1.919896E1,-4.1346707E0,-1.1520424E0,-3.4752865E1,-1.9746906E1,-3.5763254E0,2.5119824E0,1.5470316E1,2.0356972E0,-1.9024855E0,-2.094527E-1,-1.0236038E0,-2.0360486E-1,-3.3911255E-1,-1.7343592E-2,4.5731407E-2,2.3039865E-1,8.7363714E-1,4.4586086E-1],"categories":[],"categories_nodes":[],"categories_segments":[],"categories_sizes":[],"default_left":[0,0,0,0,0,0,0,0,0,0,0,0,0,0,0,0,0,0,0,0,0,0,0,0,0],"id":11,"left_children":[1,3,5,7,9,11,13,-1,-1,15,17,19,21,23,-1,-1,-1,-1,-1,-1,-1,-1,-1,-1,-1],"loss_changes":[3.7203676E4,8.973016E3,1.3074275E4,1.0574219E1,6.781406E2,6.993385E3,2.4185684E3,0E0,0E0,7.4748535E2,1.0987256E2,3.1347236E3,1.6698052E3,2.9034326E2,0E0,0E0,0E0,0E0,0E0,0E0,0E0,0E0,0E0,0E0,0E0],"parents":[2147483647,0,0,1,1,2,2,3,3,4,4,5,5,6,6,9,9,10,10,11,11,12,12,13,13],"right_children":[2,4,6,8,10,12,14,-1,-1,16,18,20,22,24,-1,-1,-1,-1,-1,-1,-1,-1,-1,-1,-1],"split_conditions":[-2.88E1,-8.48E1,1.43E1,1E-3,-4.56E1,-3E0,5.37E1,-4.1346707E0,-1.1520424E0,2E0,5.9E-2,6.51E1,3.2E0,7.3E1,2.0356972E0,-1.9024855E0,-2.094527E-1,-1.0236038E0,-2.0360486E-1,-3.3911255E-1,-1.7343592E-2,4.5731407E-2,2.3039865E-1,8.7363714E-1,4.4586086E-1],"split_indices":[5,5,5,4,5,5,5,0,0,1,1,7,5,6,0,0,0,0,0,0,0,0,0,0,0],"split_type":[0,0,0,0,0,0,0,0,0,0,0,0,0,0,0,0,0,0,0,0,0,0,0,0,0],"sum_hessian":[8.66E2,2.8E1,8.38E2,4E0,2.4E1,8.01E2,3.7E1,3E0,1E0,8E0,1.6E1,3.02E2,4.99E2,3.3E1,4E0,7E0,1E0,1.5E1,1E0,1.51E2,1.51E2,2.84E2,2.15E2,2.4E1,9E0],"tree_param":{"num_deleted":"0","num_feature":"9","num_nodes":"25","size_leaf_vector":"1"}},{"base_weights":[-1.2521383E-1,-5.1165314E1,6.263677E-1,-3.4125354E0,-3.19556E1,1.617022E-1,3.7446968E1,-1.7676868E0,-2.0421639E-1,-5.2038555E0,2.4210806E0,9.750124E-1,4.4916485E1,-4.4697222E-1,-2.6085591E-2,7.0467204E-2,4.399962E-1,2.4388537E0,5.43824E-1],"categories":[],"categories_nodes":[],"categories_segments":[],"categories_sizes":[],"default_left":[0,0,0,0,0,0,0,0,0,0,0,0,0,0,0,0,0,0,0],"id":12,"left_children":[1,3,5,-1,7,9,11,-1,-1,13,15,-1,17,-1,-1,-1,-1,-1,-1],"loss_changes":[3.436496E4,2.0856797E3,1.5101424E4,0E0,6.1328613E2,1.0595826E4,5.987041E2,0E0,0E0,4.525392E3,3.9566296E3,0E0,3.8937793E2,0E0,0E0,0E0,0E0,0E0,0E0],"parents":[2147483647,0,0,1,1,2,2,4,4,5,5,6,6,9,9,10,10,12,12],"right_children":[2,4,6,-1,8,10,12,-1,-1,14,16,-1,18,-1,-1,-1,-1,-1,-1],"split_conditions":[-4.56E1,-8.48E1,3.67E1,-3.4125354E0,4.1E-2,-5.3E0,5.37E1,-1.7676868E0,-2.0421639E-1,6.36E1,8.8E0,9.750124E-1,1.12E-1,-4.4697222E-1,-2.6085591E-2,7.0467204E-2,4.399962E-1,2.4388537E0,5.43824E-1],"split_indices":[5,5,5,0,4,5,5,0,0,7,5,0,4,0,0,0,0,0,0],"split_type":[0,0,0,0,0,0,0,0,0,0,0,0,0,0,0,0,0,0,0],"sum_hessian":[8.94E2,1.2E1,8.82E2,5E0,7E0,8.72E2,1E1,6E0,1E0,2.58E2,6.14E2,4E0,6E0,1.43E2,1.15E2,5.31E2,8.3E1,5E0,1E0],"tree_param":{"num_deleted":"0","num_feature":"9","num_nodes":"19","size_leaf_vector":"1"}},{"base_weights":[6.3631296E-2,-2.6748945E1,2.4699712E-1,-4.0840065E1,1.0926665E0,2.9712442E1,9.907437E-3,-6.950028E-1,-2.708336E0,2.2068622E0,7.8595324E0,-3.0602174E0,1.4241024E0,6.071482E-2,4.8349229E-1,-8.8902473E-1,-1.360883E-1,1.1133572E-2,1.6304706E-1],"categories":[],"categories_nodes":[],"categories_segments":[],"categories_sizes":[],"default_left":[0,0,0,0,0,0,0,0,0,0,0,0,0,0,0,0,0,0,0],"id":13,"left_children":[1,3,5,7,-1,9,11,-1,-1,-1,13,15,17,-1,-1,-1,-1,-1,-1],"loss_changes":[4.3429688E3,5.001654E3,6.1263867E3,1.0421807E3,0E0,1.8596685E3,3.7860269E3,0E0,0E0,0E0,3.6377792E1,1.3216829E3,1.3167545E3,0E0,0E0,0E0,0E0,0E0,0E0],"parents":[2147483647,0,0,1,1,2,2,3,3,5,5,6,6,10,10,11,11,12,12],"right_children":[2,4,6,8,-1,10,12,-1,-1,-1,14,16,18,-1,-1,-1,-1,-1,-1],"split_conditions":[3E0,1E-2,4E0,1.5E-2,1.0926665E0,3.27E-1,5.55E1,-6.950028E-1,-2.708336E0,2.2068622E0,1.14E1,6E0,1.117E2,6.071482E-2,4.8349229E-1,-8.8902473E-1,-1.360883E-1,1.1133572E-2,1.6304706E-1],"split_indices":[6,0,6,2,0,2,7,0,0,0,7,6,7,0,0,0,0,0,0],"split_type":[0,0,0,0,0,0,0,0,0,0,0,0,0,0,0,0,0,0,0],"sum_hessian":[8.81E2,5E0,8.76E2,4E0,1E0,6E0,8.7E2,2E0,2E0,3E0,3E0,2.74E2,5.96E2,1E0,2E0,5E0,2.69E2,3.61E2,2.35E2],"tree_param":{"num_deleted":"0","num_feature":"9","num_nodes":"19","size_leaf_vector":"1"}},{"base_weights":[1.4564012E-1,-2.289864E1,1.1295648E0,-3.5505238E1,-1.6684362E1,4.3592867E-1,1.9284292E1,-1.9129103E0,-1.9938932E-1,-1.7736248E1,-3.2324615E-1,-1.674081E0,3.2886703E0,1.4287754E1,3.772191E1,-9.0458006E-1,-2.4796312E-1,-2.4828282E-1,-9.791621E-3,9.302847E-2,2.4979992E-1,1.4287348E-1,7.5606084E-1,2.056058E0,5.1814115E-1],"categories":[],"categories_nodes":[],"categories_segments":[],"categories_sizes":[],"default_left":[0,0,0,0,0,0,0,0,0,0,0,0,0,0,0,0,0,0,0,0,0,0,0,0,0],"id":14,"left_children":[1,3,5,7,9,11,13,-1,-1,15,-1,17,19,21,23,-1,-1,-1,-1,-1,-1,-1,-1,-1,-1],"loss_changes":[1.9933492E4,2.2278906E3,1.0607301E4,8.0186523E2,1.6482764E2,4.899206E3,2.3168896E3,0E0,0E0,1.4706055E1,0E0,2.2762063E3,8.343347E2,2.0448633E2,1.318711E2,0E0,0E0,0E0,0E0,0E0,0E0,0E0,0E0,0E0,0E0],"parents":[2147483647,0,0,1,1,2,2,3,3,4,4,5,5,6,6,9,9,11,11,12,12,13,13,14,14],"right_children":[2,4,6,8,10,12,14,-1,-1,16,-1,18,20,22,24,-1,-1,-1,-1,-1,-1,-1,-1,-1,-1],"split_conditions":[-2.21E1,-4.56E1,1.77E1,2E0,4.1E-2,5E-1,5.37E1,-1.9129103E0,-1.9938932E-1,1.63E-1,-3.2324615E-1,5.42E1,5.1E0,4E0,1.95E-1,-9.0458006E-1,-2.4796312E-1,-2.4828282E-1,-9.791621E-3,9.302847E-2,2.4979992E-1,1.4287348E-1,7.5606084E-1,2.056058E0,5.1814115E-1],"split_indices":[5,5,5,1,1,5,5,0,0,4,0,7,5,6,1,0,0,0,0,0,0,0,0,0,0],"split_type":[0,0,0,0,0,0,0,0,0,0,0,0,0,0,0,0,0,0,0,0,0,0,0,0,0],"sum_hessian":[8.77E2,3.5E1,8.42E2,1E1,2.5E1,8.12E2,3E1,9E0,1E0,2.2E1,3E0,4.67E2,3.45E2,2.5E1,5E0,2.1E1,1E0,1.44E2,3.23E2,1.89E2,1.56E2,2E0,2.3E1,4E0,1E0],"tree_param":{"num_deleted":"0","num_feature":"9","num_nodes":"25","size_leaf_vector":"1"}},{"base_weights":[-1.5536374E-1,-4.9730064E1,5.2781856E-1,-2.6772027E0,-1.9440459E-1,-3.4738523E-1,1.623196E1,-1.035315E1,7.0983785E-1,1.23020115E1,2.2998567E0,-8.108676E-1,-3.668961E-1,-4.190707E-2,1.5316474E-1,7.289471E-1,3.615804E-1],"categories":[],"categories_nodes":[],"categories_segments":[],"categories_sizes":[],"default_left":[0,0,0,0,0,0,0,0,0,0,0,0,0,0,0,0,0],"id":15,"left_children":[1,3,5,-1,-1,7,9,11,13,15,-1,-1,-1,-1,-1,-1,-1],"loss_changes":[2.9898316E4,1.8899062E3,1.1976944E4,0E0,0E0,8.745047E3,4.8150215E3,1.2778682E3,2.7276084E3,3.794585E2,0E0,0E0,0E0,0E0,0E0,0E0,0E0],"parents":[2147483647,0,0,1,1,2,2,5,5,6,6,7,7,8,8,9,9],"right_children":[2,4,6,-1,-1,8,10,12,14,16,-1,-1,-1,-1,-1,-1,-1],"split_conditions":[-4.56E1,3.2E-1,1.2E1,-2.6772027E0,-1.9440459E-1,-1.29E1,5.37E1,-2.21E1,1.4E0,8.7E1,2.2998567E0,-8.108676E-1,-3.668961E-1,-4.190707E-2,1.5316474E-1,7.289471E-1,3.615804E-1],"split_indices":[5,4,5,0,0,5,5,5,5,6,0,0,0,0,0,0,0],"split_type":[0,0,0,0,0,0,0,0,0,0,0,0,0,0,0,0,0],"sum_hessian":[8.81E2,1.1E1,8.7E2,1E1,1E0,8.25E2,4.5E1,7.8E1,7.47E2,4.1E1,4E0,2.5E1,5.3E1,4.51E2,2.96E2,2.7E1,1.4E1],"tree_param":{"num_deleted":"0","num_feature":"9","num_nodes":"17","size_leaf_vector":"1"}},{"base_weights":[-2.6068902E-1,-3.291315E1,-7.208119E-2,-5.0705956E1,9.5645183E-1,-4.951487E0,6.2140286E-1,-5.904977E-1,-4.1848493E0,-6.094739E0,-4.6143702E-1,-2.745601E-1,2.5172696E0,-6.14456E-1,-1.7493512E-1,1.21333934E-1,-7.3933285E-1,-5.5146676E-2,8.609411E-2,7.344431E-2,1.7357686E-1],"categories":[],"categories_nodes":[],"categories_segments":[],"categories_sizes":[],"default_left":[0,0,0,0,0,0,0,0,0,0,0,0,0,0,0,0,0,0,0,0,0],"id":16,"left_children":[1,3,5,7,-1,9,11,-1,-1,13,15,17,19,-1,-1,-1,-1,-1,-1,-1,-1],"loss_changes":[5.3616904E3,5.5998384E3,2.9368228E3,4.144419E3,0E0,5.5157983E2,1.2916472E3,0E0,0E0,1.339956E3,9.87459E2,8.569136E2,2.3900769E2,0E0,0E0,0E0,0E0,0E0,0E0,0E0,0E0],"parents":[2147483647,0,0,1,1,2,2,3,3,5,5,6,6,9,9,10,10,11,11,12,12],"right_children":[2,4,6,8,-1,10,12,-1,-1,14,16,18,20,-1,-1,-1,-1,-1,-1,-1,-1],"split_conditions":[3E0,1E-2,3.13E1,1.5E-2,9.5645183E-1,4.49E-1,1.101E2,-5.904977E-1,-4.1848493E0,3E1,1.11E0,4E-2,3E-2,-6.14456E-1,-1.7493512E-1,1.21333934E-1,-7.3933285E-1,-5.5146676E-2,8.609411E-2,7.344431E-2,1.7357686E-1],"split_indices":[6,0,7,2,0,2,7,0,0,6,2,0,0,0,0,0,0,0,0,0,0],"split_type":[0,0,0,0,0,0,0,0,0,0,0,0,0,0,0,0,0,0,0,0,0],"sum_hessian":[8.7E2,4E0,8.66E2,3E0,1E0,1.07E2,7.59E2,2E0,1E0,8.5E1,2.2E1,5.16E2,2.43E2,2.4E1,6.1E1,1.9E1,3E0,3.65E2,1.51E2,1.17E2,1.26E2],"tree_param":{"num_deleted":"0","num_feature":"9","num_nodes":"21","size_leaf_vector":"1"}},{"base_weights":[8.587852E-2,-2.0237467E1,9.0740985E-1,-3.0589705E1,-1.5287072E1,2.915234E-1,1.646868E1,-1.6576134E0,-1.8816581E-1,-1.601018E1,-3.7441096E-1,-1.9722958E0,2.237947E0,1.2835158E1,1.676133E0,-8.1732893E-1,-2.2364472E-1,-2.1093737E-1,-3.232174E-2,6.757623E-2,2.364923E-1,1.799923E-1,6.899701E-1],"categories":[],"categories_nodes":[],"categories_segments":[],"categories_sizes":[],"default_left":[0,0,0,0,0,0,0,0,0,0,0,0,0,0,0,0,0,0,0,0,0,0,0],"id":17,"left_children":[1,3,5,7,9,11,13,-1,-1,15,-1,17,19,21,-1,-1,-1,-1,-1,-1,-1,-1,-1],"loss_changes":[1.4610898E4,1.274794E3,8.055322E3,5.6268066E2,2.1097656E1,3.573558E3,1.5526436E3,0E0,0E0,1.2268555E1,0E0,1.1142039E3,9.5667676E2,1.9966699E2,0E0,0E0,0E0,0E0,0E0,0E0,0E0,0E0,0E0],"parents":[2147483647,0,0,1,1,2,2,3,3,4,4,5,5,6,6,9,9,11,11,12,12,13,13],"right_children":[2,4,6,8,10,12,14,-1,-1,16,-1,18,20,22,-1,-1,-1,-1,-1,-1,-1,-1,-1],"split_conditions":[-2.21E1,-4.56E1,1.43E1,2E0,5.9E-2,-1E0,5.37E1,-1.6576134E0,-1.8816581E-1,1E-2,-3.7441096E-1,3.59E2,4E-2,4E0,1.676133E0,-8.1732893E-1,-2.2364472E-1,-2.1093737E-1,-3.232174E-2,6.757623E-2,2.364923E-1,1.799923E-1,6.899701E-1],"split_indices":[5,5,5,1,1,5,5,0,0,3,0,6,0,6,0,0,0,0,0,0,0,0,0],"split_type":[0,0,0,0,0,0,0,0,0,0,0,0,0,0,0,0,0,0,0,0,0,0,0],"sum_hessian":[8.73E2,3.3E1,8.4E2,9E0,2.4E1,8.09E2,3.1E1,8E0,1E0,2.1E1,3E0,3.74E2,4.35E2,2.7E1,4E0,2E1,1E0,1.38E2,2.36E2,3.22E2,1.13E2,3E0,2.4E1],"tree_param":{"num_deleted":"0","num_feature":"9","num_nodes":"23","size_leaf_vector":"1"}},{"base_weights":[-4.845988E-2,-4.855258E1,1.693459E-1,-5.4431385E-1,-4.0387874E0,1.5451398E1,-4.112E-3,1.6471468E0,6.9606466E0,-1.1372532E0,2.3490455E0,-1.576632E-1,5.428747E-1,-2.778903E-1,-3.7871454E-2,8.416834E-2,3.2087642E-1],"categories":[],"categories_nodes":[],"categories_segments":[],"categories_sizes":[],"default_left":[0,0,0,0,0,0,0,0,0,0,0,0,0,0,0,0,0],"id":18,"left_children":[1,3,5,-1,-1,7,9,-1,11,13,15,-1,-1,-1,-1,-1,-1],"loss_changes":[9.452865E3,3.9755635E3,2.3619197E3,0E0,0E0,1.2558586E3,2.3544888E3,0E0,3.4953546E2,9.9649347E2,7.6647986E2,0E0,0E0,0E0,0E0,0E0,0E0],"parents":[2147483647,0,0,1,1,2,2,5,5,6,6,8,8,9,9,10,10],"right_children":[2,4,6,-1,-1,8,10,-1,12,14,16,-1,-1,-1,-1,-1,-1],"split_conditions":[3E0,1.5E-2,1.22E1,-5.4431385E-1,-4.0387874E0,1.5E-2,1.029E2,1.6471468E0,1.26E-1,3E1,1.421E2,-1.576632E-1,5.428747E-1,-2.778903E-1,-3.7871454E-2,8.416834E-2,3.2087642E-1],"split_indices":[6,2,7,0,0,2,7,0,2,6,7,0,0,0,0,0,0],"split_type":[0,0,0,0,0,0,0,0,0,0,0,0,0,0,0,0,0],"sum_hessian":[8.93E2,3E0,8.9E2,2E0,1E0,9E0,8.81E2,2E0,7E0,5.95E2,2.86E2,2E0,5E0,4.6E1,5.49E2,2.47E2,3.9E1],"tree_param":{"num_deleted":"0","num_feature":"9","num_nodes":"17","size_leaf_vector":"1"}},{"base_weights":[2.7720096E-2,-2.1599375E1,2.5064808E-1,-2.9257332E1,9.916069E-1,3.007123E1,4.4226266E-2,-5.2616996E-1,-3.3748074E1,1.9607989E0,3.9272442E-1,-1.385802E0,2.0660045E0,-2.1245422E0,-5.420844E-1,-3.2350138E-1,-4.454E-2,9.306418E-2,6.91716E-1],"categories":[],"categories_nodes":[],"categories_segments":[],"categories_sizes":[],"default_left":[0,0,0,0,0,0,0,0,0,0,0,0,0,0,0,0,0,0,0],"id":19,"left_children":[1,3,5,7,-1,9,11,-1,13,-1,-1,15,17,-1,-1,-1,-1,-1,-1],"loss_changes":[4.252966E3,3.4357617E3,5.3725254E3,3.1789014E2,0E0,9.1097754E2,2.5124248E3,0E0,7.4091895E2,0E0,0E0,1.2752379E3,8.415691E2,0E0,0E0,0E0,0E0,0E0,0E0],"parents":[2147483647,0,0,1,1,2,2,3,3,5,5,6,6,8,8,11,11,12,12],"right_children":[2,4,6,8,-1,10,12,-1,14,-1,-1,16,18,-1,-1,-1,-1,-1,-1],"split_conditions":[1.14E1,2.8E-1,4E0,1.5E-2,9.916069E-1,3.27E-1,9.05E1,-5.2616996E-1,9.7E0,1.9607989E0,3.9272442E-1,3E1,2.5E-1,-2.1245422E0,-5.420844E-1,-3.2350138E-1,-4.454E-2,9.306418E-2,6.91716E-1],"split_indices":[7,0,6,2,0,2,7,0,7,0,0,6,0,0,0,0,0,0,0],"split_type":[0,0,0,0,0,0,0,0,0,0,0,0,0,0,0,0,0,0,0],"sum_hessian":[8.8E2,8E0,8.72E2,7E0,1E0,5E0,8.67E2,2E0,5E0,3E0,2E0,5.08E2,3.59E2,3E0,2E0,4.4E1,4.64E2,3.54E2,5E0],"tree_param":{"num_deleted":"0","num_feature":"9","num_nodes":"19","size_leaf_vector":"1"}},{"base_weights":[-2.3721391E-2,-3.2009014E1,6.966948E-1,-5.709057E1,-2.2170465E1,2.4583632E-1,2.8825584E1,-1.1310279E0,-3.6265194E0,-2.3199358E1,-1.6842687E-1,-3.6738522E0,2.010587E0,1.786821E1,3.723036E1,-1.4311992E0,-7.4374056E-1,-3.0895314E-1,-2.0047119E-2,6.7074716E-2,3.6324418E-1,1.0210667E-1,9.9186724E-1,2.0384765E0,3.9988372E-1],"categories":[],"categories_nodes":[],"categories_segments":[],"categories_sizes":[],"default_left":[0,0,0,0,0,0,0,0,0,0,0,0,0,0,0,0,0,0,0,0,0,0,0,0,0],"id":20,"left_children":[1,3,5,7,9,11,13,-1,-1,15,-1,17,19,21,23,-1,-1,-1,-1,-1,-1,-1,-1,-1,-1],"loss_changes":[2.092205E4,3.6695977E3,1.1254662E4,1.02037695E3,2.3137451E2,6.060001E3,6.240781E2,0E0,0E0,2.5158643E2,0E0,2.2277395E3,2.1136836E3,2.0879907E2,3.9815527E2,0E0,0E0,0E0,0E0,0E0,0E0,0E0,0E0,0E0,0E0],"parents":[2147483647,0,0,1,1,2,2,3,3,4,4,5,5,6,6,9,9,11,11,12,12,13,13,14,14],"right_children":[2,4,6,8,10,12,14,-1,-1,16,-1,18,20,22,24,-1,-1,-1,-1,-1,-1,-1,-1,-1,-1],"split_conditions":[-3.47E1,-8.48E1,3.67E1,5.55E-1,8.1E-2,-5.3E0,5.37E1,-1.1310279E0,-3.6265194E0,2.2E1,-1.6842687E-1,6.51E1,8.8E0,4E0,1.95E-1,-1.4311992E0,-7.4374056E-1,-3.0895314E-1,-2.0047119E-2,6.7074716E-2,3.6324418E-1,1.0210667E-1,9.9186724E-1,2.0384765E0,3.9988372E-1],"split_indices":[5,5,5,2,1,5,5,0,0,6,0,7,5,6,1,0,0,0,0,0,0,0,0,0,0],"split_type":[0,0,0,0,0,0,0,0,0,0,0,0,0,0,0,0,0,0,0,0,0,0,0,0,0],"sum_hessian":[9.06E2,1.9E1,8.87E2,4E0,1.5E1,8.74E2,1.3E1,2E0,2E0,1.4E1,1E0,2.71E2,6.03E2,7E0,6E0,7E0,7E0,1.53E2,1.18E2,5.36E2,6.7E1,1E0,6E0,5E0,1E0],"tree_param":{"num_deleted":"0","num_feature":"9","num_nodes":"25","size_leaf_vector":"1"}},{"base_weights":[-2.042426E-1,-2.8573294E1,6.418578E-1,-5.5137814E1,-1.9622797E1,-1.4099985E-1,1.2741884E1,-1.5061092E0,-3.5056355E0,-2.1414934E1,-3.32624E-1,-3.5352094E0,1.3198203E0,9.314362E0,2.2571617E1,-1.3875667E0,-8.42157E-1,-2.6451215E-1,3.196324E-2,1.5698288E-2,1.5995993E-1,1.9767018E-1,5.5741334E-1,1.3007628E0,7.109083E-1],"categories":[],"categories_nodes":[],"categories_segments":[],"categories_sizes":[],"default_left":[0,0,0,0,0,0,0,0,0,0,0,0,0,0,0,0,0,0,0,0,0,0,0,0,0],"id":21,"left_children":[1,3,5,7,9,11,13,-1,-1,15,-1,17,19,21,23,-1,-1,-1,-1,-1,-1,-1,-1,-1,-1],"loss_changes":[2.154909E4,5.0999473E3,8.261902E3,1.356914E2,3.4567383E2,4.070496E3,1.575417E3,0E0,0E0,5.40166E1,0E0,1.8129885E3,1.0840745E3,3.5901733E2,4.0722656E0,0E0,0E0,0E0,0E0,0E0,0E0,0E0,0E0,0E0,0E0],"parents":[2147483647,0,0,1,1,2,2,3,3,4,4,5,5,6,6,9,9,11,11,12,12,13,13,14,14],"right_children":[2,4,6,8,10,12,14,-1,-1,16,-1,18,20,22,24,-1,-1,-1,-1,-1,-1,-1,-1,-1,-1],"split_conditions":[-2.88E1,-8.48E1,1.2E1,5.55E-1,4.29E1,-5.5E0,3.67E1,-1.5061092E0,-3.5056355E0,-4.56E1,-3.32624E-1,8.16E1,3.4E0,4E-2,1.55E1,-1.3875667E0,-8.42157E-1,-2.6451215E-1,3.196324E-2,1.5698288E-2,1.5995993E-1,1.9767018E-1,5.5741334E-1,1.3007628E0,7.109083E-1],"split_indices":[5,5,5,2,7,5,5,0,0,5,0,7,5,0,7,0,0,0,0,0,0,0,0,0,0],"split_type":[0,0,0,0,0,0,0,0,0,0,0,0,0,0,0,0,0,0,0,0,0,0,0,0,0],"sum_hessian":[8.96E2,2.5E1,8.71E2,5E0,2E1,8.19E2,5.2E1,3E0,2E0,1.7E1,3E0,2.46E2,5.73E2,4E1,1.2E1,5E0,1.2E1,1.73E2,7.3E1,3.74E2,1.99E2,1.1E1,2.9E1,7E0,5E0],"tree_param":{"num_deleted":"0","num_feature":"9","num_nodes":"25","size_leaf_vector":"1"}},{"base_weights":[-4.0902853E-2,-2.3675508E1,8.262139E-1,-2.8826144E0,-1.6506641E1,1.9537486E-1,1.922622E1,-1.0848215E0,-1.317955E1,-1.4462274E0,2.6397207E0,1.3444932E1,1.9091724E0,-6.7826504E-1,-1.559006E-1,-2.0781389E-1,-8.9958375E-3,1.1148037E-1,4.80085E-1,8.178129E-2,6.953686E-1],"categories":[],"categories_nodes":[],"categories_segments":[],"categories_sizes":[],"default_left":[0,0,0,0,0,0,0,0,0,0,0,0,0,0,0,0,0,0,0,0,0],"id":22,"left_children":[1,3,5,-1,7,9,11,-1,13,15,17,19,-1,-1,-1,-1,-1,-1,-1,-1,-1],"loss_changes":[1.7951777E4,6.5991797E3,9.804532E3,0E0,1.8025732E2,3.2861602E3,2.5553467E3,0E0,3.1447021E1,1.6808175E3,9.179529E2,1.0285791E2,0E0,0E0,0E0,0E0,0E0,0E0,0E0,0E0,0E0],"parents":[2147483647,0,0,1,1,2,2,4,4,5,5,6,6,8,8,9,9,10,10,11,11],"right_children":[2,4,6,-1,8,10,12,-1,14,16,18,20,-1,-1,-1,-1,-1,-1,-1,-1,-1],"split_conditions":[-2.52E1,-8.48E1,1.92E1,-2.8826144E0,1.8E1,9E-1,5.37E1,-1.0848215E0,7.2E-1,5.42E1,1.4E-1,4E0,1.9091724E0,-6.7826504E-1,-1.559006E-1,-2.0781389E-1,-8.9958375E-3,1.1148037E-1,4.80085E-1,8.178129E-2,6.953686E-1],"split_indices":[5,5,5,0,6,5,5,0,2,7,0,6,0,0,0,0,0,0,0,0,0],"split_type":[0,0,0,0,0,0,0,0,0,0,0,0,0,0,0,0,0,0,0,0,0],"sum_hessian":[8.74E2,3E1,8.44E2,4E0,2.6E1,8.17E2,2.7E1,8E0,1.8E1,4.89E2,3.28E2,2.2E1,5E0,1.7E1,1E0,1.55E2,3.34E2,3.11E2,1.7E1,1E0,2.1E1],"tree_param":{"num_deleted":"0","num_feature":"9","num_nodes":"21","size_leaf_vector":"1"}},{"base_weights":[-5.2306168E-2,-2.0317572E1,9.0608853E-1,-5.0814034E1,-1.4670452E1,6.46902E-2,8.96015E0,-1.3415321E0,-3.2926939E0,-1.9238245E1,-1.1252211E1,-2.4968896E0,1.2293555E0,6.9806447E0,1.992554E1,-1.0125204E0,-1.5200308E-1,-6.6339475E-1,-3.6525157E-1,-2.0662084E-1,6.0795005E-2,3.254549E-2,1.6053247E-1,1.6902801E-1,3.8646373E-1,1.1489152E0,5.5280083E-1],"categories":[],"categories_nodes":[],"categories_segments":[],"categories_sizes":[],"default_left":[0,0,0,0,0,0,0,0,0,0,0,0,0,0,0,0,0,0,0,0,0,0,0,0,0,0,0],"id":23,"left_children":[1,3,5,7,9,11,13,-1,-1,15,17,19,21,23,25,-1,-1,-1,-1,-1,-1,-1,-1,-1,-1,-1,-1],"loss_changes":[1.7634275E4,6.3154395E3,5.8747964E3,3.9733594E2,3.456245E2,2.3480085E3,1.6408022E3,0E0,0E0,1.6797021E2,8.607178E1,1.498827E3,6.179347E2,1.652251E2,7.087012E1,0E0,0E0,0E0,0E0,0E0,0E0,0E0,0E0,0E0,0E0,0E0,0E0],"parents":[2147483647,0,0,1,1,2,2,3,3,4,4,5,5,6,6,9,9,10,10,11,11,12,12,13,13,14,14],"right_children":[2,4,6,8,10,12,14,-1,-1,16,18,20,22,24,26,-1,-1,-1,-1,-1,-1,-1,-1,-1,-1,-1,-1],"split_conditions":[-2.21E1,-8.48E1,9.3E0,5.55E-1,2.8E1,-5.3E0,3.67E1,-1.3415321E0,-3.2926939E0,2E0,2.85E-1,8.37E1,4.6E0,5.1E-2,1.55E1,-1.0125204E0,-1.5200308E-1,-6.6339475E-1,-3.6525157E-1,-2.0662084E-1,6.0795005E-2,3.254549E-2,1.6053247E-1,1.6902801E-1,3.8646373E-1,1.1489152E0,5.5280083E-1],"split_indices":[5,5,5,2,6,5,5,0,0,1,2,7,5,2,7,0,0,0,0,0,0,0,0,0,0,0,0],"split_type":[0,0,0,0,0,0,0,0,0,0,0,0,0,0,0,0,0,0,0,0,0,0,0,0,0,0,0],"sum_hessian":[9.06E2,4E1,8.66E2,5E0,3.5E1,7.85E2,8.1E1,3E0,2E0,1.3E1,2.2E1,2.45E2,5.4E2,7E1,1.1E1,1.2E1,1E0,1.3E1,9E0,1.7E2,7.5E1,4.19E2,1.21E2,1.3E1,5.7E1,7E0,4E0],"tree_param":{"num_deleted":"0","num_feature":"9","num_nodes":"27","size_leaf_vector":"1"}},{"base_weights":[2.1571481E-1,-3.0016887E0,4.8840138E-1,1.3733293E-1,2.3972418E1,-1.2758002E1,6.764003E-1,6.937274E-1,3.344084E1,-6.9990546E-1,1.7617727E-2,-1.7127207E-2,2.1726814E-1,1.8940843E0,2.809154E-1],"categories":[],"categories_nodes":[],"categories_segments":[],"categories_sizes":[],"default_left":[0,0,0,0,0,0,0,0,0,0,0,0,0,0,0],"id":24,"left_children":[1,-1,3,5,7,9,11,-1,13,-1,-1,-1,-1,-1,-1],"loss_changes":[1.4585614E4,0E0,7.2765986E3,6.063346E3,7.789658E2,5.739707E2,3.1305864E3,0E0,5.285029E2,0E0,0E0,0E0,0E0,0E0,0E0],"parents":[2147483647,0,0,2,2,3,3,4,4,5,5,6,6,8,8],"right_children":[2,-1,4,6,8,10,12,-1,14,-1,-1,-1,-1,-1,-1],"split_conditions":[-8.48E1,-3.0016887E0,3.67E1,-2E1,5.37E1,1E-2,4.6E0,6.937274E-1,1.95E-1,-6.9990546E-1,1.7617727E-2,-1.7127207E-2,2.1726814E-1,1.8940843E0,2.809154E-1],"split_indices":[5,0,5,5,5,3,5,0,1,0,0,0,0,0,0],"split_type":[0,0,0,0,0,0,0,0,0,0,0,0,0,0,0],"sum_hessian":[8.85E2,3E0,8.82E2,8.7E2,1.2E1,3.4E1,8.36E2,7E0,5E0,3.1E1,3E0,6.55E2,1.81E2,4E0,1E0],"tree_param":{"num_deleted":"0","num_feature":"9","num_nodes":"15","size_leaf_vector":"1"}},{"base_weights":[-1.3620791E-1,-3.537001E1,3.3582538E-1,-3.4769752E0,-2.5941917E1,-7.73527E0,1.1257297E0,-2.8013288E1,-1.3070536E-1,-6.0105467E-1,-5.7950068E0,6.793812E-1,1.3230669E1,-1.4756131E0,-3.6306307E-1,-3.001353E-1,1.4590394E-1,-2.8586019E-2,1.243073E-1,1.004762E0,4.829339E-1],"categories":[],"categories_nodes":[],"categories_segments":[],"categories_sizes":[],"default_left":[0,0,0,0,0,0,0,0,0,0,0,0,0,0,0,0,0,0,0,0,0],"id":25,"left_children":[1,3,5,-1,7,9,11,13,-1,-1,15,17,19,-1,-1,-1,-1,-1,-1,-1,-1],"loss_changes":[1.5096673E4,2.0618486E3,5.72106E3,0E0,4.582959E2,5.955879E2,4.4052803E3,9.677197E1,0E0,0E0,1.20669556E2,1.7849136E3,5.169922E2,0E0,0E0,0E0,0E0,0E0,0E0,0E0,0E0],"parents":[2147483647,0,0,1,1,2,2,4,4,5,5,6,6,7,7,10,10,11,11,12,12],"right_children":[2,4,6,-1,8,10,12,14,-1,-1,16,18,20,-1,-1,-1,-1,-1,-1,-1,-1],"split_conditions":[-4.56E1,3E0,-1.33E1,-3.4769752E0,3.2E-1,-2.52E1,1.77E1,2.2E1,-1.3070536E-1,-6.0105467E-1,1.1E-1,1.4E0,1.02E-1,-1.4756131E0,-3.6306307E-1,-3.001353E-1,1.4590394E-1,-2.8586019E-2,1.243073E-1,1.004762E0,4.829339E-1],"split_indices":[5,6,5,0,4,5,5,6,0,0,3,5,2,0,0,0,0,0,0,0,0],"split_type":[0,0,0,0,0,0,0,0,0,0,0,0,0,0,0,0,0,0,0,0,0],"sum_hessian":[9.06E2,1.1E1,8.95E2,1E0,1E1,7.9E1,8.16E2,9E0,1E0,2.3E1,5.6E1,7.88E2,2.8E1,8E0,1E0,5.5E1,1E0,4.66E2,3.22E2,8E0,2E1],"tree_param":{"num_deleted":"0","num_feature":"9","num_nodes":"21","size_leaf_vector":"1"}},{"base_weights":[-5.0045315E-2,-3.7415863E1,4.219111E-1,-2.0891805E0,-5.9203374E-1,-3.3730265E-1,7.633932E0,-4.604322E0,5.505443E-1,5.850697E0,1.7697184E1,-2.4659717E-1,9.906141E-1,-3.5501424E-2,7.165762E-2,4.0516502E-1,2.0715252E-1,1.0217011E0,4.8894024E-1],"categories":[],"categories_nodes":[],"categories_segments":[],"categories_sizes":[],"default_left":[0,0,0,0,0,0,0,0,0,0,0,0,0,0,0,0,0,0,0],"id":26,"left_children":[1,3,5,-1,-1,7,9,11,13,15,17,-1,-1,-1,-1,-1,-1,-1,-1],"loss_changes":[1.5552255E4,7.340176E2,4.7717056E3,0E0,0E0,2.99163E3,1.3859062E3,1.1856318E3,7.286525E2,2.4338672E2,6.0235596E1,0E0,0E0,0E0,0E0,0E0,0E0,0E0,0E0],"parents":[2147483647,0,0,1,1,2,2,5,5,6,6,7,7,8,8,9,9,10,10],"right_children":[2,4,6,-1,-1,8,10,12,14,16,18,-1,-1,-1,-1,-1,-1,-1,-1],"split_conditions":[-4.56E1,7.7E-2,9.3E0,-2.0891805E0,-5.9203374E-1,-1.03E1,3.67E1,1E0,-1.1E0,8.7E1,1.55E1,-2.4659717E-1,9.906141E-1,-3.5501424E-2,7.165762E-2,4.0516502E-1,2.0715252E-1,1.0217011E0,4.8894024E-1],"split_indices":[5,1,5,0,0,5,5,1,5,6,7,0,0,0,0,0,0,0,0],"split_type":[0,0,0,0,0,0,0,0,0,0,0,0,0,0,0,0,0,0,0],"sum_hessian":[8.8E2,1E1,8.7E2,8E0,2E0,7.88E2,8.2E1,1.35E2,6.53E2,7.1E1,1.1E1,1.34E2,1E0,2.69E2,3.84E2,2.9E1,4.2E1,7E0,4E0],"tree_param":{"num_deleted":"0","num_feature":"9","num_nodes":"19","size_leaf_vector":"1"}},{"base_weights":[-4.583948E-2,-2.3931686E1,8.7652214E-2,-3.7133762E1,7.2191566E-1,2.0344164E1,-7.194648E-2,-2.5036982E-1,-3.3378217E0,1.6118912E0,3.3644626E0,-4.828185E0,2.112486E-1,-2.4257112E-2,2.404689E-1,-3.1088194E-1,1.6218269E-1,-2.548784E-2,8.88809E-2],"categories":[],"categories_nodes":[],"categories_segments":[],"categories_sizes":[],"default_left":[0,0,0,0,0,0,0,0,0,0,0,0,0,0,0,0,0,0,0],"id":27,"left_children":[1,3,5,7,-1,9,11,-1,-1,-1,13,15,17,-1,-1,-1,-1,-1,-1],"loss_changes":[2.8686152E3,3.0689673E3,2.894921E3,3.472399E3,0E0,1.3051924E3,1.1984526E3,0E0,0E0,0E0,2.458265E1,5.809403E2,9.495692E2,0E0,0E0,0E0,0E0,0E0,0E0],"parents":[2147483647,0,0,1,1,2,2,3,3,5,5,6,6,10,10,11,11,12,12],"right_children":[2,4,6,8,-1,10,12,-1,-1,-1,14,16,18,-1,-1,-1,-1,-1,-1],"split_conditions":[3E0,1E-2,4E0,1.5E-2,7.2191566E-1,3.27E-1,3E1,-2.5036982E-1,-3.3378217E0,1.6118912E0,1E-3,6.4E-1,4E-2,-2.4257112E-2,2.404689E-1,-3.1088194E-1,1.6218269E-1,-2.548784E-2,8.88809E-2],"split_indices":[6,0,6,2,0,2,6,0,0,0,4,0,0,0,0,0,0,0,0],"split_type":[0,0,0,0,0,0,0,0,0,0,0,0,0,0,0,0,0,0,0],"sum_hessian":[8.98E2,4E0,8.94E2,3E0,1E0,6E0,8.88E2,2E0,1E0,3E0,3E0,4.9E1,8.39E2,1E0,2E0,4.2E1,7E0,5.75E2,2.64E2],"tree_param":{"num_deleted":"0","num_feature":"9","num_nodes":"19","size_leaf_vector":"1"}},{"base_weights":[5.0226413E-3,-1.4071546E1,7.299177E-1,-2.1506062E1,-9.320695E0,3.7942258E-1,2.1256855E1,-2.266016E1,-1.0486486E-1,-1.0690581E1,-8.811024E-1,-1.7421378E0,1.7987643E0,1.1834181E1,2.898893E1,-1.1847019E0,-2.0464621E-1,-5.4466236E-1,-1.5073231E-1,-1.2816852E-1,1.4619926E-1,-2.7278647E-1,-4.8162207E-2,5.560974E-2,2.6646385E-1,-2.9066324E-2,6.8454355E-1,1.614266E0,2.3026495E-1],"categories":[],"categories_nodes":[],"categories_segments":[],"categories_sizes":[],"default_left":[0,0,0,0,0,0,0,0,0,0,0,0,0,0,0,0,0,0,0,0,0,0,0,0,0,0,0,0,0],"id":28,"left_children":[1,3,5,7,9,11,13,15,-1,17,19,21,23,25,27,-1,-1,-1,-1,-1,-1,-1,-1,-1,-1,-1,-1,-1,-1],"loss_changes":[8.959209E3,1.3183203E3,5.999419E3,3.1086865E2,3.142964E2,2.4783557E3,6.7693604E2,1.9096582E2,0E0,4.4960938E0,3.9501144E1,9.492673E2,1.1890762E3,1.9237292E2,4.1396143E2,0E0,0E0,0E0,0E0,0E0,0E0,0E0,0E0,0E0,0E0,0E0,0E0,0E0,0E0],"parents":[2147483647,0,0,1,1,2,2,3,3,4,4,5,5,6,6,7,7,9,9,10,10,11,11,12,12,13,13,14,14],"right_children":[2,4,6,8,10,12,14,16,-1,18,20,22,24,26,28,-1,-1,-1,-1,-1,-1,-1,-1,-1,-1,-1,-1,-1,-1],"split_conditions":[-2E1,2.2E1,3.67E1,2E0,1E-2,-1.6E0,5.37E1,-3.17E1,-1.0486486E-1,2.66E-1,3.8E-1,3.79E1,8.8E0,4E0,1.95E-1,-1.1847019E0,-2.0464621E-1,-5.4466236E-1,-1.5073231E-1,-1.2816852E-1,1.4619926E-1,-2.7278647E-1,-4.8162207E-2,5.560974E-2,2.6646385E-1,-2.9066324E-2,6.8454355E-1,1.614266E0,2.3026495E-1],"split_indices":[5,6,5,1,3,5,5,5,0,1,0,7,5,6,1,0,0,0,0,0,0,0,0,0,0,0,0,0,0],"split_type":[0,0,0,0,0,0,0,0,0,0,0,0,0,0,0,0,0,0,0,0,0,0,0,0,0,0,0,0,0],"sum_hessian":[8.76E2,4.2E1,8.34E2,1.5E1,2.7E1,8.21E2,1.3E1,1.4E1,1E0,2.3E1,4E0,3.29E2,4.92E2,7E0,6E0,1.3E1,1E0,2.2E1,1E0,3E0,1E0,5.6E1,2.73E2,4.13E2,7.9E1,1E0,6E0,5E0,1E0],"tree_param":{"num_deleted":"0","num_feature":"9","num_nodes":"29","size_leaf_vector":"1"}},{"base_weights":[5.2715622E-2,-1.5794196E1,7.028788E-1,-4.877162E1,-1.23176365E1,2.7865335E-1,1.2747124E1,-4.331131E-1,-3.2247586E0,-1.590057E1,-8.448493E0,-1.365964E0,1.6998944E0,1.0300451E1,1.1215533E0,-8.34398E-1,-1.0224324E-1,-5.1029843E-1,-2.1143757E-1,-7.352846E-2,9.648308E-1,5.68781E-2,2.4193461E-1,-3.9101314E-2,5.649073E-1],"categories":[],"categories_nodes":[],"categories_segments":[],"categories_sizes":[],"default_left":[0,0,0,0,0,0,0,0,0,0,0,0,0,0,0,0,0,0,0,0,0,0,0,0,0],"id":29,"left_children":[1,3,5,7,9,11,13,-1,-1,15,17,19,21,23,-1,-1,-1,-1,-1,-1,-1,-1,-1,-1,-1],"loss_changes":[9.149933E3,3.4119277E3,4.3548306E3,1.33331E3,3.2313867E2,1.9306753E3,4.5605908E2,0E0,0E0,1.4043237E2,9.03313E1,8.561985E2,7.7641187E2,2.852588E2,0E0,0E0,0E0,0E0,0E0,0E0,0E0,0E0,0E0,0E0,0E0],"parents":[2147483647,0,0,1,1,2,2,3,3,4,4,5,5,6,6,9,9,10,10,11,11,12,12,13,13],"right_children":[2,4,6,8,10,12,14,-1,-1,16,18,20,22,24,-1,-1,-1,-1,-1,-1,-1,-1,-1,-1,-1],"split_conditions":[-2.21E1,3E0,1.77E1,1.5E-2,2.8E1,-1E0,5.37E1,-4.331131E-1,-3.2247586E0,3.2E-1,2.85E-1,3E0,5E-2,4E0,1.1215533E0,-8.34398E-1,-1.0224324E-1,-5.1029843E-1,-2.1143757E-1,-7.352846E-2,9.648308E-1,5.68781E-2,2.4193461E-1,-3.9101314E-2,5.649073E-1],"split_indices":[5,6,5,2,6,5,5,0,0,4,2,2,0,6,0,0,0,0,0,0,0,0,0,0,0],"split_type":[0,0,0,0,0,0,0,0,0,0,0,0,0,0,0,0,0,0,0,0,0,0,0,0,0],"sum_hessian":[8.86E2,3.4E1,8.52E2,2E0,3.2E1,8.24E2,2.8E1,1E0,1E0,1.5E1,1.7E1,3.82E2,4.42E2,2.4E1,4E0,1.4E1,1E0,1.1E1,6E0,3.81E2,1E0,3.76E2,6.6E1,2E0,2.2E1],"tree_param":{"num_deleted":"0","num_feature":"9","num_nodes":"25","size_leaf_vector":"1"}},{"base_weights":[-1.7686689E-1,-2.0156687E1,4.4698516E-1,-4.0138947E1,-1.3790768E1,2.7056074E-2,1.13774185E1,-2.2291846E0,-4.4788036E-1,-1.7210733E1,-9.506569E0,-2.1609137E0,1.2731609E0,1.8741535E1,8.141816E0,-9.9182796E-1,-5.0462145E-1,-5.004152E-1,-9.968715E-2,-2.3503618E-1,-2.115134E-2,3.0553633E-2,1.5888207E-1,1.005094E0,1.964695E-1,4.846274E-1,9.370983E-2],"categories":[],"categories_nodes":[],"categories_segments":[],"categories_sizes":[],"default_left":[0,0,0,0,0,0,0,0,0,0,0,0,0,0,0,0,0,0,0,0,0,0,0,0,0,0,0],"id":30,"left_children":[1,3,5,7,9,11,13,-1,-1,15,17,19,21,23,25,-1,-1,-1,-1,-1,-1,-1,-1,-1,-1,-1,-1],"loss_changes":[1.1114837E4,2.881E3,3.9700483E3,4.321953E2,1.5872461E2,2.276602E3,6.0988525E2,0E0,0E0,5.4069824E0,2.5279419E1,1.3354237E3,6.6887524E2,1.0235864E2,2.1509973E2,0E0,0E0,0E0,0E0,0E0,0E0,0E0,0E0,0E0,0E0,0E0,0E0],"parents":[2147483647,0,0,1,1,2,2,3,3,4,4,5,5,6,6,9,9,10,10,11,11,12,12,13,13,14,14],"right_children":[2,4,6,8,10,12,14,-1,-1,16,18,20,22,24,26,-1,-1,-1,-1,-1,-1,-1,-1,-1,-1,-1,-1],"split_conditions":[-2.88E1,-8.48E1,1.77E1,1E-2,2.24E1,-4E0,1.55E1,-2.2291846E0,-4.4788036E-1,2.2E1,8.1E-2,5.42E1,4E-2,1E-3,7E1,-9.9182796E-1,-5.0462145E-1,-5.004152E-1,-9.968715E-2,-2.3503618E-1,-2.115134E-2,3.0553633E-2,1.5888207E-1,1.005094E0,1.964695E-1,4.846274E-1,9.370983E-2],"split_indices":[5,5,5,0,7,5,7,0,0,6,1,7,0,1,6,0,0,0,0,0,0,0,0,0,0,0,0],"split_type":[0,0,0,0,0,0,0,0,0,0,0,0,0,0,0,0,0,0,0,0,0,0,0,0,0,0,0],"sum_hessian":[8.9E2,2.6E1,8.64E2,5E0,2.1E1,8.33E2,3.1E1,4E0,1E0,1E1,1.1E1,3.02E2,5.31E2,8E0,2.3E1,6E0,4E0,1E1,1E0,1.22E2,1.8E2,3.95E2,1.36E2,7E0,1E0,1.8E1,5E0],"tree_param":{"num_deleted":"0","num_feature":"9","num_nodes":"27","size_leaf_vector":"1"}},{"base_weights":[8.62738E-2,-4.3361362E1,3.2890162E-1,-2.4917436E0,-4.3668327E-1,-2.8304726E-1,9.680177E0,-7.4562607E0,3.3745384E-1,7.1163077E0,2.6244373E1,-5.9409684E-1,-3.0315134E-1,-5.056524E-2,7.399419E-2,2.855254E-1,4.4345957E-1,1.4670691E0,1.915578E-1],"categories":[],"categories_nodes":[],"categories_segments":[],"categories_sizes":[],"default_left":[0,0,0,0,0,0,0,0,0,0,0,0,0,0,0,0,0,0,0],"id":31,"left_children":[1,3,5,-1,-1,7,9,11,13,15,17,-1,-1,-1,-1,-1,-1,-1,-1],"loss_changes":[9.491165E3,6.8557227E2,5.1243794E3,0E0,0E0,3.745796E3,2.1490005E3,3.4108154E2,1.1956648E3,7.0098145E1,3.7348584E2,0E0,0E0,0E0,0E0,0E0,0E0,0E0,0E0],"parents":[2147483647,0,0,1,1,2,2,5,5,6,6,7,7,8,8,9,9,10,10],"right_children":[2,4,6,-1,-1,8,10,12,14,16,18,-1,-1,-1,-1,-1,-1,-1,-1],"split_conditions":[-8.48E1,1E-2,1.2E1,-2.4917436E0,-4.3668327E-1,-1.45E1,5.37E1,-3.47E1,-9E-1,2.06E1,1.95E-1,-5.9409684E-1,-3.0315134E-1,-5.056524E-2,7.399419E-2,2.855254E-1,4.4345957E-1,1.4670691E0,1.915578E-1],"split_indices":[5,0,5,0,0,5,5,5,5,5,1,0,0,0,0,0,0,0,0],"split_type":[0,0,0,0,0,0,0,0,0,0,0,0,0,0,0,0,0,0,0],"sum_hessian":[8.98E2,4E0,8.94E2,3E0,1E0,8.4E2,5.4E1,6.6E1,7.74E2,4.8E1,6E0,1.4E1,5.2E1,3.55E2,4.19E2,2.9E1,1.9E1,5E0,1E0],"tree_param":{"num_deleted":"0","num_feature":"9","num_nodes":"19","size_leaf_vector":"1"}},{"base_weights":[-5.2784677E-3,-2.1299532E1,1.1476273E-1,-1.618055E0,5.736683E-1,2.5390144E1,-2.8489446E-2,1.9230465E0,1.9279887E-1,-1.9523469E0,7.472063E-1,-3.479028E-1,-6.877439E-2,-1.3310956E-2,9.8354116E-2],"categories":[],"categories_nodes":[],"categories_segments":[],"categories_sizes":[],"default_left":[0,0,0,0,0,0,0,0,0,0,0,0,0,0,0],"id":32,"left_children":[1,3,5,-1,-1,7,9,-1,-1,11,13,-1,-1,-1,-1],"loss_changes":[2.2800076E3,2.1838884E3,3.212332E3,0E0,0E0,1.2590381E3,1.3191844E3,0E0,0E0,7.2387714E2,7.793633E2,0E0,0E0,0E0,0E0],"parents":[2147483647,0,0,1,1,2,2,5,5,6,6,9,9,10,10],"right_children":[2,4,6,-1,-1,8,10,-1,-1,12,14,-1,-1,-1,-1],"split_conditions":[3E0,1E-2,4E0,-1.618055E0,5.736683E-1,1.12E-1,5.42E1,1.9230465E0,1.9279887E-1,2.2E1,3E-2,-3.479028E-1,-6.877439E-2,-1.3310956E-2,9.8354116E-2],"split_indices":[6,0,6,0,0,4,7,0,0,6,0,0,0,0,0],"split_type":[0,0,0,0,0,0,0,0,0,0,0,0,0,0,0],"sum_hessian":[8.9E2,4E0,8.86E2,3E0,1E0,4E0,8.82E2,2E0,2E0,2.53E2,6.29E2,2.5E1,2.28E2,3.44E2,2.85E2],"tree_param":{"num_deleted":"0","num_feature":"9","num_nodes":"15","size_leaf_vector":"1"}},{"base_weights":[-1.5649742E-1,-2.0443432E1,-4.3743618E-2,-8.6060524E-2,-1.6175588E0,2.2210806E1,-1.6774474E-1,1.8589451E0,-1.6089153E-1,-8.512949E-1,1.6244944E0,-1.0967638E-1,9.760952E-2,-6.268064E-2,6.869949E-2,7.3890746E-2,9.463588E-1],"categories":[],"categories_nodes":[],"categories_segments":[],"categories_sizes":[],"default_left":[0,0,0,0,0,0,0,0,0,0,0,0,0,0,0,0,0],"id":33,"left_children":[1,3,5,-1,-1,7,9,-1,11,13,15,-1,-1,-1,-1,-1,-1],"loss_changes":[2.0692288E3,1.0590142E3,2.4901155E3,0E0,0E0,1.68029E3,1.1002844E3,0E0,1.7167564E1,5.8364905E2,6.0144073E2,0E0,0E0,0E0,0E0,0E0,0E0],"parents":[2147483647,0,0,1,1,2,2,5,5,6,6,8,8,9,9,10,10],"right_children":[2,4,6,-1,-1,8,10,-1,12,14,16,-1,-1,-1,-1,-1,-1],"split_conditions":[3E0,1.5E-2,4E0,-8.6060524E-2,-1.6175588E0,3.27E-1,1.117E2,1.8589451E0,1.11E0,3.2E-2,2E0,-1.0967638E-1,9.760952E-2,-6.268064E-2,6.869949E-2,7.3890746E-2,9.463588E-1],"split_indices":[6,2,6,0,0,2,7,0,2,4,1,0,0,0,0,0,0],"split_type":[0,0,0,0,0,0,0,0,0,0,0,0,0,0,0,0,0],"sum_hessian":[9.04E2,4E0,9E2,2E0,2E0,4E0,8.96E2,2E0,2E0,6.49E2,2.47E2,1E0,1E0,5.5E2,9.9E1,2.46E2,1E0],"tree_param":{"num_deleted":"0","num_feature":"9","num_nodes":"17","size_leaf_vector":"1"}},{"base_weights":[-8.1051946E-2,-2.8908577E1,2.7734786E-1,-3.313347E1,-6.59771E0,1.048161E-1,2.553578E1,-2.0789232E1,-2.5446098E0,-4.1110107E-1,-8.372722E-2,-4.529103E0,7.795809E-1,2.9165411E1,1.8469076E-1,-2.6165906E-1,-1.1254855E0,-2.4512051E-1,9.2269975E-1,1.8726854E-3,1.3583004E-1,1.7969803E0,6.334707E-1],"categories":[],"categories_nodes":[],"categories_segments":[],"categories_sizes":[],"default_left":[0,0,0,0,0,0,0,0,0,0,0,0,0,0,0,0,0,0,0,0,0,0,0],"id":34,"left_children":[1,3,5,7,9,11,13,15,-1,-1,-1,17,19,21,-1,-1,-1,-1,-1,-1,-1,-1,-1],"loss_changes":[9.25496E3,8.182656E2,3.8540483E3,9.149512E2,1.0222122E1,2.7551196E3,3.6793823E2,6.954932E1,0E0,0E0,0E0,1.0514014E3,1.1053474E3,1.03401855E2,0E0,0E0,0E0,0E0,0E0,0E0,0E0,0E0,0E0],"parents":[2147483647,0,0,1,1,2,2,3,3,4,4,5,5,6,6,7,7,11,11,12,12,13,13],"right_children":[2,4,6,8,10,12,14,16,-1,-1,-1,18,20,22,-1,-1,-1,-1,-1,-1,-1,-1,-1],"split_conditions":[-4.56E1,7.7E-2,5.37E1,5.55E-1,2E0,-1.11E1,1.95E-1,8.9E0,-2.5446098E0,-4.1110107E-1,-8.372722E-2,1E0,4E0,7E-2,1.8469076E-1,-2.6165906E-1,-1.1254855E0,-2.4512051E-1,9.2269975E-1,1.8726854E-3,1.3583004E-1,1.7969803E0,6.334707E-1],"split_indices":[5,1,5,2,1,5,1,7,0,0,0,1,5,0,0,0,0,0,0,0,0,0,0],"split_type":[0,0,0,0,0,0,0,0,0,0,0,0,0,0,0,0,0,0,0,0,0,0,0],"sum_hessian":[8.94E2,1E1,8.84E2,8E0,2E0,8.79E2,5E0,6E0,2E0,1E0,1E0,1.11E2,7.68E2,4E0,1E0,1E0,5E0,1.1E2,1E0,5.56E2,2.12E2,2E0,2E0],"tree_param":{"num_deleted":"0","num_feature":"9","num_nodes":"23","size_leaf_vector":"1"}},{"base_weights":[9.969701E-2,-3.1553741E1,3.7573606E-1,-3.5594936E1,-8.1634045E-2,1.0729578E-1,1.768247E1,-2.0315441E1,-2.4597895E0,-8.377771E0,4.6886283E-1,1.0819961E1,2.5029156E1,-2.5511762E-1,-1.1421562E0,-4.6837312E-1,-8.512898E-3,-1.3587991E-2,1.6808777E-1,-1.4850989E-1,6.457502E-1,1.42972E0,1.8007345E-1],"categories":[],"categories_nodes":[],"categories_segments":[],"categories_sizes":[],"default_left":[0,0,0,0,0,0,0,0,0,0,0,0,0,0,0,0,0,0,0,0,0,0,0],"id":35,"left_children":[1,3,5,7,-1,9,11,13,-1,15,17,19,21,-1,-1,-1,-1,-1,-1,-1,-1,-1,-1],"loss_changes":[8.0853843E3,9.092197E2,4.2583237E3,4.5526465E2,0E0,2.7773284E3,4.3501953E2,7.571582E1,0E0,2.989524E2,1.8606396E3,2.9837903E2,3.553877E2,0E0,0E0,0E0,0E0,0E0,0E0,0E0,0E0,0E0,0E0],"parents":[2147483647,0,0,1,1,2,2,3,3,5,5,6,6,7,7,9,9,10,10,11,11,12,12],"right_children":[2,4,6,8,-1,10,12,14,-1,16,18,20,22,-1,-1,-1,-1,-1,-1,-1,-1,-1,-1],"split_conditions":[-6.16E1,2.3E-2,3.67E1,3.44E-1,-8.1634045E-2,-2E1,5.37E1,3E0,-2.4597895E0,1E-2,5.1E0,4E0,1.95E-1,-2.5511762E-1,-1.1421562E0,-4.6837312E-1,-8.512898E-3,-1.3587991E-2,1.6808777E-1,-1.4850989E-1,6.457502E-1,1.42972E0,1.8007345E-1],"split_indices":[5,1,5,2,0,5,5,6,0,3,5,6,1,0,0,0,0,0,0,0,0,0,0],"split_type":[0,0,0,0,0,0,0,0,0,0,0,0,0,0,0,0,0,0,0,0,0,0,0],"sum_hessian":[9.23E2,7E0,9.16E2,6E0,1E0,9.03E2,1.3E1,4E0,2E0,3.6E1,8.67E2,8E0,5E0,1E0,3E0,3.2E1,4E0,6.91E2,1.76E2,1E0,7E0,4E0,1E0],"tree_param":{"num_deleted":"0","num_feature":"9","num_nodes":"23","size_leaf_vector":"1"}},{"base_weights":[-1.3359989E-2,-1.9458887E1,4.1132778E-1,-2.8201158E0,-1.4273012E1,-2.732229E-1,6.65506E0,-1.4925323E1,-7.959318E-2,-4.1917367E0,2.4024181E-1,5.134364E0,2.3083717E1,-1.0038571E0,-5.552818E-1,-2.3191495E-1,8.9997196E-1,-1.4332838E-2,9.539207E-2,3.522878E-1,1.6629116E-1,1.6894234E0,6.022062E-1],"categories":[],"categories_nodes":[],"categories_segments":[],"categories_sizes":[],"default_left":[0,0,0,0,0,0,0,0,0,0,0,0,0,0,0,0,0,0,0,0,0,0,0],"id":36,"left_children":[1,3,5,-1,7,9,11,13,-1,15,17,19,21,-1,-1,-1,-1,-1,-1,-1,-1,-1,-1],"loss_changes":[7.3413535E3,2.8350654E3,3.7203298E3,0E0,1.2513794E2,1.5804417E3,2.0300166E3,1.11562256E2,0E0,9.8527356E2,6.112127E2,2.5311328E2,4.2028003E2,0E0,0E0,0E0,0E0,0E0,0E0,0E0,0E0,0E0,0E0],"parents":[2147483647,0,0,1,1,2,2,4,4,5,5,6,6,7,7,9,9,10,10,11,11,12,12],"right_children":[2,4,6,-1,8,10,12,14,-1,16,18,20,22,-1,-1,-1,-1,-1,-1,-1,-1,-1,-1],"split_conditions":[-3.47E1,3E0,8.1E0,-2.8201158E0,2E0,-1.2E1,4.26E1,-6.16E1,-7.959318E-2,1E0,1.15E-1,1.74E2,4E0,-1.0038571E0,-5.552818E-1,-2.3191495E-1,8.9997196E-1,-1.4332838E-2,9.539207E-2,3.522878E-1,1.6629116E-1,1.6894234E0,6.022062E-1],"split_indices":[5,6,5,0,1,5,5,5,0,1,2,6,6,0,0,0,0,0,0,0,0,0,0],"split_type":[0,0,0,0,0,0,0,0,0,0,0,0,0,0,0,0,0,0,0,0,0,0,0],"sum_hessian":[8.87E2,1.8E1,8.69E2,1E0,1.7E1,7.84E2,8.5E1,1.6E1,1E0,9E1,6.94E2,7.9E1,6E0,5E0,1.1E1,8.9E1,1E0,5.28E2,1.66E2,3.7E1,4.2E1,2E0,4E0],"tree_param":{"num_deleted":"0","num_feature":"9","num_nodes":"23","size_leaf_vector":"1"}},{"base_weights":[5.4292146E-2,-2.4659256E1,3.8932976E-1,-3.0108044E1,-6.2346687E0,6.877498E-2,1.2400175E1,-3.3395638E1,-6.2004894E-1,-7.760334E-2,-3.6390904E-1,-3.7683477E0,6.6374487E-1,1.0158642E1,1.5428478E0,-1.7920973E0,-4.6794435E-1,-2.0531619E-1,8.774727E-1,1.2604706E-2,1.6341974E-1,6.212603E-1,3.098122E-1],"categories":[],"categories_nodes":[],"categories_segments":[],"categories_sizes":[],"default_left":[0,0,0,0,0,0,0,0,0,0,0,0,0,0,0,0,0,0,0,0,0,0,0],"id":37,"left_children":[1,3,5,7,9,11,13,15,-1,-1,-1,17,19,21,-1,-1,-1,-1,-1,-1,-1,-1,-1],"loss_changes":[7.4284517E3,1.0169868E3,3.4065156E3,1.0978369E2,8.249176E0,1.9727063E3,6.3807935E2,7.616943E1,0E0,0E0,0E0,9.078329E2,8.011861E2,1.2059302E2,0E0,0E0,0E0,0E0,0E0,0E0,0E0,0E0,0E0],"parents":[2147483647,0,0,1,1,2,2,3,3,4,4,5,5,6,6,7,7,11,11,12,12,13,13],"right_children":[2,4,6,8,10,12,14,16,-1,-1,-1,18,20,22,-1,-1,-1,-1,-1,-1,-1,-1,-1],"split_conditions":[-4.56E1,3.6E-2,2.06E1,3E-2,1E-2,-1.11E1,1.296E2,-6.16E1,-6.2004894E-1,-7.760334E-2,-3.6390904E-1,1E0,6E-2,3.8E1,1.5428478E0,-1.7920973E0,-4.6794435E-1,-2.0531619E-1,8.774727E-1,1.2604706E-2,1.6341974E-1,6.212603E-1,3.098122E-1],"split_indices":[5,4,5,0,0,5,5,5,0,0,0,1,0,6,0,0,0,0,0,0,0,0,0],"split_type":[0,0,0,0,0,0,0,0,0,0,0,0,0,0,0,0,0,0,0,0,0,0,0],"sum_hessian":[8.95E2,1.1E1,8.84E2,8E0,3E0,8.62E2,2.2E1,6E0,2E0,1E0,2E0,1.15E2,7.47E2,2.1E1,1E0,5E0,1E0,1.14E2,1E0,6.46E2,1.01E2,1.2E1,9E0],"tree_param":{"num_deleted":"0","num_feature":"9","num_nodes":"23","size_leaf_vector":"1"}},{"base_weights":[-2.2166198E-1,-6.0091364E-1,2.3173118E0,-9.374788E-1,1.8509468E0,2.0398846E0,8.555359E-1,-4.1526117E0,-5.221028E-1,1.2900168E0,8.638217E0,6.0181475E-1,2.8285203E0,-2.7398148E-1,4.6568573E-2,-7.8728564E-2,-4.8982543E-3,-2.647758E-1,8.752685E-2,6.423775E-1,1.134665E-1,2.781067E-1,1.073727E-2,1.118326E-1,2.3407264E-1],"categories":[],"categories_nodes":[],"categories_segments":[],"categories_sizes":[],"default_left":[0,0,0,0,0,0,0,0,0,0,0,0,0,0,0,0,0,0,0,0,0,0,0,0,0],"id":38,"left_children":[1,3,5,7,9,11,-1,13,15,17,19,21,23,-1,-1,-1,-1,-1,-1,-1,-1,-1,-1,-1,-1],"loss_changes":[8.593453E2,6.4209875E2,4.4117096E2,9.0997076E2,3.467318E2,1.2872083E2,0E0,5.313334E2,2.7035904E2,2.7615387E2,1.5850598E2,7.944503E1,7.068445E1,0E0,0E0,0E0,0E0,0E0,0E0,0E0,0E0,0E0,0E0,0E0,0E0],"parents":[2147483647,0,0,1,1,2,2,3,3,4,4,5,5,7,7,8,8,9,9,10,10,11,11,12,12],"right_children":[2,4,6,8,10,12,-1,14,16,18,20,22,24,-1,-1,-1,-1,-1,-1,-1,-1,-1,-1,-1,-1],"split_conditions":[1.332E2,3.5E-2,9.8E-2,6.5E1,5E-1,3E-2,8.555359E-1,2.3E-1,4.2E2,1E1,1E-3,1.343E2,1.8E-2,-2.7398148E-1,4.6568573E-2,-7.8728564E-2,-4.8982543E-3,-2.647758E-1,8.752685E-2,6.423775E-1,1.134665E-1,2.781067E-1,1.073727E-2,1.118326E-1,2.3407264E-1],"split_indices":[7,4,1,6,0,0,0,0,6,6,1,7,4,0,0,0,0,0,0,0,0,0,0,0,0],"split_type":[0,0,0,0,0,0,0,0,0,0,0,0,0,0,0,0,0,0,0,0,0,0,0,0,0],"sum_hessian":[8.9E2,7.75E2,1.15E2,6.82E2,9.3E1,1.14E2,1E0,7.7E1,6.05E2,8.7E1,6E0,4.1E1,7.3E1,6.1E1,1.6E1,1.73E2,4.32E2,5E0,8.2E1,3E0,3E0,2E0,3.9E1,5.7E1,1.6E1],"tree_param":{"num_deleted":"0","num_feature":"9","num_nodes":"25","size_leaf_vector":"1"}},{"base_weights":[2.9620763E-2,-2.3352913E1,1.4106357E-1,-3.766061E1,4.892543E-1,1.3177157E1,3.1347223E-2,-1.2658481E-1,-2.6979609E0,5.300711E0,1.510896E0,-2.7017167E-1,2.433435E0,4.5287648E-1,-7.376417E-2,-2.4223283E-1,-8.126763E-3,1.04860626E-1,8.3414745E-1],"categories":[],"categories_nodes":[],"categories_segments":[],"categories_sizes":[],"default_left":[0,0,0,0,0,0,0,0,0,0,0,0,0,0,0,0,0,0,0],"id":39,"left_children":[1,3,5,7,-1,9,11,-1,-1,13,-1,15,17,-1,-1,-1,-1,-1,-1],"loss_changes":[2.1973909E3,2.2650256E3,1.1995857E3,1.5810488E3,0E0,7.7936816E2,6.039784E2,0E0,0E0,1.660995E2,0E0,3.6406705E2,4.10576E2,0E0,0E0,0E0,0E0,0E0,0E0],"parents":[2147483647,0,0,1,1,2,2,3,3,5,5,6,6,9,9,11,11,12,12],"right_children":[2,4,6,8,-1,10,12,-1,-1,14,-1,16,18,-1,-1,-1,-1,-1,-1],"split_conditions":[3E0,1E-2,4E0,1.5E-2,4.892543E-1,1E-2,1.352E2,-1.2658481E-1,-2.6979609E0,1.46E1,1.510896E0,1E1,1.11E0,4.5287648E-1,-7.376417E-2,-2.4223283E-1,-8.126763E-3,1.04860626E-1,8.3414745E-1],"split_indices":[6,0,6,2,0,0,7,0,0,7,0,6,2,0,0,0,0,0,0],"split_type":[0,0,0,0,0,0,0,0,0,0,0,0,0,0,0,0,0,0,0],"sum_hessian":[8.41E2,3E0,8.38E2,2E0,1E0,6E0,8.32E2,1E0,1E0,5E0,1E0,7.4E2,9.2E1,3E0,2E0,1.6E1,7.24E2,9.1E1,1E0],"tree_param":{"num_deleted":"0","num_feature":"9","num_nodes":"19","size_leaf_vector":"1"}},{"base_weights":[4.0046994E-2,-2.931411E1,3.0445376E-1,-2.630512E0,-1.8470345E1,7.11158E-2,1.486633E1,-1.0515541E0,-7.7648215E-2,-4.7655087E0,5.772554E-1,1.1477206E1,1.4731236E0,-2.6101765E-1,8.1329376E-1,-2.4799597E-3,1.2973954E-1,6.9669807E-1,3.1443325E-1],"categories":[],"categories_nodes":[],"categories_segments":[],"categories_sizes":[],"default_left":[0,0,0,0,0,0,0,0,0,0,0,0,0,0,0,0,0,0,0],"id":40,"left_children":[1,3,5,-1,7,9,11,-1,-1,13,15,17,-1,-1,-1,-1,-1,-1,-1],"loss_changes":[6.9554116E3,1.0492134E3,3.0162236E3,0E0,2.7058618E2,2.1447573E3,3.5440674E2,0E0,0E0,8.788926E2,1.003037E3,7.808472E1,0E0,0E0,0E0,0E0,0E0,0E0,0E0],"parents":[2147483647,0,0,1,1,2,2,4,4,5,5,6,6,9,9,10,10,11,11],"right_children":[2,4,6,-1,8,10,12,-1,-1,14,16,18,-1,-1,-1,-1,-1,-1,-1],"split_conditions":[-6.16E1,3E0,3.67E1,-2.630512E0,1.11E0,-1.33E1,1.296E2,-1.0515541E0,-7.7648215E-2,6E0,4.6E0,1.55E1,1.4731236E0,-2.6101765E-1,8.1329376E-1,-2.4799597E-3,1.2973954E-1,6.9669807E-1,3.1443325E-1],"split_indices":[5,6,5,0,2,5,5,0,0,2,5,7,0,0,0,0,0,0,0],"split_type":[0,0,0,0,0,0,0,0,0,0,0,0,0,0,0,0,0,0,0],"sum_hessian":[8.94E2,7E0,8.87E2,1E0,6E0,8.74E2,1.3E1,5E0,1E0,8.2E1,7.92E2,1.2E1,1E0,8.1E1,1E0,6.05E2,1.87E2,7E0,5E0],"tree_param":{"num_deleted":"0","num_feature":"9","num_nodes":"19","size_leaf_vector":"1"}},{"base_weights":[-6.500634E-2,-2.6898129E1,1.7956084E-1,-1.5154054E0,-7.570701E-2,-2.8195903E-1,7.6689506E0,-7.3245335E0,1.1580854E-3,6.6732936E0,1.4362955E0,-3.9076343E-1,1.2165547E-3,-5.9021253E-2,5.1908415E-2,4.6618E-1,2.445567E-1],"categories":[],"categories_nodes":[],"categories_segments":[],"categories_sizes":[],"default_left":[0,0,0,0,0,0,0,0,0,0,0,0,0,0,0,0,0],"id":41,"left_children":[1,3,5,-1,-1,7,9,11,13,15,-1,-1,-1,-1,-1,-1,-1],"loss_changes":[5.812643E3,6.4658057E2,3.0369712E3,0E0,0E0,1.6509355E3,8.775449E2,1.1559338E2,9.778006E2,1.9056055E2,0E0,0E0,0E0,0E0,0E0,0E0,0E0],"parents":[2147483647,0,0,1,1,2,2,5,5,6,6,7,7,8,8,9,9],"right_children":[2,4,6,-1,-1,8,10,12,14,16,-1,-1,-1,-1,-1,-1,-1],"split_conditions":[-6.16E1,7.7E-2,1.2E1,-1.5154054E0,-7.570701E-2,-2E1,1.296E2,2.13E2,-1E0,4E1,1.4362955E0,-3.9076343E-1,1.2165547E-3,-5.9021253E-2,5.1908415E-2,4.6618E-1,2.445567E-1],"split_indices":[5,1,5,0,0,5,5,6,5,6,0,0,0,0,0,0,0],"split_type":[0,0,0,0,0,0,0,0,0,0,0,0,0,0,0,0,0],"sum_hessian":[8.84E2,7E0,8.77E2,6E0,1E0,8.27E2,5E1,3.1E1,7.96E2,4.9E1,1E0,2.9E1,2E0,3.72E2,4.24E2,1.8E1,3.1E1],"tree_param":{"num_deleted":"0","num_feature":"9","num_nodes":"17","size_leaf_vector":"1"}},{"base_weights":[1.1117252E-1,-8.658229E0,5.546703E-1,-1.5628588E1,-6.868754E0,1.3589806E1,3.2012278E-1,-1.7439447E1,-7.381435E-2,-4.38629E-1,-4.4775624E0,1.0559397E1,1.4003881E0,-2.9273045E-1,2.5711691E0,-1.0119886E0,-3.479543E-1,-3.2102263E-1,-1.14060245E-1,8.877435E-1,2.2945745E-1,-1.7077178E-2,7.94437E-1,8.787667E-2,2.513804E-1],"categories":[],"categories_nodes":[],"categories_segments":[],"categories_sizes":[],"default_left":[0,0,0,0,0,0,0,0,0,0,0,0,0,0,0,0,0,0,0,0,0,0,0,0,0],"id":42,"left_children":[1,3,5,7,9,11,13,15,-1,-1,17,19,-1,21,23,-1,-1,-1,-1,-1,-1,-1,-1,-1,-1],"loss_changes":[3.4739775E3,4.2900244E2,2.594404E3,1.7927686E2,1.2460693E2,3.5963916E2,1.1540658E3,6.458887E1,0E0,0E0,6.2164703E1,5.199429E2,0E0,5.2515967E2,3.489215E2,0E0,0E0,0E0,0E0,0E0,0E0,0E0,0E0,0E0,0E0],"parents":[2147483647,0,0,1,1,2,2,3,3,4,4,5,5,6,6,7,7,10,10,11,11,13,13,14,14],"right_children":[2,4,6,8,10,12,14,16,-1,-1,18,20,-1,22,24,-1,-1,-1,-1,-1,-1,-1,-1,-1,-1],"split_conditions":[-2E1,-6.16E1,8E0,7.7E-2,3.62E1,1.296E2,5.1E0,5E-2,-7.381435E-2,-4.38629E-1,2.3E-2,1.22E1,1.4003881E0,2E0,6E-2,-1.0119886E0,-3.479543E-1,-3.2102263E-1,-1.14060245E-1,8.877435E-1,2.2945745E-1,-1.7077178E-2,7.94437E-1,8.787667E-2,2.513804E-1],"split_indices":[5,5,6,1,7,5,5,0,0,0,1,7,0,1,0,0,0,0,0,0,0,0,0,0,0],"split_type":[0,0,0,0,0,0,0,0,0,0,0,0,0,0,0,0,0,0,0,0,0,0,0,0,0],"sum_hessian":[8.91E2,4.2E1,8.49E2,7E0,3.5E1,1.4E1,8.35E2,6E0,1E0,1.8E1,1.7E1,1.3E1,1E0,6.57E2,1.78E2,4E0,2E0,8E0,9E0,5E0,8E0,6.56E2,1E0,1.35E2,4.3E1],"tree_param":{"num_deleted":"0","num_feature":"9","num_nodes":"25","size_leaf_vector":"1"}},{"base_weights":[2.5502307E-2,-1.0828241E-1,6.2064223E0,-2.6409545E0,2.2802366E-1,8.965659E0,-3.312573E0,-1.2211395E1,-2.1309228E0,1.3653784E0,1.5784675E-1,1.0044373E1,1.3026848E0,-2.3968096E-1,6.5290265E-2,8.6213E-2,-1.1038293E0,2.1412604E-1,-1.4906341E-1,-2.4608945E-2,4.7019187E-2,5.452482E-1,1.7703739E-1,-8.439653E-2,1.820979E-1],"categories":[],"categories_nodes":[],"categories_segments":[],"categories_sizes":[],"default_left":[0,0,0,0,0,0,0,0,0,0,0,0,0,0,0,0,0,0,0,0,0,0,0,0,0],"id":43,"left_children":[1,3,5,7,9,11,13,15,17,-1,19,21,23,-1,-1,-1,-1,-1,-1,-1,-1,-1,-1,-1,-1],"loss_changes":[7.415858E2,7.484414E2,5.2873755E2,4.7674512E2,1.4703682E3,1.1090759E2,4.0459686E1,7.2545514E2,5.5267786E2,0E0,3.946814E2,3.4148804E1,2.7134966E1,0E0,0E0,0E0,0E0,0E0,0E0,0E0,0E0,0E0,0E0,0E0,0E0],"parents":[2147483647,0,0,1,1,2,2,3,3,4,4,5,5,6,6,7,7,8,8,10,10,11,11,12,12],"right_children":[2,4,6,8,10,12,14,16,18,-1,20,22,24,-1,-1,-1,-1,-1,-1,-1,-1,-1,-1,-1,-1],"split_conditions":[4.4E-1,3.25E1,1.25E0,3E0,4E0,1E-3,6E0,1.5E-2,1.22E1,1.3653784E0,3E-2,2E0,5E-1,-2.3968096E-1,6.5290265E-2,8.6213E-2,-1.1038293E0,2.1412604E-1,-1.4906341E-1,-2.4608945E-2,4.7019187E-2,5.452482E-1,1.7703739E-1,-8.439653E-2,1.820979E-1],"split_indices":[0,7,2,6,6,1,2,2,7,0,0,0,0,0,0,0,0,0,0,0,0,0,0,0,0],"split_type":[0,0,0,0,0,0,0,0,0,0,0,0,0,0,0,0,0,0,0,0,0,0,0,0,0],"sum_hessian":[8.95E2,8.77E2,1.8E1,1.02E2,7.75E2,1.4E1,4E0,4E0,9.8E1,1E0,7.74E2,1.2E1,2E0,3E0,1E0,2E0,2E0,1.1E1,8.7E1,4.23E2,3.51E2,1E1,2E0,1E0,1E0],"tree_param":{"num_deleted":"0","num_feature":"9","num_nodes":"25","size_leaf_vector":"1"}},{"base_weights":[1.0389944E-1,-1.5494668E1,1.9415313E-1,-2.3489597E1,4.1212615E-1,1.2303164E1,1.0924845E-1,8.3339244E-2,-2.4739685E0,1.9460419E1,-1.3408966E0,-5.103167E-1,1.3832678E0,4.098653E-1,1.3312439E0,-1.7057191E-1,7.000466E-2,-5.470279E-2,2.6666252E-2,6.951432E-1,5.9907693E-2],"categories":[],"categories_nodes":[],"categories_segments":[],"categories_sizes":[],"default_left":[0,0,0,0,0,0,0,0,0,0,0,0,0,0,0,0,0,0,0,0,0],"id":44,"left_children":[1,3,5,7,-1,9,11,-1,-1,13,15,17,19,-1,-1,-1,-1,-1,-1,-1,-1],"loss_changes":[1.2235953E3,1.1424993E3,8.8591626E2,2.697706E3,0E0,6.1201855E2,6.779579E2,0E0,0E0,1.0452417E2,2.1802328E1,3.527094E2,6.345741E2,0E0,0E0,0E0,0E0,0E0,0E0,0E0,0E0],"parents":[2147483647,0,0,1,1,2,2,3,3,5,5,6,6,9,9,10,10,11,11,12,12],"right_children":[2,4,6,8,-1,10,12,-1,-1,14,16,18,20,-1,-1,-1,-1,-1,-1,-1,-1],"split_conditions":[3E0,1E-2,4E0,1.5E-2,4.1212615E-1,3.27E-1,1.029E2,8.3339244E-2,-2.4739685E0,1E-2,1.11E0,4E-2,1.29E2,4.098653E-1,1.3312439E0,-1.7057191E-1,7.000466E-2,-5.470279E-2,2.6666252E-2,6.951432E-1,5.9907693E-2],"split_indices":[6,0,6,2,0,2,7,0,0,0,2,0,6,0,0,0,0,0,0,0,0],"split_type":[0,0,0,0,0,0,0,0,0,0,0,0,0,0,0,0,0,0,0,0,0],"sum_hessian":[8.66E2,4E0,8.62E2,3E0,1E0,5E0,8.57E2,2E0,1E0,3E0,2E0,5.77E2,2.8E2,2E0,1E0,1E0,1E0,3.7E2,2.07E2,3E0,2.77E2],"tree_param":{"num_deleted":"0","num_feature":"9","num_nodes":"21","size_leaf_vector":"1"}},{"base_weights":[2.8055817E-1,-1.9617762E-2,1.0187118E1,-8.057058E0,2.7091575E-1,7.011838E0,1.7804045E1,-1.09674E1,-5.1863613E0,-1.3441237E0,8.7744397E-1,-2.256424E-1,7.8559184E0,2.0196156E1,8.628445E-2,-6.362481E-1,-2.629397E-1,-7.8921854E-2,-3.087537E-1,-1.6328073E-1,3.4667037E-2,3.2785337E-2,2.890807E-1,4.1799036E-1,-3.035183E-2,1.2598665E0,3.3979365E-1],"categories":[],"categories_nodes":[],"categories_segments":[],"categories_sizes":[],"default_left":[0,0,0,0,0,0,0,0,0,0,0,0,0,0,0,0,0,0,0,0,0,0,0,0,0,0,0],"id":45,"left_children":[1,3,5,7,9,11,13,15,17,19,21,-1,23,25,-1,-1,-1,-1,-1,-1,-1,-1,-1,-1,-1,-1,-1],"loss_changes":[2.6289602E3,2.0080731E3,5.039934E2,1.9376001E2,8.1422003E2,2.3000781E2,2.3437646E2,7.354736E1,5.0895416E1,8.909623E2,6.53021E2,0E0,8.609802E1,2.3086499E2,0E0,0E0,0E0,0E0,0E0,0E0,0E0,0E0,0E0,0E0,0E0,0E0,0E0],"parents":[2147483647,0,0,1,1,2,2,3,3,4,4,5,5,6,6,7,7,8,8,9,9,10,10,12,12,13,13],"right_children":[2,4,6,8,10,12,14,16,18,20,22,-1,24,26,-1,-1,-1,-1,-1,-1,-1,-1,-1,-1,-1,-1,-1],"split_conditions":[2.06E1,-2.21E1,5.37E1,2.8E1,-5.8E0,4E0,1.95E-1,4.29E1,4.1E1,6.56E1,6E-2,-2.256424E-1,1.2E-1,4E0,8.628445E-2,-6.362481E-1,-2.629397E-1,-7.8921854E-2,-3.087537E-1,-1.6328073E-1,3.4667037E-2,3.2785337E-2,2.890807E-1,4.1799036E-1,-3.035183E-2,1.2598665E0,3.3979365E-1],"split_indices":[5,5,5,6,5,6,1,7,6,7,4,0,3,6,0,0,0,0,0,0,0,0,0,0,0,0,0],"split_type":[0,0,0,0,0,0,0,0,0,0,0,0,0,0,0,0,0,0,0,0,0,0,0,0,0,0,0],"sum_hessian":[8.83E2,8.58E2,2.5E1,2.9E1,8.29E2,1.9E1,6E0,1.3E1,1.6E1,2.26E2,6.03E2,1E0,1.8E1,5E0,1E0,9E0,4E0,4E0,1.2E1,1.16E2,1.1E2,5.78E2,2.5E1,1.7E1,1E0,3E0,2E0],"tree_param":{"num_deleted":"0","num_feature":"9","num_nodes":"27","size_leaf_vector":"1"}},{"base_weights":[1.6607758E-1,-4.179693E-1,5.4271436E0,-7.266494E0,-2.506169E-2,4.459568E0,1.8229942E1,-1.2088327E1,-5.292903E0,-2.5770435E-1,3.8088245E0,-3.2610102E0,4.7817965E0,2.1202911E1,8.412733E-2,1.7194748E-2,-6.624896E-1,-2.8391606E-1,1.7601211E-1,-1.10804E-1,1.0117634E-2,9.344458E-1,1.5140751E-1,-2.580857E-1,6.1027527E-2,2.0770009E-1,5.034825E-1,1.3699445E0,3.9696497E-1],"categories":[],"categories_nodes":[],"categories_segments":[],"categories_sizes":[],"default_left":[0,0,0,0,0,0,0,0,0,0,0,0,0,0,0,0,0,0,0,0,0,0,0,0,0,0,0,0,0],"id":46,"left_children":[1,3,5,7,9,11,13,15,17,19,21,23,25,27,-1,-1,-1,-1,-1,-1,-1,-1,-1,-1,-1,-1,-1,-1,-1],"loss_changes":[2.7677068E3,2.182087E3,1.0335933E3,3.5473608E2,6.859804E2,2.2705579E2,2.594944E2,1.7783167E2,1.3208173E2,6.5364764E2,4.545335E2,4.0372604E1,2.3038501E2,1.933772E2,0E0,0E0,0E0,0E0,0E0,0E0,0E0,0E0,0E0,0E0,0E0,0E0,0E0,0E0,0E0],"parents":[2147483647,0,0,1,1,2,2,3,3,4,4,5,5,6,6,7,7,8,8,9,9,10,10,11,11,12,12,13,13],"right_children":[2,4,6,8,10,12,14,16,18,20,22,24,26,28,-1,-1,-1,-1,-1,-1,-1,-1,-1,-1,-1,-1,-1,-1,-1],"split_conditions":[8.8E0,-2E1,5.37E1,-4.56E1,3.75E-1,4E0,1.95E-1,3E0,1.2E-1,-8.1E0,3E0,1.11E0,3.67E1,7E-2,8.412733E-2,1.7194748E-2,-6.624896E-1,-2.8391606E-1,1.7601211E-1,-1.10804E-1,1.0117634E-2,9.344458E-1,1.5140751E-1,-2.580857E-1,6.1027527E-2,2.0770009E-1,5.034825E-1,1.3699445E0,3.9696497E-1],"split_indices":[5,5,5,5,2,6,1,6,3,5,6,2,5,0,0,0,0,0,0,0,0,0,0,0,0,0,0,0,0],"split_type":[0,0,0,0,0,0,0,0,0,0,0,0,0,0,0,0,0,0,0,0,0,0,0,0,0,0,0,0,0],"sum_hessian":[8.99E2,8.1E2,8.9E1,4.3E1,7.67E2,8.4E1,5E0,1.1E1,3.2E1,7.24E2,4.3E1,3E0,8.1E1,4E0,1E0,1E0,1E1,3.1E1,1E0,1.37E2,5.87E2,1E0,4.2E1,2E0,1E0,7.4E1,7E0,2E0,2E0],"tree_param":{"num_deleted":"0","num_feature":"9","num_nodes":"29","size_leaf_vector":"1"}},{"base_weights":[-7.613379E-2,-7.7278914E0,2.766968E-1,-1.1476857E1,-5.6366158E0,-1.6057265E-1,4.4084463E0,1.6764833E-2,-1.2489144E1,-6.2275085E0,-6.821034E-1,-1.3168813E0,7.223125E-1,3.5530598E0,9.030828E0,-7.4024266E-1,-2.0782577E-1,-3.7701663E-1,-1.9952522E-1,7.0885024E-3,-7.8843094E-2,-1.1720455E-1,3.209011E-2,9.1108465E-1,3.2000296E-2,-1.606751E-1,1.8488494E-1,5.461022E-1,2.099359E-1],"categories":[],"categories_nodes":[],"categories_segments":[],"categories_sizes":[],"default_left":[0,0,0,0,0,0,0,0,0,0,0,0,0,0,0,0,0,0,0,0,0,0,0,0,0,0,0,0,0],"id":47,"left_children":[1,3,5,7,9,11,13,-1,15,17,19,21,23,25,27,-1,-1,-1,-1,-1,-1,-1,-1,-1,-1,-1,-1,-1,-1],"loss_changes":[2.3887388E3,2.4107397E2,1.5291658E3,1.5963245E2,7.479712E1,7.8295123E2,2.8818066E2,0E0,1.7001453E2,4.039325E1,3.1722226E0,6.694813E2,6.1487494E2,8.039203E1,6.380414E1,0E0,0E0,0E0,0E0,0E0,0E0,0E0,0E0,0E0,0E0,0E0,0E0,0E0,0E0],"parents":[2147483647,0,0,1,1,2,2,3,3,4,4,5,5,6,6,8,8,9,9,10,10,11,11,12,12,13,13,14,14],"right_children":[2,4,6,8,10,12,14,-1,16,18,20,22,24,26,28,-1,-1,-1,-1,-1,-1,-1,-1,-1,-1,-1,-1,-1,-1],"split_conditions":[-2.21E1,-4.56E1,9.3E0,8.9E0,5.9E-2,-2.4E0,3.67E1,1.6764833E-2,3.6E-2,2.01E-1,1.11E-1,8.13E1,8.9E0,1.14E1,1.55E1,-7.4024266E-1,-2.0782577E-1,-3.7701663E-1,-1.9952522E-1,7.0885024E-3,-7.8843094E-2,-1.1720455E-1,3.209011E-2,9.1108465E-1,3.2000296E-2,-1.606751E-1,1.8488494E-1,5.461022E-1,2.099359E-1],"split_indices":[5,5,5,7,1,5,5,0,4,2,1,7,7,7,7,0,0,0,0,0,0,0,0,0,0,0,0,0,0],"split_type":[0,0,0,0,0,0,0,0,0,0,0,0,0,0,0,0,0,0,0,0,0,0,0,0,0,0,0,0,0],"sum_hessian":[8.83E2,3.8E1,8.45E2,1.2E1,2.6E1,7.65E2,8E1,1E0,1.1E1,2.3E1,3E0,3.31E2,4.34E2,6.9E1,1.1E1,8E0,3E0,1.3E1,1E1,2E0,1E0,2.17E2,1.14E2,1E0,4.33E2,1E0,6.8E1,7E0,4E0],"tree_param":{"num_deleted":"0","num_feature":"9","num_nodes":"29","size_leaf_vector":"1"}},{"base_weights":[-1.5746932E-1,-2.0246964E1,7.125924E-2,-2.5573877E1,-5.8631215E0,-2.1227515E-1,7.5826936E0,-1.24810705E1,-3.8870594E1,-3.631049E-1,-4.1654825E-2,-6.2465E0,2.43313E-2,5.2621646E0,1.906112E1,1.6345788E-2,-7.8823984E-1,-2.3970623E0,-5.1823235E-1,-3.3085617E-1,-2.2905177E-2,-1.3506885E-2,1.7465821E-1,-2.5030386E-1,3.1222853E-1,1.311679E0,2.7674764E-1],"categories":[],"categories_nodes":[],"categories_segments":[],"categories_sizes":[],"default_left":[0,0,0,0,0,0,0,0,0,0,0,0,0,0,0,0,0,0,0,0,0,0,0,0,0,0,0],"id":48,"left_children":[1,3,5,7,9,11,13,15,17,-1,-1,19,21,23,25,-1,-1,-1,-1,-1,-1,-1,-1,-1,-1,-1,-1],"loss_changes":[4.081839E3,6.1627246E2,1.8736599E3,7.334927E2,2.2097504E1,1.2108724E3,7.520498E2,2.1544336E2,2.788086E2,0E0,0E0,6.561865E1,8.3547943E2,3.137132E2,3.3987805E2,0E0,0E0,0E0,0E0,0E0,0E0,0E0,0E0,0E0,0E0,0E0,0E0],"parents":[2147483647,0,0,1,1,2,2,3,3,4,4,5,5,6,6,7,7,8,8,11,11,12,12,13,13,14,14],"right_children":[2,4,6,8,10,12,14,16,18,-1,-1,20,22,24,26,-1,-1,-1,-1,-1,-1,-1,-1,-1,-1,-1,-1],"split_conditions":[-6.16E1,2.3E-2,1.77E1,3.44E-1,7.7E-2,-2E1,5.37E1,3E0,3E0,-3.631049E-1,-4.1654825E-2,2.13E2,2.66E-1,4E0,3.27E-1,1.6345788E-2,-7.8823984E-1,-2.3970623E0,-5.1823235E-1,-3.3085617E-1,-2.2905177E-2,-1.3506885E-2,1.7465821E-1,-2.5030386E-1,3.1222853E-1,1.311679E0,2.7674764E-1],"split_indices":[5,4,5,2,1,5,5,6,6,0,0,6,2,6,2,0,0,0,0,0,0,0,0,0,0,0,0],"split_type":[0,0,0,0,0,0,0,0,0,0,0,0,0,0,0,0,0,0,0,0,0,0,0,0,0,0,0],"sum_hessian":[8.87E2,9E0,8.78E2,6E0,3E0,8.47E2,3.1E1,4E0,2E0,2E0,1E0,3.1E1,8.16E2,2.7E1,4E0,1E0,3E0,1E0,1E0,2.9E1,2E0,7.53E2,6.3E1,2E0,2.5E1,2E0,2E0],"tree_param":{"num_deleted":"0","num_feature":"9","num_nodes":"27","size_leaf_vector":"1"}},{"base_weights":[-1.0451986E-1,-2.192225E1,9.149177E-2,-2.4821924E1,-4.061346E-2,-9.026112E-2,1.2373746E1,-1.3711252E0,-2.3046103E-1,-3.0453672E0,4.594625E-1,7.0782924E0,1.7372059E1,-1.6757861E-1,5.925521E-1,1.5463263E-3,1.13497995E-1,4.4063935E-1,1.5703003E-1,1.0444106E0,3.446584E-1],"categories":[],"categories_nodes":[],"categories_segments":[],"categories_sizes":[],"default_left":[0,0,0,0,0,0,0,0,0,0,0,0,0,0,0,0,0,0,0,0,0],"id":49,"left_children":[1,3,5,7,-1,9,11,-1,-1,13,15,17,19,-1,-1,-1,-1,-1,-1,-1,-1],"loss_changes":[3.8423289E3,4.6953418E2,1.9901274E3,2.4155664E2,0E0,1.4293274E3,2.2112378E2,0E0,0E0,6.691864E2,5.7562036E2,2.6961823E1,7.70863E1,0E0,0E0,0E0,0E0,0E0,0E0,0E0,0E0],"parents":[2147483647,0,0,1,1,2,2,3,3,5,5,6,6,9,9,10,10,11,11,12,12],"right_children":[2,4,6,8,-1,10,12,-1,-1,14,16,18,20,-1,-1,-1,-1,-1,-1,-1,-1],"split_conditions":[-6.16E1,2.3E-2,3.67E1,3E-2,-4.061346E-2,-1.03E1,5.37E1,-1.3711252E0,-2.3046103E-1,3.67E-1,6.1E0,1.55E1,7E-2,-1.6757861E-1,5.925521E-1,1.5463263E-3,1.13497995E-1,4.4063935E-1,1.5703003E-1,1.0444106E0,3.446584E-1],"split_indices":[5,1,5,0,0,5,5,0,0,1,5,7,0,0,0,0,0,0,0,0,0],"split_type":[0,0,0,0,0,0,0,0,0,0,0,0,0,0,0,0,0,0,0,0,0],"sum_hessian":[8.97E2,7E0,8.9E2,6E0,1E0,8.78E2,1.2E1,5E0,1E0,1.37E2,7.41E2,7E0,5E0,1.35E2,2E0,6E2,1.41E2,4E0,3E0,3E0,2E0],"tree_param":{"num_deleted":"0","num_feature":"9","num_nodes":"21","size_leaf_vector":"1"}},{"base_weights":[-9.007296E-2,-6.8351436E0,4.562641E-1,-3.003523E1,-5.64084E0,3.0342838E-1,1.5835641E1,5.021534E-2,-2.3028576E0,-1.0134584E1,-4.5169578E0,2.9066605E-3,3.0381396E0,2.1809288E1,3.944798E-1,-5.455958E-1,-3.9598133E-2,-2.5481814E-1,9.3050685E-4,-1.2677743E-1,9.879608E-3,1.2741983E-1,2.3515823E-1,1.2331427E0,3.3121464E-1],"categories":[],"categories_nodes":[],"categories_segments":[],"categories_sizes":[],"default_left":[0,0,0,0,0,0,0,0,0,0,0,0,0,0,0,0,0,0,0,0,0,0,0,0,0],"id":50,"left_children":[1,3,5,7,9,11,13,-1,-1,15,17,19,21,23,-1,-1,-1,-1,-1,-1,-1,-1,-1,-1,-1],"loss_changes":[3.2459907E3,1.6593E3,1.9108676E3,1.5381946E3,2.7745056E2,6.6403796E2,2.0766833E2,0E0,0E0,7.85061E1,1.39375E2,3.6077307E2,5.3249207E1,9.95166E0,0E0,0E0,0E0,0E0,0E0,0E0,0E0,0E0,0E0,0E0,0E0],"parents":[2147483647,0,0,1,1,2,2,3,3,4,4,5,5,6,6,9,9,10,10,11,11,12,12,13,13],"right_children":[2,4,6,8,10,12,14,-1,-1,16,18,20,22,24,-1,-1,-1,-1,-1,-1,-1,-1,-1,-1,-1],"split_conditions":[-1.45E1,3E0,4.26E1,1.5E-2,-4.04E1,8.8E0,4E0,5.021534E-2,-2.3028576E0,2.25E0,3.5E2,8E1,1.232E2,3.27E-1,3.944798E-1,-5.455958E-1,-3.9598133E-2,-2.5481814E-1,9.3050685E-4,-1.2677743E-1,9.879608E-3,1.2741983E-1,2.3515823E-1,1.2331427E0,3.3121464E-1],"split_indices":[5,6,5,2,5,5,6,0,0,2,6,6,7,2,0,0,0,0,0,0,0,0,0,0,0],"split_type":[0,0,0,0,0,0,0,0,0,0,0,0,0,0,0,0,0,0,0,0,0,0,0,0,0],"sum_hessian":[8.79E2,6.5E1,8.14E2,2E0,6.3E1,8.07E2,7E0,1E0,1E0,1.1E1,5.2E1,7.28E2,7.9E1,3E0,4E0,1E1,1E0,4.6E1,6E0,5.1E1,6.77E2,6.3E1,1.6E1,2E0,1E0],"tree_param":{"num_deleted":"0","num_feature":"9","num_nodes":"25","size_leaf_vector":"1"}},{"base_weights":[1.04290664E-1,-6.0511217E0,4.4084793E-1,-1.0441008E1,-4.373129E0,2.5953183E-1,1.040802E1,-1.3377177E0,-1.2127893E1,-5.159882E0,2.894934E-1,-5.0194955E-1,1.413695E0,7.9021974E0,1.1372385E0,4.8959922E-2,-1.4928876E-1,-7.342132E-1,-3.3173355E-1,-3.139188E-1,-1.8114154E-1,-1.3323845E-1,1.2164084E-1,6.57496E-1,-2.9167263E-2,3.8446933E-2,1.8522185E-1,4.8514867E-1,1.9420001E-1],"categories":[],"categories_nodes":[],"categories_segments":[],"categories_sizes":[],"default_left":[0,0,0,0,0,0,0,0,0,0,0,0,0,0,0,0,0,0,0,0,0,0,0,0,0,0,0,0,0],"id":51,"left_children":[1,3,5,7,9,11,13,15,17,19,21,23,25,27,-1,-1,-1,-1,-1,-1,-1,-1,-1,-1,-1,-1,-1,-1,-1],"loss_changes":[1.8381486E3,2.931853E2,1.5171615E3,1.6805078E2,1.2988544E2,7.275382E2,2.8397205E2,1.4378899E1,4.300171E1,2.8830017E1,4.447453E1,5.621613E2,4.8307477E2,6.3615906E1,0E0,0E0,0E0,0E0,0E0,0E0,0E0,0E0,0E0,0E0,0E0,0E0,0E0,0E0,0E0],"parents":[2147483647,0,0,1,1,2,2,3,3,4,4,5,5,6,6,7,7,8,8,9,9,10,10,11,11,12,12,13,13],"right_children":[2,4,6,8,10,12,14,16,18,20,22,24,26,28,-1,-1,-1,-1,-1,-1,-1,-1,-1,-1,-1,-1,-1,-1,-1],"split_conditions":[-1.9E1,-4.56E1,3.67E1,9.7E0,1E-2,1.6E0,1.296E2,1E-2,-6.16E1,1.81E-1,1.3E-2,8.9E0,5E-2,1.55E1,1.1372385E0,4.8959922E-2,-1.4928876E-1,-7.342132E-1,-3.3173355E-1,-3.139188E-1,-1.8114154E-1,-1.3323845E-1,1.2164084E-1,6.57496E-1,-2.9167263E-2,3.8446933E-2,1.8522185E-1,4.8514867E-1,1.9420001E-1],"split_indices":[5,5,5,7,3,5,5,0,5,2,1,7,0,7,0,0,0,0,0,0,0,0,0,0,0,0,0,0,0],"split_type":[0,0,0,0,0,0,0,0,0,0,0,0,0,0,0,0,0,0,0,0,0,0,0,0,0,0,0,0,0],"sum_hessian":[8.85E2,4.5E1,8.4E2,1.1E1,3.4E1,8.26E2,1.4E1,2E0,9E0,2.9E1,5E0,4.98E2,3.28E2,1.3E1,1E0,1E0,1E0,5E0,4E0,1.5E1,1.4E1,2E0,3E0,2E0,4.96E2,2.57E2,7.1E1,8E0,5E0],"tree_param":{"num_deleted":"0","num_feature":"9","num_nodes":"29","size_leaf_vector":"1"}},{"base_weights":[2.8722746E-2,-1.3433442E1,2.566051E-1,-2.9316992E1,-8.734666E0,-5.6837404E-1,1.5457875E0,4.7735978E-2,-2.2465103E0,-9.395045E0,-2.0252848E-2,1.271159E1,-6.41234E-1,1.0120214E0,5.00487E0,-5.2788806E-1,-2.2150865E-1,8.2734756E-2,8.706345E-1,-3.4879025E-2,7.418298E-1,4.2073797E-2,4.027361E-1,2.6666334E-1,-7.399545E-2],"categories":[],"categories_nodes":[],"categories_segments":[],"categories_sizes":[],"default_left":[0,0,0,0,0,0,0,0,0,0,0,0,0,0,0,0,0,0,0,0,0,0,0,0,0],"id":52,"left_children":[1,3,5,7,9,11,13,-1,-1,15,-1,17,19,21,23,-1,-1,-1,-1,-1,-1,-1,-1,-1,-1],"loss_changes":[2.7644575E3,8.6342456E2,9.431825E2,1.460812E3,6.770355E1,5.316106E2,6.337689E2,0E0,0E0,2.2500122E1,0E0,1.2712598E2,4.8042334E2,3.5475354E2,1.05853516E2,0E0,0E0,0E0,0E0,0E0,0E0,0E0,0E0,0E0,0E0],"parents":[2147483647,0,0,1,1,2,2,3,3,4,4,5,5,6,6,9,9,11,11,12,12,13,13,14,14],"right_children":[2,4,6,8,10,12,14,-1,-1,16,-1,18,20,22,24,-1,-1,-1,-1,-1,-1,-1,-1,-1,-1],"split_conditions":[-4.04E1,3E0,1.4E0,1.5E-2,2E0,3E0,8E-2,4.7735978E-2,-2.2465103E0,2.2E1,-2.0252848E-2,1.5E-2,5E-1,2.7E1,4.17E-1,-5.2788806E-1,-2.2150865E-1,8.2734756E-2,8.706345E-1,-3.4879025E-2,7.418298E-1,4.2073797E-2,4.027361E-1,2.6666334E-1,-7.399545E-2],"split_indices":[5,6,5,2,1,6,0,0,0,6,0,2,1,5,1,0,0,0,0,0,0,0,0,0,0],"split_type":[0,0,0,0,0,0,0,0,0,0,0,0,0,0,0,0,0,0,0,0,0,0,0,0,0],"sum_hessian":[8.99E2,1.4E1,8.85E2,2E0,1.2E1,5.4E2,3.45E2,1E0,1E0,1.1E1,1E0,2E0,5.38E2,3E2,4.5E1,8E0,3E0,1E0,1E0,5.37E2,1E0,2.94E2,6E0,4.3E1,2E0],"tree_param":{"num_deleted":"0","num_feature":"9","num_nodes":"25","size_leaf_vector":"1"}},{"base_weights":[1.3070033E-1,-2.4543982E0,8.39929E-1,-5.542009E0,-1.0323448E0,5.6713927E-1,7.3276567E0,-1.2437548E1,-4.6890044E0,-1.2610755E0,7.2328407E-1,2.1013509E-1,2.5963917E0,5.9712896E0,1.0987393E0,-7.7688295E-1,-2.0791085E-1,-2.4311869E-1,1.16823696E-1,-1.7036931E-1,-2.215364E-2,6.1968994E-1,7.27074E-3,2.0670421E-2,1.9359496E-1,3.4726053E-1,1.3950382E-1],"categories":[],"categories_nodes":[],"categories_segments":[],"categories_sizes":[],"default_left":[0,0,0,0,0,0,0,0,0,0,0,0,0,0,0,0,0,0,0,0,0,0,0,0,0,0,0],"id":53,"left_children":[1,3,5,7,9,11,13,15,17,19,-1,21,23,25,-1,-1,-1,-1,-1,-1,-1,-1,-1,-1,-1,-1,-1],"loss_changes":[1.6264769E3,8.329114E2,1.2276147E3,2.945957E2,4.8616553E2,4.8411255E2,4.2505493E2,8.939215E1,7.835095E1,2.2848541E2,0E0,4.4766003E2,2.7684045E2,6.427496E1,0E0,0E0,0E0,0E0,0E0,0E0,0E0,0E0,0E0,0E0,0E0,0E0,0E0],"parents":[2147483647,0,0,1,1,2,2,3,3,4,4,5,5,6,6,7,7,8,8,9,9,11,11,12,12,13,13],"right_children":[2,4,6,8,10,12,14,16,18,20,-1,22,24,26,-1,-1,-1,-1,-1,-1,-1,-1,-1,-1,-1,-1,-1],"split_conditions":[-8.1E0,3.84E1,1.77E1,-6.16E1,5E0,2.6E-2,1.296E2,3E-2,1.67E-1,-1.51E1,7.2328407E-1,8.9E0,3E-2,3.66E1,1.0987393E0,-7.7688295E-1,-2.0791085E-1,-2.4311869E-1,1.16823696E-1,-1.7036931E-1,-2.215364E-2,6.1968994E-1,7.27074E-3,2.0670421E-2,1.9359496E-1,3.4726053E-1,1.3950382E-1],"split_indices":[5,7,5,5,1,4,5,0,1,5,0,7,0,7,0,0,0,0,0,0,0,0,0,0,0,0,0],"split_type":[0,0,0,0,0,0,0,0,0,0,0,0,0,0,0,0,0,0,0,0,0,0,0,0,0,0,0],"sum_hessian":[8.85E2,1.9E2,6.95E2,5.9E1,1.31E2,6.68E2,2.7E1,5E0,5.4E1,1.3E2,1E0,5.69E2,9.9E1,2.6E1,1E0,3E0,2E0,5.3E1,1E0,3.5E1,9.5E1,2E0,5.67E2,3.7E1,6.2E1,1.9E1,7E0],"tree_param":{"num_deleted":"0","num_feature":"9","num_nodes":"27","size_leaf_vector":"1"}},{"base_weights":[7.9725355E-2,-1.6970573E1,2.5581372E-1,-2.2455904E1,-4.499937E0,1.5979883E-1,1.6853632E1,-1.2776306E0,-1.7430916E-1,-1.548729E-2,-2.8967094E-1,-3.2936463E0,4.9098825E-1,2.769954E-1,1.127474E0,-1.8033256E-1,1.6210513E-1,6.291588E-1,2.1453105E-2],"categories":[],"categories_nodes":[],"categories_segments":[],"categories_sizes":[],"default_left":[0,0,0,0,0,0,0,0,0,0,0,0,0,0,0,0,0,0,0],"id":54,"left_children":[1,3,5,7,9,11,13,-1,-1,-1,-1,15,17,-1,-1,-1,-1,-1,-1],"loss_changes":[2.643415E3,5.1459985E2,1.3853652E3,2.6338086E2,1.9885262E1,9.9324365E2,1.9728418E2,0E0,0E0,0E0,0E0,1.6716785E2,5.876687E2,0E0,0E0,0E0,0E0,0E0,0E0],"parents":[2147483647,0,0,1,1,2,2,3,3,4,4,5,5,6,6,11,11,12,12],"right_children":[2,4,6,8,10,12,14,-1,-1,-1,-1,16,18,-1,-1,-1,-1,-1,-1],"split_conditions":[-6.16E1,2.3E-2,5.37E1,3E-2,1E-2,-1.4E1,9.7E0,-1.2776306E0,-1.7430916E-1,-1.548729E-2,-2.8967094E-1,1.009E2,9.7E0,2.769954E-1,1.127474E0,-1.8033256E-1,1.6210513E-1,6.291588E-1,2.1453105E-2],"split_indices":[5,4,5,0,0,5,7,0,0,0,0,7,7,0,0,0,0,0,0],"split_type":[0,0,0,0,0,0,0,0,0,0,0,0,0,0,0,0,0,0,0],"sum_hessian":[8.78E2,8E0,8.7E2,5E0,3E0,8.66E2,4E0,4E0,1E0,1E0,2E0,7.5E1,7.91E2,2E0,2E0,7.2E1,3E0,3E0,7.88E2],"tree_param":{"num_deleted":"0","num_feature":"9","num_nodes":"19","size_leaf_vector":"1"}},{"base_weights":[5.028268E-2,-5.2742867E0,3.4076893E-1,-1.0023756E1,-4.1647987E0,7.7454206E-3,3.7508264E0,-1.2464875E1,-1.800265E0,-4.484895E0,1.9997172E-1,1.15612335E1,-3.7454333E-2,3.2376842E0,1.043084E0,-1.6995144E-1,-6.79912E-1,-1.1991978E-1,-1.5100098E-2,-2.3180616E-1,-5.8759566E-2,4.9445163E-2,8.176474E-1,-1.2711763E-2,8.5244246E-2,2.6905352E-1,1.0171511E-1],"categories":[],"categories_nodes":[],"categories_segments":[],"categories_sizes":[],"default_left":[0,0,0,0,0,0,0,0,0,0,0,0,0,0,0,0,0,0,0,0,0,0,0,0,0,0,0],"id":55,"left_children":[1,3,5,7,9,11,13,15,17,19,-1,21,23,25,-1,-1,-1,-1,-1,-1,-1,-1,-1,-1,-1,-1,-1],"loss_changes":[1.3752797E3,2.0064917E2,9.573064E2,1.3815613E2,1.1985736E2,4.0201617E2,5.9097925E2,1.5428589E1,1.9641504E0,1.3571533E1,0E0,1.3580728E2,2.9013388E2,1.7992242E2,0E0,0E0,0E0,0E0,0E0,0E0,0E0,0E0,0E0,0E0,0E0,0E0,0E0],"parents":[2147483647,0,0,1,1,2,2,3,3,4,4,5,5,6,6,7,7,8,8,9,9,11,11,12,12,13,13],"right_children":[2,4,6,8,10,12,14,16,18,20,-1,22,24,26,-1,-1,-1,-1,-1,-1,-1,-1,-1,-1,-1,-1,-1],"split_conditions":[-1.9E1,-6.16E1,9.3E0,3.6E-2,2E-2,8.9E0,1.296E2,1.14E1,1E-3,1E-2,1.9997172E-1,1.5E-2,1.369E2,4E-3,1.043084E0,-1.6995144E-1,-6.79912E-1,-1.1991978E-1,-1.5100098E-2,-2.3180616E-1,-5.8759566E-2,4.9445163E-2,8.176474E-1,-1.2711763E-2,8.5244246E-2,2.6905352E-1,1.0171511E-1],"split_indices":[5,5,5,4,3,7,5,7,1,3,0,2,7,4,0,0,0,0,0,0,0,0,0,0,0,0,0],"split_type":[0,0,0,0,0,0,0,0,0,0,0,0,0,0,0,0,0,0,0,0,0,0,0,0,0,0,0],"sum_hessian":[8.87E2,4.5E1,8.42E2,7E0,3.8E1,7.68E2,7.4E1,5E0,2E0,3.7E1,1E0,2E0,7.66E2,7.3E1,1E0,1E0,4E0,1E0,1E0,3.5E1,2E0,1E0,1E0,6.82E2,8.4E1,2.5E1,4.8E1],"tree_param":{"num_deleted":"0","num_feature":"9","num_nodes":"27","size_leaf_vector":"1"}},{"base_weights":[-1.1325449E-1,-1.8395466E1,5.498797E-2,-2.2541769E1,-3.971037E0,-9.246646E-2,9.78275E0,-4.313906E0,-3.0577223E1,-1.4722586E-2,-2.831052E-1,-1.329446E0,4.595403E-1,7.207957E0,1.0170069E0,1.0215435E-1,-4.2569733E-1,-2.1347358E0,-6.1532426E-1,-1.0764747E-1,1.0425768E-1,8.342805E-3,1.8203036E-1,3.810615E-1,6.6548824E-2],"categories":[],"categories_nodes":[],"categories_segments":[],"categories_sizes":[],"default_left":[0,0,0,0,0,0,0,0,0,0,0,0,0,0,0,0,0,0,0,0,0,0,0,0,0],"id":56,"left_children":[1,3,5,7,9,11,13,15,17,-1,-1,19,21,23,-1,-1,-1,-1,-1,-1,-1,-1,-1,-1,-1],"loss_changes":[2.6985266E3,3.8895044E2,1.248834E3,7.469075E2,1.6984833E1,5.864714E2,2.0676929E2,9.749361E1,3.6016016E2,0E0,0E0,7.4965173E2,5.524352E2,1.9001892E1,0E0,0E0,0E0,0E0,0E0,0E0,0E0,0E0,0E0,0E0,0E0],"parents":[2147483647,0,0,1,1,2,2,3,3,4,4,5,5,6,6,7,7,8,8,11,11,12,12,13,13],"right_children":[2,4,6,8,10,12,14,16,18,-1,-1,20,22,24,-1,-1,-1,-1,-1,-1,-1,-1,-1,-1,-1],"split_conditions":[-6.16E1,2.01E1,3.67E1,1.5E-2,1E-2,-5.3E0,1.296E2,3E0,3E0,-1.4722586E-2,-2.831052E-1,1.009E2,2.78E-1,2E0,1.0170069E0,1.0215435E-1,-4.2569733E-1,-2.1347358E0,-6.1532426E-1,-1.0764747E-1,1.0425768E-1,8.342805E-3,1.8203036E-1,3.810615E-1,6.6548824E-2],"split_indices":[5,7,5,2,0,5,5,6,6,0,0,7,2,0,0,0,0,0,0,0,0,0,0,0,0],"split_type":[0,0,0,0,0,0,0,0,0,0,0,0,0,0,0,0,0,0,0,0,0,0,0,0,0],"sum_hessian":[8.76E2,7E0,8.69E2,5E0,2E0,8.57E2,1.2E1,2E0,3E0,1E0,1E0,2.64E2,5.93E2,1.1E1,1E0,1E0,1E0,1E0,2E0,2.13E2,5.1E1,5.44E2,4.9E1,1E1,1E0],"tree_param":{"num_deleted":"0","num_feature":"9","num_nodes":"25","size_leaf_vector":"1"}},{"base_weights":[9.290468E-2,-1.657664E1,2.6524144E-1,-8.613063E0,-2.4377842E1,-8.2264894E-1,1.223328E0,9.960041E-2,-1.1132479E1,-2.0813675E0,-4.7522225E0,-3.3611333E0,-1.932591E-1,7.664226E-1,4.8993783E0,-6.206202E-1,-1.5031949E-1,-3.420622E-1,-1.4354515E-2,-2.0404454E-1,7.950651E-2,-4.0336072E-2,1.280159E-1,2.0718282E-2,1.1248105E-1,2.1020503E-1,9.9158174E-1],"categories":[],"categories_nodes":[],"categories_segments":[],"categories_sizes":[],"default_left":[0,0,0,0,0,0,0,0,0,0,0,0,0,0,0,0,0,0,0,0,0,0,0,0,0,0,0],"id":57,"left_children":[1,3,5,7,9,11,13,-1,15,-1,17,19,21,23,25,-1,-1,-1,-1,-1,-1,-1,-1,-1,-1,-1,-1],"loss_changes":[2.526693E3,3.4916138E2,9.078014E2,1.8248755E2,1.1563069E3,6.512106E2,7.73903E2,0E0,1.4687439E1,0E0,2.601921E1,2.951493E2,5.5612823E2,2.1472414E2,4.461112E2,0E0,0E0,0E0,0E0,0E0,0E0,0E0,0E0,0E0,0E0,0E0,0E0],"parents":[2147483647,0,0,1,1,2,2,3,3,4,4,5,5,6,6,8,8,10,10,11,11,12,12,13,13,14,14],"right_children":[2,4,6,8,10,12,14,-1,16,-1,18,20,22,24,26,-1,-1,-1,-1,-1,-1,-1,-1,-1,-1,-1,-1],"split_conditions":[-6.16E1,3.44E-1,-9E-1,3E0,3E0,3.79E1,2.24E-1,9.960041E-2,5E-2,-2.0813675E0,1.11E0,-3E0,1.74E-1,1.346E2,1.296E2,-6.206202E-1,-1.5031949E-1,-3.420622E-1,-1.4354515E-2,-2.0404454E-1,7.950651E-2,-4.0336072E-2,1.280159E-1,2.0718282E-2,1.1248105E-1,2.1020503E-1,9.9158174E-1],"split_indices":[5,2,5,6,6,7,2,0,0,0,2,5,2,7,5,0,0,0,0,0,0,0,0,0,0,0,0],"split_type":[0,0,0,0,0,0,0,0,0,0,0,0,0,0,0,0,0,0,0,0,0,0,0,0,0,0,0],"sum_hessian":[8.77E2,8E0,8.69E2,5E0,3E0,4.07E2,4.62E2,1E0,4E0,1E0,2E0,8E1,3.27E2,4.12E2,5E1,3E0,1E0,1E0,1E0,7E1,1E1,2.68E2,5.9E1,3.34E2,7.8E1,4.9E1,1E0],"tree_param":{"num_deleted":"0","num_feature":"9","num_nodes":"27","size_leaf_vector":"1"}},{"base_weights":[-2.9237393E-2,-1.8388401E1,9.784936E-2,-3.9541607E0,-3.1504587E1,-1.642429E-1,5.0038986E0,9.711037E-2,-6.567019E0,-2.0293336E0,-3.335106E-1,-4.363303E0,-5.581196E-3,4.0615244E0,8.217407E0,-3.9953938E-1,-9.298706E-2,-2.4660407E-1,-8.94939E-2,-9.215519E-3,1.6862701E-1,1.322965E-1,2.8328237E-1,4.7456107E-1,-4.9327757E-2],"categories":[],"categories_nodes":[],"categories_segments":[],"categories_sizes":[],"default_left":[0,0,0,0,0,0,0,0,0,0,0,0,0,0,0,0,0,0,0,0,0,0,0,0,0],"id":58,"left_children":[1,3,5,7,9,11,13,-1,15,-1,-1,17,19,21,23,-1,-1,-1,-1,-1,-1,-1,-1,-1,-1],"loss_changes":[2.0363556E3,1.0113589E3,1.1156431E3,7.4380005E1,4.0592188E2,5.489492E2,9.9871216E1,0E0,5.2454376E0,0E0,0E0,3.5083435E1,4.8061783E2,6.675745E1,1.1488092E2,0E0,0E0,0E0,0E0,0E0,0E0,0E0,0E0,0E0,0E0],"parents":[2147483647,0,0,1,1,2,2,3,3,4,4,5,5,6,6,8,8,11,11,12,12,13,13,14,14],"right_children":[2,4,6,8,10,12,14,-1,16,-1,-1,18,20,22,24,-1,-1,-1,-1,-1,-1,-1,-1,-1,-1],"split_conditions":[-8.48E1,5.55E-1,1.2E1,8.9E0,8.9E0,-2.21E1,4.26E1,9.711037E-2,1E-2,-2.0293336E0,-3.335106E-1,8.1E-2,4.49E-1,9E-3,1.7E-2,-3.9953938E-1,-9.298706E-2,-2.4660407E-1,-8.94939E-2,-9.215519E-3,1.6862701E-1,1.322965E-1,2.8328237E-1,4.7456107E-1,-4.9327757E-2],"split_indices":[5,2,5,7,7,5,5,0,0,0,0,1,2,1,1,0,0,0,0,0,0,0,0,0,0],"split_type":[0,0,0,0,0,0,0,0,0,0,0,0,0,0,0,0,0,0,0,0,0,0,0,0,0],"sum_hessian":[8.71E2,5E0,8.66E2,3E0,2E0,8.23E2,4.3E1,1E0,2E0,1E0,1E0,2.9E1,7.94E2,3.5E1,8E0,1E0,1E0,2.3E1,6E0,7.55E2,3.9E1,2E1,1.5E1,7E0,1E0],"tree_param":{"num_deleted":"0","num_feature":"9","num_nodes":"25","size_leaf_vector":"1"}},{"base_weights":[-3.292646E-2,-2.2271893E1,9.233002E-2,-1.9786004E0,-8.053862E0,-1.3819192E-2,9.413612E0,-4.7648254E-1,-9.066238E-2,-1.3736175E0,5.784809E-1,4.617236E0,7.7269346E-1,-1.1220353E-1,5.3046502E-2,1.22798085E-2,1.1843228E-1,4.7913033E-1,-7.512217E-2],"categories":[],"categories_nodes":[],"categories_segments":[],"categories_sizes":[],"default_left":[0,0,0,0,0,0,0,0,0,0,0,0,0,0,0,0,0,0,0],"id":59,"left_children":[1,3,5,-1,7,9,11,-1,-1,13,15,17,-1,-1,-1,-1,-1,-1,-1],"loss_changes":[2.4867888E3,9.111604E2,8.787588E2,0E0,1.9559723E1,7.087489E2,2.1835938E2,0E0,0E0,5.681963E2,3.6471628E2,2.2710268E2,0E0,0E0,0E0,0E0,0E0,0E0,0E0],"parents":[2147483647,0,0,1,1,2,2,4,4,5,5,6,6,9,9,10,10,11,11],"right_children":[2,4,6,-1,8,10,12,-1,-1,14,16,18,-1,-1,-1,-1,-1,-1,-1],"split_conditions":[-8.48E1,8.9E0,4.26E1,-1.9786004E0,1E-2,-5.3E0,2E-2,-4.7648254E-1,-9.066238E-2,8.37E1,2.6E-2,1.22E1,7.7269346E-1,-1.1220353E-1,5.3046502E-2,1.22798085E-2,1.1843228E-1,4.7913033E-1,-7.512217E-2],"split_indices":[5,7,5,0,0,5,0,0,0,7,4,7,0,0,0,0,0,0,0],"split_type":[0,0,0,0,0,0,0,0,0,0,0,0,0,0,0,0,0,0,0],"sum_hessian":[8.91E2,4E0,8.87E2,1E0,3E0,8.78E2,9E0,2E0,1E0,2.66E2,6.12E2,6E0,3E0,1.96E2,7E1,5.17E2,9.5E1,3E0,3E0],"tree_param":{"num_deleted":"0","num_feature":"9","num_nodes":"19","size_leaf_vector":"1"}},{"base_weights":[9.526137E-3,-1.2356887E1,1.9014844E-1,-2.3799833E1,-8.11273E0,3.0679882E-2,8.377523E0,1.4414768E-1,-1.9291352E0,-9.464536E0,-1.3530712E0,-1.1455756E0,5.5556965E-1,6.5293484E0,9.48708E-1,-2.0781612E-1,-5.193704E-1,-8.8395886E-2,-1.3084459E-2,-6.266343E-2,6.9559586E-1,1.3997843E-2,2.0756269E-1,3.6342132E-1,4.5193326E-2],"categories":[],"categories_nodes":[],"categories_segments":[],"categories_sizes":[],"default_left":[0,0,0,0,0,0,0,0,0,0,0,0,0,0,0,0,0,0,0,0,0,0,0,0,0],"id":60,"left_children":[1,3,5,7,9,11,13,-1,-1,15,17,19,21,23,-1,-1,-1,-1,-1,-1,-1,-1,-1,-1,-1],"loss_changes":[2.0171018E3,4.3827185E2,1.1617526E3,1.2945768E3,8.7708984E1,5.402479E2,2.0904651E2,0E0,0E0,9.158325E-1,8.956232E-1,4.5526358E2,5.9840283E2,5.9953003E1,0E0,0E0,0E0,0E0,0E0,0E0,0E0,0E0,0E0,0E0,0E0],"parents":[2147483647,0,0,1,1,2,2,3,3,4,4,5,5,6,6,9,9,10,10,11,11,12,12,13,13],"right_children":[2,4,6,8,10,12,14,-1,-1,16,18,20,22,24,-1,-1,-1,-1,-1,-1,-1,-1,-1,-1,-1],"split_conditions":[-4.56E1,3E0,2.7E1,1.5E-2,3.6E-2,-5.3E0,1.296E2,1.4414768E-1,-1.9291352E0,5E0,1E-3,1E0,2.8E-1,1.7E-2,9.48708E-1,-2.0781612E-1,-5.193704E-1,-8.8395886E-2,-1.3084459E-2,-6.266343E-2,6.9559586E-1,1.3997843E-2,2.0756269E-1,3.6342132E-1,4.5193326E-2],"split_indices":[5,6,5,2,4,5,5,0,0,6,1,1,2,1,0,0,0,0,0,0,0,0,0,0,0],"split_type":[0,0,0,0,0,0,0,0,0,0,0,0,0,0,0,0,0,0,0,0,0,0,0,0,0],"sum_hessian":[9.01E2,1.2E1,8.89E2,2E0,1E1,8.73E2,1.6E1,1E0,1E0,8E0,2E0,2.69E2,6.04E2,1.5E1,1E0,2E0,6E0,1E0,1E0,2.68E2,1E0,5.62E2,4.2E1,1.3E1,2E0],"tree_param":{"num_deleted":"0","num_feature":"9","num_nodes":"25","size_leaf_vector":"1"}},{"base_weights":[6.1126597E-2,-1.6813993E1,1.9348614E-1,-7.0769477E0,-1.8809067E0,-5.6791697E-2,3.930791E0,7.2477216E-1,-5.5795E-1,-2.2550077E0,2.0120804E-1,3.3295395E0,9.249903E-1,1.4054394E-1,-8.618603E-2,-1.2963732E-1,6.782059E-1,5.4982966E-1,7.882102E-3,2.4072857E-1,1.1716955E-1],"categories":[],"categories_nodes":[],"categories_segments":[],"categories_sizes":[],"default_left":[0,0,0,0,0,0,0,0,0,0,0,0,0,0,0,0,0,0,0,0,0],"id":61,"left_children":[1,3,5,7,-1,9,11,13,-1,15,17,19,-1,-1,-1,-1,-1,-1,-1,-1,-1],"loss_changes":[2.0090109E3,1.1517745E3,8.345685E2,1.9916995E2,0E0,4.7514917E2,4.2894397E2,2.0168621E1,0E0,5.0532834E2,3.5100024E2,6.926294E1,0E0,0E0,0E0,0E0,0E0,0E0,0E0,0E0,0E0],"parents":[2147483647,0,0,1,1,2,2,3,3,5,5,6,6,7,7,9,9,10,10,11,11],"right_children":[2,4,6,8,-1,10,12,14,-1,16,18,20,-1,-1,-1,-1,-1,-1,-1,-1,-1],"split_conditions":[-6.16E1,5.55E-1,1.2E1,8E0,-1.8809067E0,-1.33E1,1.296E2,1E-2,-5.5795E-1,6E0,3E0,3E-3,9.249903E-1,1.4054394E-1,-8.618603E-2,-1.2963732E-1,6.782059E-1,5.4982966E-1,7.882102E-3,2.4072857E-1,1.1716955E-1],"split_indices":[5,2,5,6,0,5,5,0,0,2,6,4,0,0,0,0,0,0,0,0,0],"split_type":[0,0,0,0,0,0,0,0,0,0,0,0,0,0,0,0,0,0,0,0,0],"sum_hessian":[8.97E2,6E0,8.91E2,5E0,1E0,8.36E2,5.5E1,2E0,3E0,8.7E1,7.49E2,5.4E1,1E0,1E0,1E0,8.6E1,1E0,2E0,7.47E2,2E1,3.4E1],"tree_param":{"num_deleted":"0","num_feature":"9","num_nodes":"21","size_leaf_vector":"1"}},{"base_weights":[-3.0125946E-2,-1.38148575E1,1.1056873E-1,-1.1312358E0,-8.065653E0,-4.537822E-2,5.4582458E0,-9.638364E0,3.426533E-2,-3.5616293E0,1.1295106E-1,4.1825633E0,9.018656E-1,-5.340385E-1,-1.1065836E-1,-2.9412532E-1,-1.2420874E-1,-1.613692E-2,5.6425728E-2,3.9167464E-1,1.4047515E-1],"categories":[],"categories_nodes":[],"categories_segments":[],"categories_sizes":[],"default_left":[0,0,0,0,0,0,0,0,0,0,0,0,0,0,0,0,0,0,0,0,0],"id":62,"left_children":[1,3,5,-1,7,9,11,13,-1,15,17,19,-1,-1,-1,-1,-1,-1,-1,-1,-1],"loss_changes":[1.7276277E3,2.733639E2,7.3579504E2,0E0,1.02944305E2,4.780728E2,3.2573016E2,2.2802063E1,0E0,7.791049E1,3.6407486E2,9.830252E1,0E0,0E0,0E0,0E0,0E0,0E0,0E0,0E0,0E0],"parents":[2147483647,0,0,1,1,2,2,4,4,5,5,6,6,7,7,9,9,10,10,11,11],"right_children":[2,4,6,-1,8,10,12,14,-1,16,18,20,-1,-1,-1,-1,-1,-1,-1,-1,-1],"split_conditions":[-6.16E1,3E0,2.06E1,-1.1312358E0,7.7E-2,-2E1,1.296E2,5E-2,3.426533E-2,3E-2,4E-2,1.22E1,9.018656E-1,-5.340385E-1,-1.1065836E-1,-2.9412532E-1,-1.2420874E-1,-1.613692E-2,5.6425728E-2,3.9167464E-1,1.4047515E-1],"split_indices":[5,6,5,0,1,5,5,0,0,0,0,7,0,0,0,0,0,0,0,0,0],"split_type":[0,0,0,0,0,0,0,0,0,0,0,0,0,0,0,0,0,0,0,0,0],"sum_hessian":[8.89E2,8E0,8.81E2,2E0,6E0,8.57E2,2.4E1,5E0,1E0,3.6E1,8.21E2,2.3E1,1E0,4E0,1E0,1E1,2.6E1,5.75E2,2.46E2,5E0,1.8E1],"tree_param":{"num_deleted":"0","num_feature":"9","num_nodes":"21","size_leaf_vector":"1"}},{"base_weights":[-1.2401934E-2,-1.231093E1,1.2946391E-1,-6.0448375E0,-2.019886E1,3.1083792E-2,1.0689144E1,-2.3845577E-1,-5.170005E-1,-1.805603E0,-2.8571072E0,-3.4551346E-1,1.343128E0,1.252352E1,-5.378742E-2,1.6531125E-1,-1.2610455E-1,-2.4769174E-1,3.340869E-2,-1.9277105E-2,6.598401E-1,3.6276247E-2,1.9996274E-1,9.3704236E-1,3.1442103E-1],"categories":[],"categories_nodes":[],"categories_segments":[],"categories_sizes":[],"default_left":[0,0,0,0,0,0,0,0,0,0,0,0,0,0,0,0,0,0,0,0,0,0,0,0,0],"id":63,"left_children":[1,3,5,7,9,11,13,15,-1,-1,17,19,21,23,-1,-1,-1,-1,-1,-1,-1,-1,-1,-1,-1],"loss_changes":[1.529987E3,3.7216614E2,9.003616E2,1.7211024E2,1.0006753E3,4.254006E2,1.8612213E2,4.071763E1,0E0,0E0,2.5484682E1,3.677396E2,3.1206143E2,1.5350928E2,0E0,0E0,0E0,0E0,0E0,0E0,0E0,0E0,0E0,0E0,0E0],"parents":[2147483647,0,0,1,1,2,2,3,3,4,4,5,5,6,6,7,7,10,10,11,11,12,12,13,13],"right_children":[2,4,6,8,10,12,14,16,-1,-1,18,20,22,24,-1,-1,-1,-1,-1,-1,-1,-1,-1,-1,-1],"split_conditions":[-6.16E1,5.55E-1,4.26E1,1.14E1,3E0,4.6E0,1.95E-1,1E-2,-5.170005E-1,-1.805603E0,1E-3,2E0,8E-2,4E0,-5.378742E-2,1.6531125E-1,-1.2610455E-1,-2.4769174E-1,3.340869E-2,-1.9277105E-2,6.598401E-1,3.6276247E-2,1.9996274E-1,9.3704236E-1,3.1442103E-1],"split_indices":[5,2,5,7,6,5,1,0,0,0,1,1,0,6,0,0,0,0,0,0,0,0,0,0,0],"split_type":[0,0,0,0,0,0,0,0,0,0,0,0,0,0,0,0,0,0,0,0,0,0,0,0,0],"sum_hessian":[8.75E2,9E0,8.66E2,6E0,3E0,8.59E2,7E0,3E0,3E0,1E0,2E0,6.68E2,1.91E2,6E0,1E0,1E0,2E0,1E0,1E0,6.67E2,1E0,1.56E2,3.5E1,2E0,4E0],"tree_param":{"num_deleted":"0","num_feature":"9","num_nodes":"25","size_leaf_vector":"1"}},{"base_weights":[-1.571761E-2,-2.163005E1,8.0150515E-2,-1.760463E0,-5.367228E0,-2.3026134E-1,2.4385173E0,-3.244299E-1,-7.811222E-2,-2.1247249E0,2.5710668E-2,2.0889714E0,5.550307E0,-1.2389647E-1,4.7664294E-1,5.326825E-1,-9.87225E-4,5.9390165E-2,1.6604559E-1,3.200043E-1,-5.244274E-2],"categories":[],"categories_nodes":[],"categories_segments":[],"categories_sizes":[],"default_left":[0,0,0,0,0,0,0,0,0,0,0,0,0,0,0,0,0,0,0,0,0],"id":64,"left_children":[1,3,5,-1,7,9,11,-1,-1,13,15,17,19,-1,-1,-1,-1,-1,-1,-1,-1],"loss_changes":[1.8770073E3,6.943688E2,6.608841E2,0E0,2.6636047E0,3.8702844E2,1.0261548E2,0E0,0E0,4.1478543E2,3.4030908E2,1.0263318E2,6.2791107E1,0E0,0E0,0E0,0E0,0E0,0E0,0E0,0E0],"parents":[2147483647,0,0,1,1,2,2,4,4,5,5,6,6,9,9,10,10,11,11,12,12],"right_children":[2,4,6,-1,8,10,12,-1,-1,14,16,18,20,-1,-1,-1,-1,-1,-1,-1,-1],"split_conditions":[-8.48E1,3E0,8E0,-1.760463E0,1E-2,-1.29E1,3.67E1,-3.244299E-1,-7.811222E-2,1.407E2,3E0,5E-2,3.6E-2,-1.2389647E-1,4.7664294E-1,5.326825E-1,-9.87225E-4,5.9390165E-2,1.6604559E-1,3.200043E-1,-5.244274E-2],"split_indices":[5,6,5,0,0,5,5,0,0,7,6,0,4,0,0,0,0,0,0,0,0],"split_type":[0,0,0,0,0,0,0,0,0,0,0,0,0,0,0,0,0,0,0,0,0],"sum_hessian":[9.04E2,3E0,9.01E2,1E0,2E0,7.97E2,1.04E2,1E0,1E0,9.4E1,7.03E2,9.5E1,9E0,9.2E1,2E0,2E0,7.01E2,5.6E1,3.9E1,8E0,1E0],"tree_param":{"num_deleted":"0","num_feature":"9","num_nodes":"21","size_leaf_vector":"1"}},{"base_weights":[-1.5187614E-1,-5.2672446E-1,1.1324625E0,-9.4847864E-1,7.902959E-1,1.0100024E0,6.3142806E-1,-2.4618912E0,-2.8819776E-1,1.3823003E1,5.455817E-1,1.6402466E0,4.786218E-2,-9.980994E-2,-3.941926E-1,-2.7541399E-2,8.811114E-2,8.572041E-1,1.7952119E-1,-3.6875606E-2,1.197526E-1,4.0535707E-2,1.6291527E-1,3.8187653E-2,-7.645061E-2],"categories":[],"categories_nodes":[],"categories_segments":[],"categories_sizes":[],"default_left":[0,0,0,0,0,0,0,0,0,0,0,0,0,0,0,0,0,0,0,0,0,0,0,0,0],"id":65,"left_children":[1,3,5,7,9,11,-1,13,15,17,19,21,23,-1,-1,-1,-1,-1,-1,-1,-1,-1,-1,-1,-1],"loss_changes":[4.218497E2,3.7735068E2,2.6599243E2,5.1291907E2,5.186911E2,1.1937901E2,0E0,3.781571E2,1.9429306E2,4.039508E1,3.885726E2,1.570841E2,9.034852E1,0E0,0E0,0E0,0E0,0E0,0E0,0E0,0E0,0E0,0E0,0E0,0E0],"parents":[2147483647,0,0,1,1,2,2,3,3,4,4,5,5,7,7,8,8,9,9,10,10,11,11,12,12],"right_children":[2,4,6,8,10,12,-1,14,16,18,20,22,24,-1,-1,-1,-1,-1,-1,-1,-1,-1,-1,-1,-1],"split_conditions":[1.175E2,5E-2,2E0,4.03E2,4E0,2.337E3,6.3142806E-1,7.37E1,4E-2,7E-2,5.63E1,1.361E2,9E-3,-9.980994E-2,-3.941926E-1,-2.7541399E-2,8.811114E-2,8.572041E-1,1.7952119E-1,-3.6875606E-2,1.197526E-1,4.0535707E-2,1.6291527E-1,3.8187653E-2,-7.645061E-2],"split_indices":[7,0,1,6,6,6,0,7,1,0,7,7,4,0,0,0,0,0,0,0,0,0,0,0,0],"split_type":[0,0,0,0,0,0,0,0,0,0,0,0,0,0,0,0,0,0,0,0,0,0,0,0,0],"sum_hessian":[8.74E2,6.77E2,1.97E2,5.13E2,1.64E2,1.96E2,1E0,1.55E2,3.58E2,2E0,1.62E2,1.18E2,7.8E1,1.44E2,1.1E1,3.18E2,4E1,1E0,1E0,9.6E1,6.6E1,7.9E1,3.9E1,5.4E1,2.4E1],"tree_param":{"num_deleted":"0","num_feature":"9","num_nodes":"25","size_leaf_vector":"1"}},{"base_weights":[2.7282253E-2,-1.2179162E1,1.4999814E-1,-1.6785727E1,-2.2245245E0,8.16748E-2,1.22952175E1,-1.415184E0,-2.4117203E1,4.5525648E-2,-1.7865206E-1,-1.5080895E0,3.876165E-1,8.88725E-1,2.7175293E0,2.076851E-1,-3.138239E-1,-1.7139561E0,-4.6517617E-1,-8.454216E-2,6.1564237E-1,-5.6562567E-4,7.837888E-2,2.8781509E-2,1.750332E-1],"categories":[],"categories_nodes":[],"categories_segments":[],"categories_sizes":[],"default_left":[0,0,0,0,0,0,0,0,0,0,0,0,0,0,0,0,0,0,0,0,0,0,0,0,0],"id":66,"left_children":[1,3,5,7,9,11,13,15,17,-1,-1,19,21,-1,23,-1,-1,-1,-1,-1,-1,-1,-1,-1,-1],"loss_changes":[1.3544528E3,3.7537E2,7.416686E2,6.420023E2,2.0163898E1,4.3394482E2,2.1409155E2,1.0728658E2,2.8322485E2,0E0,0E0,3.8453827E2,3.521168E2,0E0,3.0170956E0,0E0,0E0,0E0,0E0,0E0,0E0,0E0,0E0,0E0,0E0],"parents":[2147483647,0,0,1,1,2,2,3,3,4,4,5,5,6,6,7,7,8,8,11,11,12,12,14,14],"right_children":[2,4,6,8,10,12,14,16,18,-1,-1,20,22,-1,24,-1,-1,-1,-1,-1,-1,-1,-1,-1,-1],"split_conditions":[-6.16E1,2.3E-2,5.37E1,1.5E-2,1E-2,-1.03E1,7E-2,3E0,3E0,4.5525648E-2,-1.7865206E-1,6E0,1.15E-1,8.88725E-1,1.5E-2,2.076851E-1,-3.138239E-1,-1.7139561E0,-4.6517617E-1,-8.454216E-2,6.1564237E-1,-5.6562567E-4,7.837888E-2,2.8781509E-2,1.750332E-1],"split_indices":[5,4,5,2,0,5,0,6,6,0,0,2,2,0,2,0,0,0,0,0,0,0,0,0,0],"split_type":[0,0,0,0,0,0,0,0,0,0,0,0,0,0,0,0,0,0,0,0,0,0,0,0,0],"sum_hessian":[9.02E2,8E0,8.94E2,5E0,3E0,8.9E2,4E0,2E0,3E0,1E0,2E0,1.43E2,7.47E2,2E0,2E0,1E0,1E0,1E0,2E0,1.42E2,